Inf. Norm,RKHS norm,RKHS/Inf,theta_0,theta_1,theta_2,theta_3,theta_4,theta_5
0.9699015988012808,2.497583704590402,2.5750897902191436,-2.2244483455187334,-0.6800965582787595,0.216415042962534,1.0756747625247893,1.4155806034499205,1.7610268831450417
0.9578769678504285,2.6271536054671554,2.7426837617389945,1.703524048364156,0.2912803618680657,-2.8043606331225934,2.2290613525093708,-1.6994738237418747,-2.256142332000933
0.9886202847595187,3.1305791346729714,3.1666143037258063,3.1343331217665362,-0.4963352486499426,0.3111559611430339,-0.3836624380189071,-1.6814237789336628,-0.3387566795137045
0.8990788895805147,2.982419112819983,3.3171940164355287,2.480609769936038,2.5185631916414977,-1.3496842553654467,-3.036555647906365,-2.8475956512774583,-2.1799659802832547
0.9732600770517658,2.597475049463799,2.6688396151336686,-0.3837513567071973,-0.23177554083721486,-1.617783143290978,-2.8412804080601877,-0.6418535503026264,2.496912822902705
0.9844480904199977,2.6011622098391753,2.6422543099549665,-0.530236754794811,2.216123331155635,-1.7244583925758872,-1.20131142475376,-1.4446069046228986,0.9206273263915037
0.9996921218880694,2.8455643061354827,2.8464406629125025,-0.5222716803020586,1.0747132866253395,1.0412024653105618,1.042887531787735,-1.6719417334206819,-0.9573160831736285
0.975990940655454,2.8407015673894347,2.910581900977157,-2.8443231302086733,-0.8902812045552921,-0.13307741356856084,-2.33894384001267,0.10348485394943818,3.0061767343045096
0.9148025628092961,2.9181401426731592,3.1899125137032307,-2.2095428278331894,1.829798571199718,0.8254093463480108,0.7189838358110494,1.8874996747552695,-1.371066149071671
0.9261636420210972,2.6907158872295627,2.9052272893781663,-2.0693828006723196,-1.1435619288108065,2.7625734335410357,-2.9280834238912092,0.19966346270706925,0.12624219524735336
0.9790438931900863,2.6965966904522296,2.754316439956254,0.3045341947136948,2.043733725056997,-2.764489026489007,0.16039825088263715,0.21561560173265715,2.395768358024058
0.9338492850806281,2.7162471344084334,2.908656865517559,-0.48031535599565967,-0.6902581299669701,-1.677245888819264,0.9045273453260556,1.288054657829723,0.1738494157348165
0.906246532590325,2.9593239368271047,3.2654733898605577,0.8356572791758934,-1.550350173415969,1.364669872056214,-0.2535958927397526,-2.0671343718692663,-2.571781113576478
0.8958529094950676,2.9409317434928584,3.2828288129917054,1.1988358007126152,-1.6740526966211338,2.235675904738118,-1.100962165668812,2.9826491759775253,1.2994408085145128
0.9604963445645913,3.187247528821921,3.3183338456813725,2.9978882831533973,-2.8595766243074525,-0.574997958148967,2.0729788620483474,0.41565515781597906,-0.4032958043856554
0.9939435639704177,2.7643188922311537,2.781162826980614,0.5531473628937822,-1.0592184050430782,1.6967723534938788,1.3530227486453938,-2.1371648137870274,2.635557766530302
0.9654047406286128,3.0322852242032807,3.140947103935745,-3.0572932740748677,0.26380520197295443,2.4133520512264734,-1.7620290600540218,-2.3971136329437557,-1.7143646662538232
0.8866032721393984,3.0094146870356298,3.3943194003489614,1.638586173223067,1.5339292065013792,2.275671802292253,-1.4138962204802148,-1.3788043461600552,0.260317139980331
0.9359875676364448,2.513378830124573,2.6852694597978,-0.47376766804655723,0.9986639320411932,2.8219790426307263,-0.5565792898088073,-0.4978272515458868,-1.9321966425147612
0.9610949053759401,3.0015928192023313,3.1230972117454248,-0.3405963198884234,2.704366417370112,-0.9802832495922851,-2.539189591823113,0.9768652107012761,-2.158431410698733
0.9297048124245848,2.955557509960988,3.1790278704196067,-1.7901846341108978,-0.6829388805100991,2.498283685113625,-0.22061634578787004,2.322028238868879,-1.506212184799646
0.9494384759534724,2.6331669218493188,2.7733939465692754,2.1730652574056446,2.822238799957346,-3.042484375899367,-1.3300251814864532,-2.744244850025326,-1.7750458052429794
0.9401100124400898,3.150750430384582,3.3514699223409976,1.1470889707461378,2.442895674583263,1.7251504246553448,-2.00457643277453,0.9505930989532647,0.15577595593402238
0.8851603275815012,2.518666051532166,2.8454348585796283,3.111615563776997,-2.3919135600551393,1.0755305278846388,-0.7308449220114897,-2.1208773291715826,0.18172622504098435
0.980386574402937,2.5879666300930952,2.6397409936679184,-2.784804332349149,1.809371536339321,-2.32782122924341,-1.8088321192520933,-2.523834638492378,2.3899994298695013
0.8651820550086536,2.6638159414474925,3.07890798939519,-0.9100890795243215,-1.5344676315730361,0.6310177649652351,0.29230278670964216,-3.074168736850998,0.7228787281030771
0.9634691624137479,2.6324535629812043,2.7322655105911267,2.5249566624207462,-2.308363937566943,-1.7781271722037326,1.8119872480107633,-1.1263369310135558,2.1859883496708292
0.9949896142826999,3.3379933852634682,3.3548022384835323,-2.7916185845632477,-0.2646903686062716,-0.4057174740093301,1.7309862786005477,-1.350677968589596,0.7213729627101961
0.9837203381921499,2.5677728218168454,2.610267087225031,0.49260529738905223,-2.049582851364695,1.7704951231892414,3.0687972674724158,-1.2006538188541227,1.8945045983457174
0.9997995843779157,2.6641446249869065,2.6646786682198527,-0.8458395927203792,-2.607556397448253,-3.030321600241231,1.419582159935385,2.0440120437590243,-1.684099162376202
0.9965222203309798,3.2672553743398325,3.2786578238613315,1.9549990180629306,3.05816846805775,1.5664903221262483,-0.6829847438138761,1.3258227490537209,2.4632160692125247
0.9300493735322943,2.4274552645085743,2.610028385148184,-1.4861780514537908,-1.561346324480989,-0.15947839634028282,2.0591510103232213,-0.6949494734517279,-0.15333548359922045
0.9995944517502957,3.0138011282713704,3.015023865923012,-0.739815506273465,2.430512356735208,2.7812832308669906,2.317193826109766,2.534948411087356,-2.764977499760906
0.9373920705004934,3.085977105814676,3.292087913829917,-3.1134041104348382,-0.48579467554704703,-2.7605531096491585,1.801005091646739,2.362348245041976,0.8680197476958105
0.9993229133278696,2.8187765920241015,2.8206864412197103,2.2732454568288407,3.104791482585161,0.035797274805945634,2.6887664962881184,0.9192410230728179,-0.1505582652567199
0.9685564411352001,2.9799454155037832,3.0766874174220837,-2.376271703299421,-1.1995572689262801,1.8462589937561837,-0.9326650812279214,-1.8402767195770844,0.48331942312122944
0.9533490466740385,2.5782682767806078,2.704432637527091,1.088899817286208,0.3066537233297493,0.8729673266010076,-0.04208326034026033,1.6930923928833623,2.6928069865773008
0.8952122735984573,3.0177259418885365,3.370961313743249,-0.9946031336711751,1.51558901287674,-1.18051243163081,2.890955551954799,-1.0713718211355254,-2.1678207983532927
0.9551853618183936,2.5910774446275964,2.7126435854240296,1.684800790650966,2.8410816814303157,-2.6106203562395223,-0.7622043158523351,-0.2351740548314898,1.400201969846723
0.9961673823256861,2.514193782468843,2.5238667989701904,-2.4444817386675917,0.0875793164988452,1.1931828923699639,1.9652031036640967,2.1672319742756745,-1.2625543199975995
0.9894664869700982,2.9362136036962108,2.9674715034435963,-1.018322636693418,1.2727005497686497,2.006484489318522,-2.17702062188908,0.4866570901927738,2.5174434031197137
0.9720335382993722,2.403285562599624,2.472430701109664,1.869287739222444,1.494897438212262,-0.09342319384831965,-2.034232247000442,1.2819410988110516,-0.5406015766518073
0.9781016525273281,2.3996476978422243,2.4533725013568346,2.226983600996016,-2.58739729987448,0.6198648453183209,-3.1169566757204703,-1.3606077253106976,2.8548444458369504
0.9999983668619193,3.3423643981647797,3.3423698567162723,0.7924417607441288,0.0018072844409116051,2.107759595254585,-3.035047400658185,-2.082483950217309,0.1566590980658451
0.9362268189482434,3.2572910948813845,3.4791687537221194,2.585311672795341,0.45830655041355906,-2.409068416151986,2.5717771496752437,0.25736115351925326,2.792825147340169
0.9563885183423773,2.772770345569375,2.8992091523381833,0.08882609515771511,2.7223244274655896,0.9797897374908349,-2.96294398236499,-0.13483106463400762,0.7177665803199185
0.9916002091892712,3.030542347518533,3.0562139049933177,0.3701389543726412,-3.0118885546817906,-0.30553166433576706,-2.766984444869325,1.3260988489555547,1.6089918282594748
0.9946696593850977,3.222739044949923,3.24000939864016,1.7506365342077865,1.643087685509478,-1.978948644051894,2.095248375967161,1.155538446617558,-1.365293232668571
0.9966892852632125,2.8968531463784997,2.9064756581721243,0.6664496083628717,2.2883678823431293,-2.838484881175683,3.1342057218206545,-1.3038191861936737,0.6999206648168981
0.9640572154113206,2.452341312165292,2.5437715448444482,1.9681650579896388,0.26892447426542976,-0.16736661068737702,1.273885653055344,2.340821112427226,2.8928541111849206
0.9551317830431179,2.4881837594552025,2.6050685398905604,-1.0094721160176263,0.6476987934933525,2.9735765501523943,-1.1919837976105503,-2.361621457006558,-1.872265212996811
0.9919012695564726,2.961161140783662,2.9853385933337315,2.213861990502158,3.0142373577743173,2.9673326420115336,2.379595405834876,-2.0016488769162053,-1.2373974330897957
0.94640781961643,2.4510353727780543,2.5898300098275135,-2.9050367051086563,1.7805454696673069,1.6766856758666524,-0.816348485519403,-1.0335059547943857,0.23990523011883358
0.9039247339807455,3.106832406108771,3.4370476758908444,-0.1479117163994772,2.5313367787544676,2.9690030123643147,2.3107191959374234,-0.5652304234210126,-1.6352225379546703
0.9243451248973825,3.0297673974306982,3.277744768510628,1.1104692959576905,-2.7501120158065917,-1.330257814690819,1.7660135699762547,0.93551185231731,1.113824591703712
0.9613211695191614,2.4098555867632223,2.5068163098588543,-0.44636702143126916,-0.8491981540677602,2.0615520739023863,2.0737022162568195,-1.6532635416674477,2.6471491797820397
0.9859502541605837,2.8325573028744806,2.872921114347759,-1.1467921023553385,-0.9795360110114131,2.162210762675496,0.3721833577960316,1.189123263273851,1.6229474456980508
0.9847823372692226,2.952567076292052,2.9981925594639,0.45820975709946055,2.82403870815111,2.895243109206315,1.1602748390816746,-1.627826768951462,-2.872615936232546
0.8751877795509799,3.310934162418048,3.7831128813484365,-1.065370234124201,0.616200630509359,-2.1238029907887697,-1.9213463141231537,-0.36482280063793526,2.7128852352748183
0.9869446665969743,2.9774457008145068,3.0168314410987818,1.5463570025609634,1.8411377900485046,-0.8340475093056807,-2.1352692494614436,-1.9501608464130396,2.7587394011348962
0.9437804348229498,2.4269434261864804,2.5715127551269563,-2.6105012938525984,1.6639232641099309,-2.989343888851685,-2.3796253935172818,-2.730368196884105,-2.078084315424233
0.9057480850480648,3.133349317999008,3.4594048496748764,2.5120765220455556,0.5807253984214804,1.0694164613280233,0.8832758139287513,2.5913011375120263,2.501391695757283
0.9978587250410946,3.373226819722832,3.380465325473717,-1.6231311339643215,1.3031437481692132,1.4478220654661076,1.6881912045150083,-0.16973502227990922,0.7536180590834638
0.9920962502986564,2.588111794365144,2.6087305476520344,2.0504764013543655,-3.0157818174544677,0.8953795151180248,1.3249224342047468,-0.6417414675016162,0.8853206678939571
0.9178618787148216,2.405109241252545,2.6203389606071754,-3.0531041408221458,-1.4472729752955211,1.4848838974992091,0.3397824046207756,1.248591613868002,-0.7163810625717724
0.902522414004542,2.4325375599065953,2.6952655381856845,0.40378226969657494,1.9029514978093616,-1.0041876603054063,-2.9835799642293663,2.3237362367166448,0.8447274913984271
0.8798385287347165,2.445852555386037,2.779887985700494,-1.2834080539491226,1.9956603264113806,3.0532906090147947,-2.720903045368982,-2.086665818707254,-0.4178908348608297
0.9945815717840311,2.5071461496712932,2.520804950341176,1.3142631003681222,-1.2928026085164144,2.8932444776077855,-2.2269439207376873,-2.328618246044675,3.0072921054093706
0.9920408402551278,2.98419339501814,3.0081356270077357,0.8045000819997896,1.8397748618165553,1.2321710225693296,3.047939977793158,-1.3765334740306068,2.1383579313755465
0.9260066339565071,2.593136157502371,2.8003429591241633,2.2840762810863033,2.2726964977700215,-3.127332487159698,-2.0096487757207235,2.332642961195199,1.1549930286026955
0.9906217186243177,3.1536519798167024,3.1835078118378,-1.17656704053926,-1.0047216730092434,-1.3461365995308125,0.6512471246104146,-0.015526064571542264,-2.025410592915619
0.9971426581879659,2.433057705544791,2.440029704441898,2.839673778922945,1.4790798273032797,-2.8399825952205164,0.15102322540221902,2.965257862118113,2.1163999408578693
0.9832406626830212,3.085048887459083,3.1376335464409553,-2.1675400945108674,0.8677894095064058,-1.6171219843281563,0.09129882425535385,-1.150960903706696,-0.7531213816509656
0.9666576353098904,3.1045352575057046,3.211618202871232,0.9645332928439654,2.35334982638814,1.5694763835826429,2.234119086481596,1.3835374891559455,-2.6241405032699907
0.9887565001145865,3.333359034944849,3.371263839538398,1.6530137742057391,-1.9602841005295037,1.3500367137746325,-2.9275489248297237,-2.3335836999210926,-1.970397814910858
0.9851883100964192,2.9779805059894455,3.0227525798575443,-2.8239586013524725,-2.9692650622078403,2.7355157038715765,1.134035639549114,1.7973987028587057,1.4983348588623242
0.982012067790394,2.8192953527077766,2.8709375833348134,-1.302340925970533,2.361694511956906,-2.2676902198591904,-3.0592881225769943,-0.7754667651302327,-2.7253644890267528
0.9961345108138264,2.72531272694446,2.735888273480177,1.6043721461336515,-3.05363832349925,-0.5371141942162989,1.1224266726905636,-0.5869101079860153,2.1353502893929894
0.9966779920217554,2.9360447113877335,2.9458307847572556,-1.9526944575101413,-2.099205912849256,-1.0421785616179284,-1.248950707675565,1.384522915452263,-1.265437364979153
0.9951023822293784,3.338725198389037,3.355157477272963,1.6629155939105233,1.9733618325065363,-1.7704755792795477,1.669198404823569,-2.7399868495360917,-2.4057981528631958
0.8729536617636646,2.572196643710041,2.946544308564243,-0.7360661030668307,1.4701240972105714,2.4190113551809436,-0.3681402322689138,2.551872354315706,-0.801601296268891
0.9542343544270224,2.9989109212420972,3.1427404676106185,-1.3018461226811904,1.4512750630996472,0.8596420662616744,-2.4708883575964875,2.843557740934493,0.8176692690168577
0.8582198795911571,2.6912978602283077,3.13590715413211,-2.8861337519034063,-2.580419342790292,1.233449188365558,-2.1455582184512,2.539583809465423,2.2804952525831297
0.9388829332738985,2.587135649644209,2.7555465734400233,3.0246787488288582,-1.164257442005966,0.13769821695092466,0.04961089860495571,-0.07715238828805537,1.9607393339980046
0.9567680182764221,2.5323357507323916,2.646760450139512,2.741416415556359,1.6985409468001933,-0.6945325356968537,1.7252094944108354,-2.228992974062129,0.09875588539930602
0.9484491229396358,2.489613431938958,2.6249309232556586,1.564975992862128,-2.819102393151501,-2.864168652722752,0.35654525033286255,-2.7970916976978626,-1.63417430614286
0.9514472345930823,2.413924922439271,2.5371085591222147,0.9884751861433019,-2.6641314593420162,2.492472127932988,-2.122604345278037,1.433872202503503,1.4627696761675963
0.9862675485320197,3.3485315106173137,3.39515531622361,-1.3506365003490022,0.9266257327842293,1.2949798364126623,-1.2631774842829868,0.9275059103458387,0.4315823023059986
0.8812765173891093,2.5962742142704536,2.9460381197518313,0.6677216608707073,-2.6493528090753675,-1.3042693648074037,-0.337507091789234,-0.5553277877170117,-0.6261884502080028
0.9959993147448735,3.2740508178769607,3.2872018779607424,-0.049247646371481935,0.08948022893484886,0.41654308220518876,-0.7962231285275072,1.917384192913759,1.175121353959681
0.9769821627141354,2.402897075684053,2.4595096690492393,-2.274616346193271,-1.4046478573090742,-3.085986995242622,-0.689483761010949,2.1922145210510706,-1.6924722316477372
0.9875680150325694,2.6982924935871013,2.732259907686574,1.9348091119671045,0.15784694959463952,2.238639352669126,-1.2314035556949061,-1.6509342082740288,-1.931166262446598
0.9832647732071809,3.2274033510866986,3.282333954220347,-1.094039505179119,-2.273959518793524,1.6153927036466467,1.5685366567207,-1.8508888981184146,3.0051224886930266
0.9995732618241875,3.384580762245187,3.3860257086793633,-0.18776645634295486,0.07153389099978202,-2.9000163228653113,-2.555645520705746,-1.9176998538652688,-2.421052069565159
0.9771000226936946,2.709718464928036,2.7732252604577927,2.636946321428969,-0.8416786952418795,-1.6466103807946455,-2.3408464580926447,0.7647924027030899,3.035659177744656
0.9820427473756166,2.6821103764769987,2.731154406103599,2.6954345420882584,0.5425306094348468,2.682112306765247,2.785186475292405,1.443287120064296,0.8080200796341401
0.9947351835948115,3.32302206925704,3.340609766358296,1.0394173642138638,0.5354548626163456,-0.9857200782504987,1.7629556235215142,2.794874260786976,-0.5377852964833161
0.9672131552318206,2.578972271228841,2.6663949484958316,0.47564821383235767,0.25677846788854497,1.49991586309359,-0.16186786054275615,0.3136974363390461,1.1762871841464424
0.9985840497155745,2.9393160517033983,2.9434838785384168,1.6943229460216322,1.3611744717552803,-0.8211711226300276,-0.8030710070111478,2.058967761444957,-2.884084820163732
0.9746254719101126,2.5562362418746685,2.622788256154282,2.222547104273156,-2.915838046532306,0.2573894391176057,-2.1278169815766175,-2.696375970600711,-0.11781880178015802
0.9693598217456952,3.336628352020074,3.4420947486880835,-2.961430216225005,0.24871428399130968,3.029961951633725,0.27139058417373807,-2.5683787567341705,-2.7805157285366118
0.9362469745103483,2.4130228537856455,2.5773358093334746,1.4654011314704087,2.4878654669119635,-3.11247466384499,-0.9425225957939425,-2.261281976762373,-2.114939075497859
0.976599500895091,3.134296191338562,3.2093976993290076,-0.3963135859633442,-2.894841168362431,-0.935149341456325,-0.11950952916145408,1.368235806188518,-0.12782930686515792
0.968718077123196,2.412240308813219,2.4901365689147186,0.4098888194313597,2.1530353803829323,-0.730954847371688,0.2610419793069574,-1.3712768848473167,-2.344329235119102
0.994664426289663,2.80997311898306,2.8250463620830737,2.5963703952984885,-0.10334723215735941,1.4581638752257646,-3.0896745509397063,-0.4394642618171418,-1.5150313074438901
0.9929731022416002,3.273178616650138,3.29634167255997,1.6119383642964964,1.5643230286402856,-1.1944082936304345,-2.8726644168691884,1.4100753504828312,-2.9040140123423077
0.9681563908639802,2.672896324353377,2.7608104946434238,1.198527061727833,-2.210280250061865,-0.7697863974182462,2.3712250953961815,-0.4489887942627009,1.2891110398268228
0.9749423086674727,3.376668364370529,3.463454539156965,-1.9524657817126931,0.24380945261045994,-1.104109470463917,-0.4871930682563068,1.8212936020233244,-2.2000027184160786
0.9999117334694517,2.821368645285432,2.821617699690317,-0.058904215232300494,-0.013286672200030214,2.2984859519442633,-2.6092028310322894,0.40345513934461863,1.2531928220255342
0.9896452784247095,3.0836088469195686,3.1158728426694196,2.2409585082468926,2.225927683749666,-1.500071936598962,0.1940246696065926,2.281318215481617,-2.153463721902974
0.9572361430709502,2.773781336390202,2.8976980826188985,-3.112992542366861,-0.7066537197346365,-0.7384817774028267,2.7989380115767606,0.5058540375538092,1.6489818744982587
0.9709204187837627,2.7588585709965434,2.841487847636851,1.8204603389001344,-2.669347486363441,-0.3863577944420933,-2.5068616117281657,-1.5547516700092638,-1.2746635326253102
0.9525943678874723,3.030056133804196,3.18084615650607,0.607436398200766,-2.4534077190939003,0.2942064232553352,-2.5354218677783806,-1.825409413697286,0.5822501137121061
0.9359971227150266,2.4877109634395844,2.657819028570873,2.0770199057450522,1.9520634404887849,-0.11103289432676489,1.2435540027507948,-2.103314196702659,2.796178344021519
0.9849725195767369,2.6851674689783747,2.7261344003102206,-1.6038688812206008,0.17358150540659123,-2.580876883810619,-0.9930406424548788,-2.4667773154154493,-2.0222572372783088
0.8894617946523703,2.6354641132721417,2.962987425786134,-3.060946195670357,-0.922199166070417,-0.8547334034540417,1.8656814288309942,-0.13862124943056076,3.0795249052238383
0.9294112336505823,3.283289357961673,3.5326551251865386,-1.2281004057003917,2.763610577680039,-1.5911615079310715,1.697808922438976,2.108983428047603,1.3457106119352211
0.8974915202493539,2.942302057528254,3.2783619579054983,2.6389024812143296,-2.338769696656758,2.0590766213128724,1.901154229641132,2.164399670071213,1.8993038232931383
0.8756982132754237,2.4254240689329403,2.7697031147990914,2.2961883912558774,-1.7609911869971242,-2.7739289110788756,1.10208699195982,0.7272990124206373,-2.971777823097234
0.9658535590643164,3.074969224062384,3.183680585120276,-2.135265335036938,-2.123798036664459,0.8023799825843216,2.151219259877408,2.2230005446240915,-1.9927305829371031
0.9943179978237803,2.6799107815836805,2.695225056218516,2.5908195621729675,1.6902850380881302,2.1220208559004314,0.774190449237822,-3.021586648104749,-1.2711693445050978
0.9116386046267576,2.7347531172082933,2.9998215338061005,-2.1306950551928243,1.3151229906319823,-2.2909630281012374,-1.110034821431717,-0.6535108467483424,-2.3680376489411374
0.9985712869681675,3.2027316872090084,3.2073140185444817,1.778265378144269,3.0881313897627205,1.2946237931966973,-0.5354764711317102,2.794250214025264,0.37695523647095586
0.9957780779985482,3.359496923052655,3.3737405926881157,2.5728378460576176,-2.974270852242086,2.7004026549243783,-0.4215528584011783,2.525571052122909,1.8709800918848254
0.9519467137027131,2.5124090968694346,2.6392329115745485,1.8644934855294508,1.619636093099472,-0.31798278595994356,0.31652255060918444,2.582055781441178,1.910071223673624
0.9966991165070173,2.403776952275794,2.411737817828065,2.967950726056235,-3.0603190285305346,1.466834402694099,-2.0045282372570363,2.5189542259484794,-2.8620847415078963
0.9252109694087838,2.570018019476841,2.7777643201951014,0.7740195903339746,-1.772554405707767,-0.7731243861474253,2.6825512443654445,-0.42532561288895465,-3.0293132541129832
0.9826751595493927,3.2492322022018545,3.3065170831140125,-1.2223261259373028,0.6550319739913149,0.9272642389047663,-2.0422194189838248,1.81671061598594,1.3091184204687334
0.9846909940877744,2.4250742485274075,2.462776914877764,-0.6371076093612085,2.5272705655133416,-2.47786796729339,-0.2594480847196987,-1.9510573649998029,3.0550758853075477
0.9665189131749696,3.086492808034008,3.1934117025139455,0.9835970514827537,0.3791509015822352,2.719766305310406,-0.8929524139288434,0.17694965574816157,2.2805653926330294
0.9314832533730374,2.40300921324501,2.579766415062602,0.03472372890160935,-1.508429104659437,-0.09192459372450656,1.923622949072393,-1.490132483858434,-0.1607546715820165
0.9789395632778947,2.717830967607556,2.7763010808421447,0.28359250525602553,-2.9359970389309273,2.4354225113360313,-2.4873673032230372,-1.122290944740215,-1.809722279311222
0.9492287862217695,2.4655730430391825,2.597448664460485,-0.05726474125230974,-2.1096517209926353,-1.199484146389571,0.7396398153389812,-0.7736364439460304,-3.0831106491991567
0.8975132728761698,3.2766875656807644,3.6508513742424062,-1.1985935225822524,-0.45669857533994573,-1.5699807803708847,-0.17773973666699305,0.894379293831685,0.6407290572517286
0.9948616996887816,3.368452227566971,3.3858497403415067,1.1528213561915086,3.040175626364233,0.9957752339872803,2.3908982789853557,-2.502834028586097,-1.7814104416801093
0.9275504898122967,2.4035264089925517,2.591262077257854,1.78164019623385,2.2684804837927706,-3.0743513692559494,0.3923097529922863,0.20417660802148196,3.1202821392273776
0.9944081590377251,2.4343415896232656,2.448030587338447,-2.400129579683733,2.4064829079149854,-0.47809868240700215,2.660642504920088,2.7210939354993355,-0.8305572915621919
0.9875339388800196,3.1645581489067567,3.2045057129841434,-1.2178067115022846,1.7813083694375225,1.2325005736733186,0.9190346045114612,0.9257151192986939,-1.783923637158409
0.9974738761529429,3.3890751657781863,3.3976580708551194,1.5023565170096518,-0.14511926210165527,-1.5517416109724633,0.11757804589366483,2.6944358545048166,2.7051318985769397
0.9078201307974382,2.99082647384379,3.294514378323621,0.5674957216355789,-2.504733380689637,-1.9387980181897837,1.5056615757175003,2.9160804190668106,-0.6517518468667141
0.9855370522146576,2.9393292200830987,2.982464447661264,2.4786893734036015,-0.9279622987262584,-2.644127817828957,2.5209551442052804,0.0075656404703061675,0.8862753003455701
0.9954027189324364,3.3832917510954124,3.398917530307706,1.6263498100447897,2.000202462265685,1.5117268748655475,3.022365998093144,-3.128867682296235,-0.6972877982684902
0.9991138008597656,2.5910644192759644,2.593362655031169,-0.43402991761781173,-2.5115237572404627,0.5443037034811335,0.7972242690210591,0.3752141969559011,0.37363227384918085
0.9770648577793841,2.857456229292368,2.924530758159318,-0.0101324327211203,0.7744668190942039,2.7201851927269285,2.6069161232548055,-1.7833943972924602,1.3784416837539384
0.9230769385859569,2.543668187774438,2.7556404904568765,-2.906095257920272,1.118482970182197,-2.8912154893304334,-0.7868613881230662,-1.7361861242036718,-0.7466384777213193
0.9932559273609122,3.2327471011554754,3.254697014237717,-0.08679440139129646,-0.33277040917581946,-2.7527618181935227,-1.442163209677595,0.6214810168113996,1.2159371213731367
0.9988370352803636,2.5433412492897975,2.5463025092736045,-1.334661739251919,-0.048232565846304976,0.1254776549704264,-2.2617971698993413,0.3409764658676373,-0.8776819328559751
0.9999332155782553,3.323346945977221,3.3235689086049107,-1.1312613994540985,2.451698733149664,1.9982516696074546,0.4631344486980442,-1.7932176999060772,-1.8444772053815084
0.9381716773754627,2.660722541730856,2.8360721239999838,2.957673038620147,-2.052762613481341,-0.177540200194108,-1.2754754151558643,-1.7738344200424787,0.743966444416186
0.9073046419558826,3.1988643366581284,3.5256783540336745,0.7928908958263268,2.6241752367716824,1.2064772189951567,-0.6169721434822093,0.3698389816569443,1.8458549768080799
0.9729984397373597,2.5798851172345163,2.6514791924341643,2.451158733879404,1.9748941587908337,-2.0996801091049764,-2.6422110049817156,-3.0199375798188766,2.937257653326891
0.9966003105083864,3.3901131212201854,3.401677769386625,-1.6192617138349443,-3.059110927678373,-1.5840955677091675,0.4056801609627656,0.2942975947614688,0.43446651062927755
0.9381641011783746,2.4077359106594622,2.5664336416574054,3.130392933180051,1.2843004407688037,-1.8572838916185719,2.5739977302176396,0.9837281922728813,2.9343270326618693
0.9261539856783462,2.6762045504912866,2.8895891956143176,-1.4766996209120882,2.48233817871011,2.696629292616846,-0.49206274851577136,1.5795135381661218,1.744133970539477
0.8954342177028867,2.417907499922728,2.700262567724447,-1.6589521095772741,2.2570936598221953,0.07411628799351755,-2.421546090179418,0.06480019350054,-1.488801348626891
0.9740985106258517,2.601220135066054,2.670387139176291,0.4615529727073633,-2.1796110343372326,2.95476300690709,-2.7181737801504005,-2.428857290350217,1.278575614611671
0.9001601996534527,2.44162496067302,2.7124338107961297,2.216452088632143,2.6260200067950716,-2.3591815161688228,-3.034362959934951,-1.2471077993655122,0.36177102835660113
0.9539970190219247,2.589788159665093,2.7146711237318604,-2.00951043908453,-2.343037615100719,0.1261907878060038,0.3014244377192892,0.5383304340660562,1.21331705407683
0.9674881251429465,2.940284358321437,3.0390909013865257,1.113816786359921,-1.1143471520802115,2.4717819716592215,2.9886871742122736,-2.4347576971041476,1.3709665010630925
0.9278383642399342,2.963324007508871,3.193793360696358,1.4859548966478382,0.6246577040440116,-0.7450154857461189,0.06495073802160922,-2.275941434013736,0.6642395104151104
0.9795714232729102,2.7990276029061123,2.8574002225933643,-0.40333435077175883,2.311671102796831,0.0459161072141443,0.5947328697002892,2.563846276399694,2.390777255497217
0.8719488357932703,2.614923392323232,2.99894131969826,2.7769535076738388,-0.5401492783635997,-1.6709729580143275,1.5531436558331944,0.9644347273487952,-2.275769536190018
0.9869979335291723,2.4551319095428172,2.4874742146258524,0.9821518645551928,0.16143320720409404,0.8050789007181671,1.3424154142942228,-0.4228364420022621,-2.2051323835163448
0.952492795627393,2.6908762990303625,2.825088348576875,-2.7682581511564734,-0.7037007028478395,-2.7372346379264063,1.4855053372138087,-1.209478514443234,0.8620742414500517
0.9964156264619706,2.5163485174077724,2.5254004961189875,0.15437923073950888,1.9673206397165197,-0.30378920965101797,2.116852232237492,-0.47323656475336406,-1.7627566811002635
0.9882504545614668,2.9428510723676333,2.977839330894631,-2.6440474539566963,0.9007093912316577,2.6167772900215747,1.7644270961195367,-3.094974928017867,0.5324597427157771
0.8710212826538934,2.9534213300059795,3.3907567918515977,-0.8807598123588405,0.53733330638401,-1.4809106631307254,-1.2607296703601798,1.7500009137917063,1.1159062820679164
0.9945508719530797,2.398724547020406,2.411867119788289,-2.876115745032942,-1.604441909641997,2.920086330044761,-2.532264244941552,2.643213747365217,-1.2439220193619462
0.914005766933317,2.6165174312465975,2.8626924751531577,1.3264502458688323,-1.9252592714536276,2.5903942493728245,-1.622374224921116,0.7067868920545455,-1.9695409988558559
0.9521090952516776,2.704560697495078,2.840599581479854,0.1405224733076138,-0.31073499777356384,-1.1391172932347309,3.03413089763228,0.2954552243486819,2.9619425018880765
0.8950209964401146,2.6344518817691553,2.9434526030646313,-2.9441288139421844,-0.8102483162510805,-2.5562125341804744,-2.133463025231478,3.0558353285443305,1.2764757447360857
0.9872682265077348,2.401974179366483,2.432949947009831,2.575235041104844,-1.6868795699248718,0.2871061488012092,1.9538948156617186,0.04827730843216882,0.9415146510736996
0.9810539912422577,3.1079884047166657,3.1680095412294094,1.9791488159925823,0.1949673719980196,-1.375229237280569,-1.2791989476199628,-1.0427141873688823,2.4151672830036253
0.9533743127319354,2.39881536635966,2.5161317378960533,1.2941815719634224,-2.6111066466165953,2.873780007834977,1.0243388700022873,2.792583048159962,-2.504839532908923
0.9335149614202962,2.5267363500802005,2.7066907917960927,2.5465045041674133,1.8321338198937829,2.9195479622647067,-1.3242821186155085,-2.8271096980409727,2.1144109394972253
0.9008118592639734,2.8792995651158955,3.1963384312774097,0.44947479641065247,2.5491950506143572,1.220222239774034,-0.9421941418266884,-2.8369820225206386,0.008439373272172812
0.9801058146862673,3.036343372488194,3.097975062478463,-3.1330495556538405,-2.4603053959473375,-3.1250498334632706,-0.4569770223132066,1.4526452316223653,-0.3988727852135381
0.9999987794676602,3.178800880569002,3.178804760403014,-1.2099622483778956,-3.1400302627371603,-1.7250291501537691,-2.4847075147676114,-0.03615261955053306,2.815957401983394
0.9390798340391643,2.5207864686543426,2.684315408852889,-0.10967082956531682,-1.887352920104318,2.645100620660065,-1.022446224272822,2.874748989165714,1.4538977655887306
0.9310729494534329,3.213004050444915,3.4508617743980667,-1.7390658522310463,-0.702823335949506,-0.9842813962027197,1.7070797448679222,2.6833285785972283,2.318762852504668
0.8816046609606427,2.427390167273229,2.7533771936144453,0.16334459801455425,1.6132528536299962,1.6768598835554709,2.2730335755616213,-2.528301007847047,-2.0100619472008607
0.9513188970322435,2.710177896984578,2.8488637253389077,2.1857467137045035,-2.7541160061967425,-3.132488485240625,0.37962701737320836,-1.776738707052795,-0.805414857103758
0.9333319908904016,2.543090467251195,2.724743705425846,-0.332481878836167,-1.3763754711988232,-1.7457856540915742,0.26974698946334197,-0.21197033545563393,-2.2416710508449036
0.9737227112931717,2.642797971880286,2.7141176242777227,-1.1474999523617075,-1.0498449177243039,-2.8433407700530546,2.736377859257913,1.6291116017621396,-0.6941968852516411
0.9913223316328721,3.108062775575088,3.1352696054527427,0.6529879739449358,-0.7852068001780506,-0.7418174188638593,0.41569701159126504,-0.10784982566508283,-0.05557184025121753
0.9982272710451111,3.3228464530595576,3.3287474199944938,-1.1753828753418503,-2.608639428918527,2.125099512547087,2.1952830173364193,0.012839329901428886,-1.0314457941364998
0.9828321024416227,2.4211916716626147,2.4634845215654995,-2.9058406835211334,-1.536331521496166,2.6506393576120875,-1.8242125064000716,-0.6302268369781796,-0.3571310314893581
0.9426292929340221,2.4634779543080954,2.6134112028709495,0.0201734833594176,0.8287147037035276,-1.24490082396229,-2.6427689892379815,2.0934700594586735,2.4585162811910664
0.9919542192938893,3.3360351497952454,3.363093865531377,2.3414695298490598,-0.29884012039835106,-2.472478935957928,-0.6523871901116869,-1.5337782447400397,0.6067426182448492
0.9180706347479732,2.403258870390407,2.6177276338330375,-1.7115006510047843,2.2047620867078184,-0.15097894789808608,0.5309698422719924,-1.9450650850875248,-3.125838086847137
0.9083994600503619,2.4105526832349757,2.653626283641047,-1.1423767420885882,1.6359147382041304,-2.9986774323112426,-0.24383346663128025,3.12039362535672,-2.5938467669343424
0.9562695796675891,3.3079546276488094,3.459228127698776,1.257280777061645,1.506806881141781,-1.5996182215006343,2.5585813725257402,-0.28715384303219427,1.0044972312823681
0.929421135077825,2.4740166663138514,2.6618898289919883,-0.034043637845206476,1.8984163111936239,-0.7732462576817283,1.1956220564917812,-0.06830394189585176,-2.273759625378559
0.9998491146919053,2.711257946729611,2.7116670974550607,2.3505315380351437,2.6294261853280885,0.114450718929902,-2.4229390860003552,-2.662055630889814,-0.7759417230228358
0.9688440713435492,2.48936798699189,2.5694206742058574,1.8096294250809661,-2.4260227746348613,0.46784176452353066,-0.9241486247172883,1.4574368159140967,-0.05800765029118793
0.9830367398921094,2.989926056922663,3.0415201544255757,2.4582283478206204,0.9278923450635883,-1.8875268042188094,-1.7024487961237567,2.256254840640409,0.5901740096821517
0.9503549515913456,2.5077132459880467,2.6387122430297683,2.752553292981254,-2.0913239026356614,0.3424973991633018,1.8086164997347085,-1.018453969533006,-0.06852314286499706
0.9571716311118614,3.1432253622641735,3.2838680755853233,-1.86766446917938,0.29372647387539486,-1.839727965008126,-0.7529055704837941,-0.9082075750199143,0.6295439938749761
0.9477957161217537,2.710920536453855,2.860237169615578,2.6392309442393174,1.027047047694074,0.16749366571515267,0.6836920235444404,1.3146355816911681,2.9229725467743126
0.980112407031452,2.698233863078573,2.7529840901116014,-2.7331577990131946,2.2089287373981534,3.067772155465555,-0.7971863653534572,-1.1360341337193698,1.225635979011101
0.9725107594071859,3.1555874869150404,3.2447841387776464,-2.9353107921511095,-2.6688797312989765,-2.6115716512887563,0.36767428405361224,2.2582574295084905,-0.874607378942077
0.9663149433158922,2.420128422617954,2.5044923907658174,-3.0046680873900367,-1.3074891454721826,-1.5710664994601353,0.21328771798951873,0.025609379773032792,-0.788767389662798
0.98279243582593,2.870953153273581,2.921220237985305,1.2296815115528013,-1.433364067619518,-2.3206723676292347,-0.9675245825568983,-0.6019204079490277,-0.1485996940435408
0.968058633558114,2.711504637138521,2.8009714940223667,-2.5452669198901376,0.2534279844958478,1.5292777738583734,2.9334732392717013,-2.690273159140051,-0.45145909196499945
0.9675416852311874,2.5873284734897544,2.674126100180924,1.2983541704184596,0.2554816666929538,-2.45931041255215,0.7792500286089461,-2.7170436178692228,-1.9549495860603538
0.9955879382150264,3.2549853015760135,3.26941014111905,1.3073576846211568,0.09397137850542103,1.4258529269493128,1.2907551518851976,0.42850840323836037,-1.4088132530086268
0.9439784258229595,2.4610052729643734,2.607056692867606,-2.6104156684473208,2.358480543327886,1.9677769610659448,2.5417430573707156,-0.7383654577088308,-1.2998709949153984
0.938759545200389,2.556004383025181,2.722746624621082,-0.22827081988814202,-2.1718536651656963,0.5126144652901696,-1.6865148063883146,1.2099610382112331,-1.9569506813222048
0.9340958793194235,2.638734664724505,2.824907724298143,-0.6138276819052004,1.0080967414419764,-3.100671205456,-2.739382159346267,0.49841290342539235,-1.4361889860735362
0.9386059586213165,2.694999289658519,2.8712786925166167,2.8778787189307744,0.9906003311273857,3.0826652001555033,2.19287046700296,0.6905155407437751,-2.037065204303864
0.9541979076191922,2.40179298676577,2.5170805422938463,-0.059169273468524075,1.5749707464602167,1.926167853989602,2.000226190782465,0.03573671153434077,-1.4220091196054645
0.9958283067648538,3.2875126539858965,3.301284600621602,2.638913537725844,3.0502187298453878,-0.15888671491599204,2.9470693666071757,3.1078663791408596,-3.0962144990663307
0.971467434042755,2.7348493638486646,2.815173487048977,0.7238732395972178,1.4146173081143294,2.3621224938202,-1.2192055578082457,-0.4712453798943588,-0.7150208787306567
0.9800385836150491,2.899835453217405,2.958899273660062,0.6200903138013847,1.0279145624001318,-1.2680344420525698,-2.3139190019476783,3.076491058218017,2.091606472003102
0.9067350937430984,2.4368361337240847,2.6874840849763157,0.5249077011338885,2.706272533129086,-1.1979781292921847,2.4665853278055705,1.8130762942352234,-2.37839764638505
0.9754523929815342,2.4373384730092713,2.4986749640947483,-0.9283752708904482,-2.134788194920017,-2.5483240808919265,-0.10368903599742829,-1.287047599851153,2.815462133311506
0.9695178884005609,2.735021353099037,2.8210117480256844,-1.1804819675398968,2.2379883991142977,0.8617035389690519,1.402846765333904,3.0674765388324587,-1.3305187921961277
0.9763054010172932,2.4721937089721253,2.5321930068154312,-1.55049587116221,-0.2181227503181864,2.868241418993356,-2.2003537785923863,0.5426317429220795,-2.3163501367799153
0.9955078043401981,3.1538122370374344,3.1680437092381366,-0.9320849364633514,0.09482154816532651,-1.663394101415833,-1.2532452334015132,0.7591507615683084,-2.4405829416820843
0.9415355219063111,2.4565698280396346,2.6091100876001567,2.5772301672381195,-0.8123299061313687,2.0291452489971693,-0.835285143000883,2.6077597027326815,-0.09456930090822757
0.9760053524712003,2.4324058173847942,2.492205407712217,0.5538327872259945,-2.0880913916189634,-0.9300859888735618,-2.2834416061814764,0.8851465114383643,0.7291338140949284
0.9381856264562493,2.708765494775898,2.8872383229825753,2.8810976307851,2.788146984662988,1.8853870185843071,-2.9472759736026686,0.09122257668652312,1.5142465360664543
0.8961161268715019,2.4467584996920415,2.7304033777788415,-1.628377502955743,-2.318187449967466,0.16530071579944616,-1.3164652159076524,0.7381948001986909,0.8724503301612243
0.966616205136049,2.4104268531215607,2.4936751942642,2.4457357282300025,1.125370178511643,-0.618521250592988,-1.0457679545923284,0.553391911877616,1.3836841927199037
0.9533317879720085,3.0030546555318263,3.150062437255057,2.1771075797601345,-1.438196216900446,1.060693758920797,0.27100248463909304,0.6577998393139532,-1.394815427358293
0.9994125575265973,3.0783010534988544,3.0801104411947833,-0.18041913099125395,-0.03427827292004437,-0.45386334697583397,-0.19603850864264194,-2.26401535643193,-0.8374881836341759
0.9881799870709322,3.199069058511417,3.2373343928911056,1.8497916632842362,-2.0684467681431826,2.133897073370064,-2.9453037797898736,0.2103664131073244,-2.7143286655340475
0.9901680754627723,2.6843857501801995,2.7110404957517997,-0.33925973537938914,0.9852094553442265,3.0896209241637003,-1.8014600452376734,-0.15434710110771954,0.9168843072078658
0.9724370222617527,2.5907026899305188,2.664134160487747,-1.4474456729486187,0.23533183532707236,0.301529557627247,-1.2133613461597028,2.203965318300826,-1.9766658265549244
0.9421277969783479,2.6567969978410675,2.8199964021464132,2.322774240099707,-1.6803033364796012,0.8091909248552587,0.7742445871966681,2.9114061484170453,1.551097649762089
0.8980202993741447,2.966527280939944,3.3034078216354343,0.4044450640150088,-2.5132131575311965,-2.130537530968267,1.189588938145489,2.432025738526116,-1.1080243467314017
0.9750904437483244,3.2948313453831632,3.3790007547582683,-0.6235065916387512,2.8191893469368114,-0.8722167472941562,1.985771291214081,-1.6840136509155403,-2.5124356292269785
0.950744787816518,3.214036091835808,3.380545581761398,2.5949495046556823,-2.588444482520506,2.57139077762111,-1.1784005449341883,1.6141703852044076,-1.111371585203782
0.9700147359587606,2.5949820492133484,2.6751985851518776,2.535011595179916,-1.4346850336100676,0.599440087917658,2.4447062831366617,1.9607329862763745,-0.6216339545596252
0.9892638875349611,2.4655952409363135,2.492353427638061,-1.91888786589552,-2.9949271952146583,-0.10273467622259869,-2.771640785385283,-0.8861058532805601,2.437256555113918
0.9658629555859551,3.3223802814951275,3.439805059590008,1.2405773234895978,-2.879550462053859,1.5261587956039673,-1.416240296018541,2.3658655028794158,1.1369292508508613
0.9367438250368939,2.455482687704411,2.621295835718694,-0.2126047615274138,-2.159046633470389,0.8113565925884147,-2.7868936503752666,-2.6785036285156005,-1.9377841263338398
0.9919099404872284,2.6313515976020945,2.6528130127515093,-2.2495082900862817,0.12728700863829667,0.20428193903087344,-3.0395567920884674,1.5516950955884345,0.3184837226151003
0.9470411451200633,2.593062772804374,2.738067702935581,0.2957221655629483,0.39376975441801365,0.7938155941350873,2.02483061246798,-2.6396827997661916,-2.457400542025947
0.9992846068917262,2.965610856385155,2.96773395280218,-2.3757833213211663,0.03782799023033334,-1.521614585439119,2.2293041186315037,2.1968047800000194,0.05133569665489146
0.9409948540648718,2.4035273615696693,2.5542407072546767,0.30872808059822443,-0.8532999881242138,1.217654935299147,1.4417520749734667,1.778416679308366,-0.05492561393632345
0.8779061162309233,2.89106177360727,3.293133195175062,-2.2425495617349966,-2.6216404085790272,-1.3909650047826445,-1.4822450004369996,1.099838097936705,-0.2677540543485284
0.9565007276380626,3.134038916298056,3.276567205586035,2.4484058138205347,2.8455576998083707,-1.243606875866912,-0.477754490752754,-0.3096891268197819,0.5749501901695933
0.9858379197202851,2.6671713424795196,2.7054866617793363,2.453755874897113,-2.973095564490872,1.38936869340791,1.75203449818662,1.614303508161072,1.7421887207306046
0.982562982488143,2.9590111279921523,3.011523109184362,1.8268521906550754,-1.2655210403082473,-0.9191653115815699,0.10506327850882702,1.8762633775258664,-0.8221844086956676
0.8917356124308139,3.1169897954501113,3.4954192161883024,1.895343530073144,2.583336847169381,-1.8615730453545338,-2.121153628131335,-2.0274140577999535,-2.7624421466644637
0.9723988399037968,3.243068790931569,3.3351220279658276,1.4252108032380404,0.34336673404967977,-1.857106259505534,-2.572679630435177,-0.8680384291592254,1.8728473396312904
0.9704510641335965,2.448107677651453,2.522649279422539,0.09212716363832518,-1.3361902548964983,2.1639571064883905,2.6433280530008396,1.3796630007857154,-0.5224606707472059
0.9890359974839267,2.405752464565664,2.4324215404553673,3.080521841890179,-1.517546092175122,0.8465173125071663,0.39263817120698175,0.6078913524542582,2.2016660579363876
0.9421003346352501,2.9063264570114686,3.084943662754033,2.5285940911239404,0.7155344576282134,0.126211649467733,2.577318463827157,-0.06184737687843711,0.08913174272685165
0.9640877465006394,2.767229619654694,2.8703088797663283,-1.4194456664154584,0.7525561205232654,-0.7284477332614534,0.9626331461916591,-0.18901242913397587,-1.4791315653811217
0.9329382240960198,3.244728091710575,3.477966716236317,1.1652123666896683,-1.3161751232697534,-1.2975006160639944,-0.26504207334301055,-0.3731167493044163,2.7320067149011544
0.9747984963348564,2.514214133468245,2.579214209830478,2.4514004781612497,-2.916612327858746,-2.5992482510265567,1.8565018636090587,-0.798909847424766,2.557749160979098
0.972360440744479,2.397930792243784,2.4660925020847513,-1.5749414178626049,2.905932600416029,3.141102818943769,2.697223091121322,1.942397262167657,0.9242433162989618
0.9801092430311729,3.0973933888222813,3.160253217532168,-0.9713430879642502,1.0240348145567166,-2.279934511506762,-2.7357835571339324,-1.5029881019711222,-3.0248908022970014
0.9829359238619505,2.554263963488083,2.598606787563926,-0.9815344820220484,1.608262932312348,-0.43196239711024553,0.9075637313033456,-0.06002125211611986,2.214032839445477
0.997382835334888,3.333841996324705,3.342590105037562,-0.35855683296294805,2.988431326440465,-0.5823994480370955,-1.4097322534801668,-0.5862373231866669,-1.4910444433560774
0.988833633831692,2.58287236956266,2.6120393574742495,-2.2364097578123983,0.14958081134015755,-2.8950967249187145,2.4763596419686866,0.6443074557262665,-2.6042033817232904
0.9089894621210818,2.4075991283629916,2.648654608981911,-2.370576418774206,-0.4299431144691326,0.846506925917649,-1.0431166140720065,-1.6141531692711746,3.0065302319048683
0.8802883644634878,2.893360636949548,3.2868327627083587,0.9641386807154388,1.7514526297328734,-2.3119434983946454,-0.9231115209342944,-2.0602529316210236,2.3079717258889128
0.9605272522738553,3.2940012109690335,3.429367780217737,2.7402425777404025,-0.3664334798227342,-2.783549588396545,2.5497309566018727,-0.8813333129987075,-2.654697418359969
0.9938271686631921,2.5263921693654763,2.5420840252976324,0.11512568802695622,1.9439977962541093,-0.20237979258042005,3.1381546243567353,1.2427954329629172,-0.07614634031351608
0.9797225320569524,3.294231444487224,3.3624126593994945,-0.8144313114512949,0.5086376740803513,0.847876108711481,-1.5354827227971493,1.3371529051406092,1.8859444138589891
0.9433322529412776,2.8195317031812612,2.988906288733432,-1.456754723713396,1.8160607672987084,-2.4420812176541,-2.0548491239299365,2.1671599429250223,0.8462326243718823
0.9975407756911773,2.7824234505416783,2.7892829229098823,-1.4227743601877447,-0.07014603245223894,2.36460238066251,-0.8209682773103779,1.1801669344229007,2.04009374498699
0.9234009584654383,2.4042836662725358,2.603726630594054,-2.7414722239329143,1.9640146630607171,2.2662994992795973,1.8361453383624209,1.199821932610532,-2.383298848271777
0.9942018937986614,2.5705785542965325,2.585569963536106,0.6094649420626319,-0.5834924420643857,-2.71518705701341,-2.0096452433116134,0.7159801476510554,0.5579595093673952
0.9172773558178238,3.2419980938204365,3.5343705731511754,-0.3213574955770233,-2.7067843132966294,2.6683260668683673,1.563074270397248,1.5494880793919918,-2.25902718632552
0.8863173922291123,2.556007765378962,2.883851527442707,1.6477511772025153,-0.9250262269613678,-2.809216573139987,0.8347253020206402,-1.9562536141552331,1.8970149563043792
0.9728402591957249,3.287298658264419,3.379073416412807,1.4847269670864813,0.45318564406921347,-1.1405758785701634,0.7406721833317356,0.3323267139204149,2.783265412227842
0.9149264555270725,2.8004754367915914,3.060874914998811,0.9758798464823109,-2.4265822651237676,-1.1781917657567254,-2.205431712446822,0.2997608522356079,-2.656148684064527
0.9696684694996811,2.426337963077597,2.502234567170687,-2.262505720084567,1.5367136778491384,-0.17357979228603515,1.5550290961946294,-1.2893068224180604,-2.9305166931490185
0.8969318387436683,3.1336036746141187,3.4936920948233423,1.4171701068176237,-2.589838934950433,2.0058037702202673,-1.9691472868733597,-1.2477180676456745,3.064464380116477
0.9838812420985246,2.6587127060818627,2.702269941046018,2.813430166943556,-0.1797901409549243,2.4113597819738937,-0.6498509851569785,-0.026245700352133916,1.1666372340814197
0.951427653150848,2.850800148990369,2.9963393848700517,-1.207966765030614,1.8988983116145421,-2.268480109199171,0.4150608688644426,-0.2554845478670016,-0.9735588311516321
0.9282225257964751,2.555254104621456,2.7528464711938363,-2.4910813553185784,1.570655425658181,2.488344033489364,-0.08601169144136067,-0.9040812735358315,-2.286875828367135
0.9625492172670876,2.628715080639302,2.7309929024750197,-0.20517892589122688,-2.8670497391417906,-2.268365609078982,-2.5902188128852255,-0.006812631768656541,2.957987823896425
0.9755897461968369,2.540133225471652,2.6036899581754622,-2.1366303755993656,-1.1422796109115247,0.6698623336545579,-1.6051381494927914,1.6195787659886918,2.386098930290663
0.9012732770095965,2.863308021992915,3.176958748286983,-0.9866154274831294,-0.5376015575730779,-1.2645833517872371,-0.24776664784703195,2.3170495999572687,0.23552802992688227
0.9091164513133381,2.76352889124346,3.039796372897201,1.0279585231938189,1.3298939475603344,0.8667474486727507,0.2982579397783396,-1.7770803114631204,1.0706032444780442
0.9300292451966701,2.79087242341962,3.000843723822302,2.075994955055351,-0.571468920274826,2.041251051674493,1.7601505606890848,2.447830971256109,-2.967552737906727
0.9349419976425942,2.6157320233452652,2.7977479137108956,1.3780665199493658,1.1483993655005245,0.5383369402897409,1.5037325749693107,-1.865298788057583,2.531462284655734
0.9686232401944205,2.468755940501255,2.5487267268187064,-0.2193226781376132,-1.317279987375623,-3.141312307202096,0.2797949603461607,1.8615870979729872,-1.4361973478495003
0.9762957432825856,2.7967701614453486,2.864675156773507,-0.951657317710549,2.1746868145458027,2.773862392514947,1.159305098441192,-1.9137069418921184,0.37954914228054015
0.8884265306659684,2.766442653226425,3.1138676724936247,-0.8847338127849773,-2.216229712189629,-0.2725910456299858,2.3544955537502057,-2.1274479184171957,2.7362364714822283
0.9244382106436446,2.561434695392729,2.770801407710438,2.7403450133171177,1.4271624080300684,1.6702983254203438,-0.7701367475665832,0.1940688996618043,-1.9566503400430804
0.98581354875789,2.717308367787979,2.756412073268567,-0.9431083788241406,0.9297695683476244,2.0834996040632845,-1.8270259157332203,2.9490804436189038,-2.7024899945862346
0.9552847404614235,2.882849765703688,3.0177910769423657,-1.0779693456607502,-1.2336371774786443,-1.0175803917959394,-1.0968488049398957,1.3942891839294447,0.9243643694080586
0.8968238147653057,2.4580385332204133,2.7408265623094206,0.8939311604049927,-0.4582595380359962,-2.2804626928242038,3.0430295773799516,-0.500125072030444,-0.04015314795283986
0.9394207892197874,2.400159959168747,2.5549359634271456,0.473476096806142,1.6378410552229044,3.105811998200749,-1.6791157658832583,-0.28027812060895396,-1.0058108041125142
0.9929360664282005,3.3287875998883205,3.352469219758195,-0.65768208343429,-0.17323759334143718,0.42756653214924434,-1.4762789936915104,-3.0619415659501787,-0.5770854897256368
0.9803340147786997,2.917215054110499,2.9757358309851463,-0.7582501263726251,1.7499536903712674,-1.2444825064288074,0.8760076480100274,2.1691134406337733,-2.958734563714617
0.9445085243437273,2.93936515570706,3.1120578374339383,2.0519590754946586,2.166107150269503,-0.5901516499067316,0.5312259946095983,0.027991711406715414,3.113481738942684
0.9848628499737456,2.5765448616951625,2.6161458539773816,-1.9389505313715871,2.0564799123251554,-2.8921672214391325,0.998795197803811,2.3562800811090012,-2.3396087601494036
0.942563565811112,2.672570774855079,2.8354276271597976,-1.2757148416848254,-0.7402269980713521,0.3050187410211169,0.3233860193110494,-0.40662249269618345,-2.9081834303981355
0.9416518004258982,3.1387804499795853,3.333270799843372,-1.0263879390590565,-0.7044975423791282,-1.544156503767252,-2.79256164757122,1.118085795189602,0.35220642747449427
0.9970587768992742,2.4110459272736966,2.4181582702393354,1.3451284484894552,-3.064876735664961,-0.1200264187514195,0.7125113158205867,-2.5054987311464414,-2.802147649087283
0.9608030688854684,3.000386374483468,3.1227901654851253,-1.0980376578264637,1.2276178819286505,-1.1540157877979418,1.1169639167849255,0.8964087319906264,2.2989427505466162
0.9567712496193774,3.202931509282756,3.3476460654069045,2.0491758448063218,-1.3417417783169245,1.5904753219006835,1.6338387680596496,2.136453777914987,-0.5775009232032784
0.9477072542537669,3.2495650997172865,3.4288701338220977,-1.420633523184509,-0.47505296993851864,1.848023226726717,-2.726574582834292,-1.7414864098160243,2.1692186679775753
0.9877388924604522,2.739826571629838,2.773836883961251,-1.830604973537952,2.984836501685109,0.3294019456062176,-2.5526251612304005,2.0973878494814597,-1.291340988815688
0.9982556356086544,2.483129140429504,2.4874681913671295,2.786032580851934,-0.05907405118832365,-1.487400628719531,-1.1115381710414436,0.31981367875230404,0.40177022176923405
0.96213457995477,2.978178389513554,3.095386499520221,-1.7459308375993472,-2.308159349928977,-2.4228057453942213,-2.5109664921719332,-0.698277872343831,1.8343635726043583
0.9967581445173352,3.250328949168542,3.260900316738785,1.0855657153448277,0.5420790368833437,-0.8065506757743575,-3.1258411151591616,-2.6537182728121103,-2.126918748665544
0.993649927814952,2.598732136618317,2.6153397327094465,-2.598130134668083,-1.2974047683760073,2.7324502151728103,-1.3309678103219262,2.8186914442163733,0.6280178581727922
0.9972960786776411,3.153734410271467,3.1622849800564166,-2.078813491452478,-2.140875059786342,1.637552808097225,-2.438496187663824,2.250173854382875,2.7786108961546736
0.9705039386240542,2.9958234381588857,3.086874065041155,2.152467224566908,-2.2354497819045203,-0.5948757103526052,-2.728784302686366,3.0246535965340886,-2.6624353439126187
0.9436616775146788,3.2239719578397104,3.4164489611686717,1.8236117115479331,-1.4450453556824776,1.1558488045229813,-3.1208209578103867,1.2602393427899576,-2.6732118016543605
0.9315743108655208,2.423789113260459,2.601820472065754,-3.1025245691838754,-1.4234579467903437,2.6370624728356225,-2.720018119288885,-2.542636375346249,-0.44519674727222913
0.8988358422653336,2.4324510009932174,2.7062238582550484,-1.8067937242923122,-1.1275350539519917,3.0692134057258516,-1.6149309527862463,-2.1181187627206244,0.9486308170189481
0.9132904901457348,2.5640952634408944,2.8075352706582315,0.09259392837852998,2.5305817255068126,1.2041412988823206,-1.5545493890479427,-2.251255989758632,-2.5938599537686704
0.9490436173965862,3.250242417736237,3.424755573039196,-2.457916215802508,0.5172950037884458,2.252040780068687,-1.5000695667773098,-1.7732234841228391,3.0516125098666107
0.9417722056897716,2.8469097569658395,3.0229281983117238,-0.9563287900372082,1.4433757153404052,2.1573485141093087,-2.7163380377567266,1.502999041937561,-2.780192211173831
0.9998478926963648,3.38218738421689,3.382701917884621,1.521805715606802,1.8809770380533957,-1.4938764633832273,0.045228046373088304,1.131872338363741,0.6059117551664097
0.9897043149525669,2.9298494995228905,2.960328105332458,-1.918637168268575,-0.8217852852159666,-2.088505265912423,0.5187928498916614,0.7592754928796697,0.09805010422416593
0.9532964209710079,2.660088717827125,2.7904108935158005,-2.055639020211843,2.3552212284899356,0.1774311848478929,2.3692171274200575,0.733570242918574,2.5759614632813914
0.9691135847179166,2.593677221198374,2.676339762540141,2.465758488148765,-2.892407047748345,0.4460580173941766,2.817659219061996,-1.4543945624090084,1.4635713783452866
0.964823316739216,2.7965016657478783,2.8984598705586118,-2.809050979953168,0.9804042682073311,2.835759235134158,-1.8796984762548021,2.532489590037824,-1.4765794433175246
0.8982051439450704,2.876614382067827,3.202625148007108,0.8426257411196225,0.9481610676275309,2.714044921239564,2.601762131733657,-3.065101498145641,2.715423473960816
0.9897899469294211,2.424282836075793,2.449290219199065,-0.18224555088302719,-1.8150840920976106,0.3992404224490369,-0.8080632387490589,2.2034495852376654,1.5532101467740134
0.9167263130596378,3.207258695684512,3.498600018341421,2.2937724693826365,-2.4014374729042127,2.0257667121745575,-2.1699341386062163,2.928759205141561,0.8934004658477521
0.9601631193573801,2.7479048260841688,2.8619145754351534,0.23354305105558204,2.8583816965189985,-1.9485752590287702,1.1615222988713851,-2.6213035678327223,0.7761568952977536
0.9691526018582065,2.8037554323013048,2.8929968582094494,-1.0068708475055295,0.25611647884945743,0.10896748717243021,0.710334406431155,-2.474130073489543,-0.2630882125303744
0.9646882747492362,3.123238975020257,3.2375629068697043,2.200184154287789,2.875053634580925,1.6184849798442915,-0.7775648327833511,-0.7367161303112599,1.0918401387928185
0.8958925146626829,2.475211907056851,2.762844723609289,0.3229534200398083,1.4537193977814962,-1.940285830524785,-1.6055516336841684,0.37282033217418453,-0.9242592008953574
0.9832832486559238,2.9172259409554195,2.9668215592435385,-1.5380851142865548,-1.7558015670478513,2.3816861309066484,-0.17642994412717794,1.8878642101127499,1.9775506367438913
0.998785672131135,2.416283647672481,2.4192213756098377,-2.9231235889106952,1.3712454947829746,0.287909809975869,0.5126201974942792,0.2221337542114168,-1.0628553750553542
0.9182455927132708,2.453771758423282,2.672239080584938,-0.2383018879496981,-1.4356790401247754,1.700784743039522,-1.7540309619802363,2.676332794675057,-0.09976659318813663
0.9535678421330989,2.4545414801894387,2.5740606716546908,0.5806741289156916,0.9942991737287583,-2.7598962078756335,-1.0931900796351193,0.2575945549351455,2.4854393383515125
0.9428431785575633,2.4151502209382376,2.561560899908219,0.1121675001770921,2.2447086518590735,-1.2004414067254714,2.148843206450909,-2.8431929657649286,0.34777776584928155
0.9355195819683368,2.6930179898023487,2.8786334799494293,3.0758068469669544,2.2804614585177196,-2.5697450494350615,-1.082168217882805,-1.667311393308828,-0.3354611649171737
0.9731368155211947,2.6597017523270647,2.733122115930406,-2.9010699753091163,-0.23231153797756132,-2.332451525984038,2.1072024550576334,2.5515614354011857,-0.9528503866085893
0.9377054124911464,2.496374211531966,2.6622158497517856,-0.9747711784423396,0.8464851314316655,3.043922050587149,-1.8386884218133834,2.829433573480178,1.247064451553162
0.9551956457110936,3.179840716630551,3.328994149950636,-2.0267327222947964,1.6766363177175014,1.7698597148391721,-1.9411155293712261,-3.000548975902368,1.9413769657444249
0.9756032665909677,2.411496971954389,2.4718008380402803,-0.31849286728533155,1.7020021399650256,0.05583564815804509,1.2562026582350105,2.875520563119455,0.8148858866071698
0.9748243056391421,2.830063796106343,2.9031526806779975,-2.542266057951707,-0.32262000043526795,0.23966688519870072,0.5450610002673963,-2.1756642382561315,-1.7155864811821735
0.9732002522018055,3.3374892804030925,3.4293962345901874,0.6741581616053458,-0.32656811081879766,-0.702698226939674,-0.7689880936525961,2.196652922705315,0.022998022578186728
0.8935162065793454,2.4038933719785835,2.690374672868471,0.8613616386986749,1.9663808891923322,-0.23098047504319874,-2.061506759798056,0.07687831313749172,0.07607516192242647
0.96791052194431,2.411774687638257,2.491733102346646,-0.38222502646794965,-1.6818227263410448,0.5509571504719815,1.841635169554782,-3.0911701582219764,-2.1753430152926367
0.9843476876803656,2.8241222985605448,2.8690292402836275,2.7491261387825956,-2.141001262212085,-0.5116355306506142,-0.09352462154266705,-1.4079239463224589,-0.2797027545762303
0.8845566766214897,2.40234774929898,2.7158776964689255,-1.7905553332768642,0.7102934733892288,0.22924810251168992,0.46046572832411936,2.3889649056609823,2.341760684707351
0.9646701205787173,3.054403128407608,3.1662669582584715,0.6781081121328478,0.5393258524031292,2.9216503129937648,2.060941679571645,-0.22617929699020234,-2.479691993307113
0.9097942164021791,2.7391641986491013,3.010751386705057,1.4113797455068093,-0.7242600965860402,2.6727958213672274,1.1171054916772034,2.823575360465478,2.297966183218274
0.9886837006767066,2.8595358099054935,2.892265552621408,-3.059916143924965,-0.556925721068021,0.6046418386920451,1.6404815814246883,2.754785798682515,-2.209684451146914
0.8763670304075157,2.645250820469884,3.018428042916935,2.006827534796569,-1.8723597228189548,-0.39648715703131243,0.8352925619110003,1.2656945003361075,3.0577883497226033
0.8976368654558381,3.1893221570093906,3.5530204693518113,2.103859807397159,-0.5844312036191006,0.6946661059054757,-3.0029534511838967,-0.34262921328233453,-0.29434569999326854
0.953214385095202,2.541231726793319,2.665960319660424,0.5637781302832421,-2.10511645129026,-1.2148126804281596,-0.02874386524250916,1.595858709348426,1.8115330497885163
0.9876541199754479,2.7126127734395733,2.7465209920928655,0.6559218431211886,1.0511058867130787,1.3893621586889537,2.601193717256945,-0.03769721339892795,-2.2386903640048383
0.9612438909331428,2.687438547571808,2.7957925901229235,-0.6638734331857408,1.1682032814149386,-1.28892499528464,-0.7263075302078632,-2.14104585361617,-3.1038586034422537
0.964606526005393,2.9279180204614956,3.0353495871384206,1.391780516938045,1.9799537244210574,2.279963416749484,-0.8486435125412646,-1.8651788694897284,-1.304123720002025
0.9421099041404698,2.4366523697153903,2.586378042526217,-0.35659109286068613,2.565613530611069,-2.200235384857299,2.8199444567692042,-1.35314557880018,2.166147329748294
0.9066944394391228,2.8650156282754144,3.1598469160654616,0.2026339514780422,2.389996650978917,-2.371560563172986,1.4003421914957803,1.9852663692537726,-0.37017769940694745
0.9926132101171544,3.3416865747209044,3.3665546062262233,-1.710969763851241,-1.024528626292296,1.4318678510682536,1.5278840861949812,3.010814643994154,0.06373747160069909
0.8916972813678337,2.7886316174378396,3.1273299534570436,0.2850332858744573,2.2033140344563593,0.8153702863776866,2.342584010594906,0.06789517481615226,-1.3274157592622524
0.9678271645516113,3.0173751041726216,3.117679700146207,-1.7327504253492239,-1.1418445765557086,0.9500735055416349,2.04127458068361,0.13653001899200312,1.2801111924646627
0.9015410058085727,2.684173516603708,2.977317170610926,0.9170597199843105,-1.468545036229722,-2.379787021903408,-1.399808872920809,-1.325545311209571,-1.663697664840665
0.9599326183852143,2.9024071548892967,3.0235530070555234,0.7386709608244857,2.857557994950387,-1.5830283000795533,0.44777261609833996,-1.6152286741429926,0.5993150217758769
0.9481413257012817,2.8995622787669677,3.0581540959859965,-0.23972110399990187,-2.5432725153036406,-0.9105129154012177,-1.4787707419020508,1.4074127635060334,0.32763356878709526
0.9820755281675057,3.1143822058293193,3.1712247342529456,1.7530896054037743,1.8758209920869673,2.1969573783230647,2.8589156840378314,2.4739866215285673,-2.8960117193254513
0.9931514115060213,2.655201967992653,2.673511749800856,2.382868891861385,-0.11710183598909252,1.8354606923435899,-1.0153525394908054,2.1243522577181793,-2.230273671229469
0.9691635211603911,3.1798536265931467,3.2810290081759064,-1.8917730928175487,1.8929106821881723,-1.2548585721399006,2.7826051199738426,0.976992410670313,0.8358340324402396
0.9795221214436137,2.448247268578896,2.4994302986957395,2.22076557574057,-0.20272224016234608,-0.43100354846169564,2.7813416245725078,0.766465080526038,1.0189135282662622
0.9366838696831414,2.4025795503865526,2.56498443941315,1.5319110587860267,-2.783833511327242,3.0427217106878626,-1.096011827980043,-0.48459679404989586,2.7963278107733487
0.9987052347292659,3.1341101183697386,3.13817331619309,-0.7602282478489535,0.05089292229957598,1.3303766446067602,-0.053409373508381375,-0.19700709199440913,1.0786974459223506
0.9010861806859066,2.4994832965183944,2.7738559863561423,-0.7822767601366039,2.6930641574067034,1.05077381780983,-0.48032695969831796,-0.29603802871650764,-0.1729262456675702
0.964517679171293,2.9839735032031887,3.093746820449158,2.226895476974917,-2.1911742331064845,-0.6011679385240885,-0.414760596201845,-2.48298483395648,-1.7340133445239825
0.9918574871736117,3.2446788448110113,3.2713155738300865,1.6287226943689044,1.5723189602293894,-1.1507204723725226,-2.4133947577960555,-2.1424008902224916,-0.7493222417001961
0.8826066264122515,2.998987255920162,3.3978753004731947,-0.695346348563628,-0.8695131279570631,-2.612261534122364,0.2065122212008199,-3.0761435211454584,0.3310215164065613
0.9929484588308979,3.227682215706182,3.2506039835204237,0.5187273656393319,-0.17720268030146746,3.0393030082647305,-1.5067382408210959,0.3253565405270731,-1.427878523674108
0.9887801851558089,3.094780200024735,3.1298970655819414,1.1343576393625012,-1.814634161954097,-1.2197366437215638,-2.102453608720813,1.7856538435782765,3.1360377290974926
0.9986970547220404,3.058325559735874,3.0623155893726692,-2.5579950602307022,-3.090539185133479,1.2403519978365614,-2.028805758076197,1.4254939559844813,1.8057652912471012
0.9779551954854164,3.318600327520493,3.3934073287204916,-2.9754344256214327,2.9285773024481774,-0.03914619730465008,-1.775120705491557,-0.24052949013692793,-2.6431155272975126
0.9980414950149721,3.2910597233470744,3.2975179286485514,1.7424021651778343,-3.0789964139357155,-1.7474273169680619,-0.4812532345517937,-0.3567125031788403,1.0676115301193416
0.9902231414152934,2.661313983692596,2.6875901727451725,0.15279083820994988,-3.0016438671610377,-1.9240860035786442,-1.9651548520613342,-1.006996649276918,0.1130661136902642
0.9143696158930796,2.879096789308728,3.148723163221765,2.7873661698941863,0.4168481171359084,-1.9878634565211175,0.8658649140088874,-3.135160619673395,-3.1409520021506965
0.9127860699174002,2.436434187444403,2.669228056542187,-2.7705819045145867,-1.5839714582882263,-0.5529203995842633,-3.1075404474173984,0.9406011244656698,-1.8353837285555508
0.982364647633639,2.999324900342565,3.053168604517136,2.8969756393662234,0.7285148007344859,0.1449506479732552,-0.2840158771057295,1.5906284577760124,2.6487427791743396
0.9496718032615566,2.4161347140808864,2.54417863706483,-3.107821388264448,1.8069412378542546,2.26431120684075,1.8107178832156325,-2.755190970456224,-0.3612255520368879
0.9598619155775745,2.610126055871639,2.7192724427461594,1.8180674242749983,-1.5158194381219579,-2.696119696192074,2.8933569772098053,-0.11950446342704746,-0.6791414512504517
0.9340096274241049,2.399298983464719,2.5688161160412446,-1.140320181148668,-1.5969932362263235,-0.025359668781510525,2.9714066310695424,0.40349981879575036,0.9116503925576165
0.8738369079223793,2.404586676625372,2.7517568265026466,0.08589192840289028,2.5851490224604126,1.7597455055216624,1.6282107758202429,2.0838956020726886,-1.6207331715125786
0.9993704130337822,2.452614787975734,2.4541598950586776,-0.21624804896168115,-1.5007388362514078,-2.184185621033679,-1.8655607480574035,1.9621473431112415,0.7631013464799836
0.9420540071587482,2.53530968998285,2.6912572641449604,-2.999727541734858,-2.330880959665413,1.2597836082926577,-0.783195988692138,0.29666920797490404,-1.4166914145146463
0.9754829800749291,2.4284312107862354,2.4894654857019667,-0.06685529190281914,1.1373774163307253,-1.7994345734782686,-3.01059262291024,-2.613903946877634,-2.952141350097487
0.957411751854846,2.5605752604099314,2.674476530551447,0.4233306936282819,0.972447330934366,0.2902185627868126,-1.9180616729588322,2.264983451565791,2.6365967222835964
0.9830773605956711,3.014712611762498,3.0666077082029517,-1.835067660102342,0.18423129624768197,-0.6077096264460753,1.6351681619340814,2.322589349226238,1.532485400954564
0.9802988414498904,2.899460329953659,2.9577310584854644,-1.1520995100022302,-1.7876978828757693,-0.7385355186821685,1.429806052264512,0.5346164622599816,0.36731613137341146
0.9820019564384738,2.8430359113005865,2.8951428178531473,2.397277599156907,-1.9445789243695495,-1.7007344115252079,0.2462813046455712,1.6974142756203126,0.6610313942560788
0.9920180611690036,2.5185990147787316,2.5388640725056866,-2.2201174138973316,0.12643243293433182,0.9734859079303426,1.5788460552703363,1.0789176424555151,-2.6778198256416164
0.9683055887595622,2.4565234453694202,2.53692994637811,-0.486774500085704,-0.5623169442085976,-0.7568340261782645,1.1853665289078608,2.5750580353908887,0.16229152846802775
0.9953126044805518,3.366070318008726,3.381922727448488,-1.2442823963387244,2.576997435090677,1.855582276371483,-2.25381662056318,1.4120142032640475,2.291433730711943
0.9902844268016946,2.4192140185425437,2.442948665118202,1.1506886543583423,2.411327207457828,2.681066482103006,-0.5698523890798644,1.435389984147596,-2.906675566571645
0.8858020609544085,3.2119061336626418,3.6259862956312943,-1.0972622624061281,-2.467012187290923,-0.8128121418404946,-0.20736541916095108,0.1005028798453309,2.4477242008078033
0.9538330029435086,3.252236216715251,3.409649494910449,-1.6144323375781149,-2.655718311690494,1.9439485858254333,-3.1080696681669373,-2.4666889903267357,1.3960763613634342
0.9338995027286188,2.467523427381557,2.6421723324319975,0.9436537548308772,-1.3880519483158058,2.9708277593357604,2.254571838638837,-0.7726598706719514,0.3394828238581593
0.9552850784235571,3.007862049062743,3.1486538594598543,1.9176142734004493,2.292974867207313,2.476384443774627,-2.3962136906218423,1.8585216614595117,1.5242570020479462
0.93071552947134,2.4407068017954674,2.622398278002114,-2.5455314915652347,1.989413237800587,2.8959142765238433,-0.7178534476829506,-0.3605849620670334,-2.4250777078956824
0.9722433270414956,2.4376660132704306,2.5072591865332394,-3.0235575845116736,1.2079343946663244,1.7627245300035081,-2.8008083536364916,-0.11349009709107083,0.7289114429616315
0.9682721349956811,2.3980935833558013,2.4766731342180965,-1.6101317922753928,1.1965995881831546,-3.1150210311710973,0.056789182840180086,1.4779832103518311,0.026024715464863846
0.8823386831600688,2.9598114346429245,3.3545071650292506,-0.5866619005555402,-0.6004067538719946,-1.8540662844528666,3.0529890845766614,-2.197648706693675,1.5739985301353103
0.9991095204640217,3.3329031503013336,3.3358736775457967,-1.100601916890493,0.2855012189059898,0.8854377963177873,0.44710295318549553,0.46026271365995086,-0.12055018543682916
0.9997242860869106,2.400951626704773,2.4016137850391757,1.4258292389624785,-3.1181096135943105,2.946307641568623,-1.3470181961328196,-2.7199199929906306,0.8837247829680202
0.9878456075540794,2.41728595101214,2.447028090753348,2.7300952256623567,0.1560710998507031,-1.0257649303322838,-1.9749553738061079,-2.8304254940621196,-2.2577872559698777
0.8817797173024494,2.594886714506247,2.9427833999681394,0.39987165486750165,2.585094878178066,-1.6020636386086013,2.7694430238152634,1.7649221216156166,1.4293258730314307
0.9962098968237858,3.200751876181468,3.2129292093829016,1.9095724327254944,1.210718990593679,1.0716560172873884,-1.7793116424655733,2.6728017959588524,-0.20368301638718833
0.8991299273750463,2.9290289636317137,3.2576259275262154,1.0220566529976072,1.5310837972611564,-0.940503256974615,-2.711758535091558,-0.3826849784140496,-3.0743383202345083
0.9751217193257471,2.7041693572451577,2.7731608307473343,-0.3939304409382083,-0.7576519992089938,2.8307921666359563,-0.494369861207149,2.298383584901088,0.05519131801697741
0.9592716844843442,2.5691032903653688,2.678181095011043,-0.6422420491314895,-1.19574344513257,2.0716882043313527,-0.016967654127494125,1.8975665452265789,0.3825251708207964
0.9813678217793604,2.442819974942027,2.4891991776466083,1.154475432377545,-1.1641800808207146,3.103747384641725,2.450644788463735,-2.637952557472564,-2.6846039063807168
0.9332269244634153,2.397920087163506,2.569493040015167,1.4775680305417191,-1.0281832848567638,0.050148768409532085,-1.76573394059545,-1.3305225910093943,2.9803755057353456
0.9436638479184943,2.49793860938175,2.6470640100197,0.9136152547076799,0.45229385083378304,-2.8425489364425136,-2.3209301494202332,-2.888285589239821,1.6348512830806499
0.9647208313093876,2.9324915018097606,3.0397306729964306,1.406605138633413,1.7651130256079206,0.7620661962248181,1.9318765534426907,-1.3305668213841273,1.9779757487783671
0.9622543866517455,2.530418442703054,2.629677222369318,-1.2048024727237552,-1.1156455543285966,2.610817086668967,3.026950814940654,2.914453361511839,-3.0561632473207188
0.9875437526319094,2.628287035647843,2.661438572866446,-3.128766080852423,1.0782369365916633,0.29461987743339124,-2.210471661007076,0.6411593565783078,0.5709930798682392
0.9050375456265911,3.0087345499369813,3.3244306432104125,-0.6128108168837798,2.441409927256819,-1.2129231029604193,0.825208146207137,-2.1135336203864066,2.3404099388384028
0.9999881797211908,2.5055832148322255,2.505612831874486,0.13025844715749368,-0.004862160444867314,1.1326798912338338,-1.8624265099568516,-0.9281269764961015,-1.9602527232824003
0.948293894965769,2.467351942266184,2.601885296704614,-0.4607659154689978,0.4575069836797252,2.3432635258049697,-0.949102885717326,-2.125675843940579,0.18623280661876596
0.9999770376224808,2.4478852762432846,2.4479414867998495,2.420612190351229,3.13481586004145,0.6431220860702642,0.6772335532320546,0.14560167512206146,-1.2772397987526773
0.9938507070422685,3.304785285855934,3.325233118454059,-2.619585065748404,-0.11095589766600433,-0.8332406919318971,-2.3901990738651944,-2.792033089541406,1.4601472477938966
0.9930881872120569,2.548705642140289,2.5664444255402836,0.48964508469596746,0.11764174164651742,0.7077290317753087,-3.1069543618193305,1.2545460447041776,0.858355252969961
0.870969650976968,2.528992875513432,2.903652122294568,-2.9176681057860274,-2.1529872886712322,-0.5624292608562396,2.0710763750355543,2.3440913493214204,2.47251229310271
0.9082288632762407,2.398534027537713,2.640891656851244,1.7503100851282776,1.4608150906551174,3.098599324086149,2.6257853064114647,0.477435377768197,0.4676774672866295
0.9838381792846614,3.019995696889667,3.0696061206787832,1.2244838024248121,-2.6722405172537993,-2.5665724413986055,0.4108252581901959,3.131603350341793,-2.1742393066507875
0.9573978739711155,2.5277007879582443,2.6401779831344228,2.1634147714601752,2.280851888642294,0.036678715013828356,2.5019290140144017,-2.0456419619233097,1.0939898841138254
0.9785925771491455,2.4347006094640515,2.4879614523102838,0.05302937175490241,2.124358471461587,1.3316916414222577,-2.7248149078009796,-0.6663348843118198,1.8799814393005114
0.9997853951678947,3.2762710326899964,3.276974287206716,3.0197053047231215,-3.120874907167131,-0.4950073904677659,-0.1266576107579267,-1.6247145680856827,-1.9707652731080447
0.9891865901877274,2.435804474004515,2.4624317577356654,-0.732997784759307,-0.5659350057569643,-0.5573323919066726,-0.7258553395605065,2.36463404525408,-0.9858996501205435
0.9334855802850969,2.8754155369188723,3.0802998971239477,0.9917021879995067,-0.7919960566770077,-1.9093889684776586,3.091706008149073,-2.582322684397809,-2.1695518591860474
0.9684019725602656,2.397949698916405,2.4761924973951617,-3.133870828593485,-1.5754926954495094,-1.1758395818564995,-0.4188404826231622,-0.6952936164789829,0.9803200313391427
0.9979054208354494,2.44954014830571,2.4546816733944063,0.20131635290787564,-1.8629167492959247,-0.3067440853310126,-2.730211170680762,-0.6215088922224874,-1.2558231002869569
0.9850094190712253,3.146785439091508,3.1946754804219455,0.8610387786989095,-2.968224927117554,1.4133481635169112,2.5874092114787324,-1.318497589615008,-1.1952328031324944
0.9428418416897073,2.5880945158110062,2.744993276043807,0.4456882072661834,-2.8018541581558716,-0.6619530625178629,1.0196100284438119,1.0609017247525179,-2.929690843928172
0.899576737294399,2.7225460981970326,3.026474546668987,-1.7066528631549165,1.4733706179183512,-2.5547415196990473,2.321010731191424,0.782398796418224,0.5610644818483492
0.9959837470849335,3.1786202428071335,3.191437864433418,-0.6296991395774598,0.3374292224525024,0.2136297373257774,-0.7379499021670957,3.116723033044665,0.4418743394618727
0.9983250492522886,2.9987096938214313,3.0037408117399864,2.461115170134714,0.4137703130759607,-3.0768158754887462,1.3160647243265053,-1.1085848990269276,-2.8784153152380925
0.996721355472995,3.3595591335074464,3.3706101660811356,1.7067783010419904,-0.08099923061410808,1.2417192861490465,-2.7747375758619035,-0.09340684236699381,2.2803561748606906
0.9845533640679945,3.138359786267298,3.1875974434744387,-2.0913328421162607,-1.1969657273179621,1.468043325220754,-2.316852062312688,2.7256808651338327,-1.9844721901244449
0.9647525624853417,3.0230650737642555,3.1335133912227233,-1.2775908794311197,-0.9286860629233313,2.0533115086839206,-0.8798438635148336,-1.9406416181979065,1.1829244331854012
0.9386909543189074,2.4111899383178423,2.56867281742088,2.298382981086979,1.9695831922507017,-2.674908424711594,-1.0743205022489892,1.29430638522508,0.3552745290262953
0.9193471815623557,2.4004410821016164,2.61102783610242,-3.0858370065927594,1.4450274032359163,1.4936309427208867,-0.8436848282282932,0.70998546809134,-0.1600635164365829
0.9529713428521328,2.922404550759116,3.066623747585838,-0.8108566268602315,-1.8120547024315834,1.437725391986489,2.9854499468129427,2.3426934487461155,-0.3534653409057045
0.967906633563628,2.538242818332291,2.6224046104395593,-2.839098595808664,-1.7795239511488317,-2.4000237238680078,2.6836931945238405,1.0667838979561175,3.01186143130011
0.9936747813304263,2.602893023323958,2.619461691318117,-0.4264589284964879,0.9354574517695609,1.5548351352329268,-2.422916338104841,-2.9562188079473266,0.1607445147961366
0.9976242667517511,3.386539895804077,3.3946045707474597,0.04133513621669582,0.06894453610547568,-0.01464545154924135,-2.405440357674344,2.662309427946849,0.7124072290860428
0.9284389949318973,2.398510416418544,2.5833796614655107,1.8928542343377668,2.1473525358038144,0.15683019991280167,0.48231311104075614,-0.4965223224959372,-0.9443700001779658
0.9784793774315004,2.7763510800595514,2.8374139957322844,-1.1574686506475205,1.1334052346593158,-2.64821935365083,2.06757882900858,-0.5530021788624091,1.3266842511643153
0.9863494085116856,3.0691443375923395,3.111619788187847,-1.8436447291275202,1.059119822077724,1.100875201170875,2.9073455119343503,-2.00508692645489,-0.618495446845666
0.942589184076518,2.5959518250865043,2.7540649404224107,2.509984084781233,1.2585778175527684,0.30693791767067413,-0.9679039748783635,-0.6011172758743242,0.17741056606900862
0.9994044092973041,2.881876802916404,2.8835942448389775,-1.0720555258561482,0.03451520921183793,-2.9102935118280486,2.827488538203191,-0.5437633431755966,2.805738229217922
0.9345013365454452,2.53579509558957,2.713527521494618,-2.7541946304477585,-0.6849324443453528,-1.6174117728076725,-1.340891553393211,-0.900225412079172,-0.057361074693076386
0.9300338270787967,3.0048580151359383,3.2309126051619983,0.44134770841872184,0.7893294561809832,2.7252800684834453,0.5207721088387198,-1.6931556854309837,-0.878422992136584
0.9123774721394765,2.690102340485745,2.9484532692127945,-0.6551280333607403,-1.3567363831813863,1.9371846198711715,-2.243420794292736,0.24975672786912817,2.6511475313567834
0.9806774599701906,2.4118452662381396,2.4593664733677594,-0.6927541508298294,-2.3872301870946293,-2.2937208275412218,-2.0446996897364724,-2.5700127598442637,1.7863761139678225
0.8852120578447089,2.475773151601695,2.796813633141919,0.1714504691403138,2.194715334710158,2.3010497453962673,1.3175680423877072,-2.3458322267797684,-1.4211402411277259
0.9667310560300527,2.7122121544611937,2.8055498347172985,2.3868492078750494,1.9274588185282955,-1.9776948777709975,-0.9375324198480808,-2.01776774520411,0.7224157290957147
0.9980374627055972,2.4995214844994065,2.504436534600024,2.261781629901863,-2.2047274011510667,-2.3361847314374886,-0.20758210680586586,1.686991899958917,2.104396742272379
0.9911275946167152,3.0721372782899152,3.0996385278506544,-0.7477600432643468,2.186521009716161,2.150328942222586,-1.538206216204284,-2.890597283706704,2.3734234675885633
0.89638858360267,3.061909051838861,3.41582780933327,-1.959662790401957,2.0085116084441985,0.8354328826776096,0.06377684245114912,0.20915349656920323,0.08821272273775538
0.9997220807238586,2.992208595450363,2.993040419077095,2.967190441423319,0.023576774600574613,2.588169270236305,-1.1169777109048553,-2.6964871640270727,0.5680270449732898
0.9500041566887053,3.0442758507596634,3.204486874426596,2.4813574579554585,-0.3175471169641666,-1.8247563437173924,-2.185300246759376,2.523932472975382,0.06837136647323305
0.997886624130295,2.790818245523645,2.7967287846512363,0.6901469221381671,-2.6201622548819707,3.0325860420553292,-0.9534617761466748,-0.6368118691635556,0.3648786911648205
0.9728567134584022,3.138356979332546,3.2259190237543005,-1.9398482782824222,0.23352505721606587,1.3707734364409907,-0.2663497084415183,1.7939331855471403,-2.60048714209607
0.9890126792871515,3.294262427808182,3.3308596510436854,-1.3225457843206132,-1.3791997774140838,1.7654651842373106,0.1543085391191963,1.5810417327466961,2.007666667233628
0.9710461227825381,2.626227991225408,2.7045347585549666,2.7870859746809797,-1.9849885527202435,-0.230081331683043,-1.0497003052536238,-0.04252173347151489,1.9431585059830256
0.9934755919607291,2.459139294985323,2.4752890910303607,-0.5968145208681368,1.8904839130934867,-3.0844336411619695,-2.399371498409811,0.7606234794938111,-1.1988097548893144
0.9160631890607457,2.7016642940908735,2.94921172071212,-1.522663059497721,0.6614037071376768,0.5079836767416803,-1.8611223856712362,-0.9490888735565757,1.929596059602849
0.9974196485633893,3.3423844353664913,3.351031273727782,1.3911601389302808,-3.0697391651138757,1.1506047218603896,-0.46203558275364953,-0.43288961162827766,0.14087839999270813
0.9492702857293067,2.466663780759619,2.5984841386502757,3.108167592627293,1.095419445755704,-2.051562878530857,2.289088068434176,0.6140934017230575,-2.947819070838301
0.9996515768613976,2.731241894845085,2.732193854403106,1.7910965293595895,-1.1416799351462759,0.4971196558600668,1.5639127342985555,1.3223863536294624,1.7885930630107518
0.9041965311894455,2.6918703662990184,2.9770854824646777,2.500026390028151,-2.7002911402610943,-1.6874118837850118,-3.106539814332366,-0.11499916322688941,2.894010291816535
0.9330955061622284,2.6210198311872523,2.8089512958511245,1.4299523583248464,2.5417680449513114,2.5665008554174626,-0.9271732647538449,2.6187697234383434,-0.06892124360574359
0.9799968924097259,3.2059147058331128,3.271351910055604,-2.8416220313730878,-0.4639998133744707,-0.5249605301008633,-2.3398447784782164,0.059330514733494155,2.540835984178666
0.9725368999422168,2.7200059296927854,2.796815143830938,-0.6557652354108141,2.304452383288795,1.4401446066562151,3.1182715790787103,-2.306222907919438,0.14888663051615447
0.9588056386357457,2.4366119901540015,2.5412991872064703,2.4417057740400256,0.5080350941175151,-0.6082429908082054,-1.8647262101829591,2.5642364353784988,0.8402092003063739
0.9400821901083716,2.638296287096559,2.8064527919547326,-1.9102374158870956,2.3390695014046106,2.4087422876359774,1.499702743301503,-2.8465821064898345,-2.9176895087423134
0.9199545504561681,3.257064902770229,3.5404628425993248,1.5238188671037447,1.4459402093680094,1.1744760837521406,2.6268364161564763,-0.5876680313091436,1.655903314615946
0.9093828652764562,2.7140354232886477,2.984480494322454,-1.083142566248977,1.8233975100098236,-2.372692116821388,1.2764990413597,1.055651823262906,-1.601961585569467
0.9959342944890681,2.445664995504746,2.4556489409368267,-0.44658425722962525,1.516671172313365,0.3671095103177269,1.333517571881476,-2.032094479660217,-1.6626763463742484
0.9306371413176376,2.56161472009706,2.7525386709477457,2.9781565931988423,0.9910669472893376,1.1347728178439533,-1.5552643925639171,2.559156267715962,-1.4418696499553538
0.9781430831887785,2.475264649064006,2.530575221157381,-0.018835350221257485,0.2094612373203435,1.8548916764030885,1.3214852611007855,-0.23427794276038094,1.3120840067676989
0.9981452027188255,2.475139650533283,2.4797390638068544,-2.3325689595517614,2.22731232395091,2.303881665671427,1.865040873099158,-0.25559355001111594,1.7471288016505842
0.999574874236406,2.5337401073153294,2.5348177236356615,2.786918434312268,1.0739507484663458,1.5840910753825836,-2.145118141757095,-2.7420374640069287,-1.3267182491236695
0.9545958378410805,2.5042225253775228,2.623332751000766,1.7770154881682716,-2.839096459784563,-0.10928101028331483,1.9531227397585909,1.6758393937628417,-2.462835937501329
0.961317436074517,2.7373623159605267,2.847511356018241,0.5863312209241229,1.386044715562579,-1.0139867881581295,0.27819059734283647,-2.9668861355944,-2.701902694559518
0.9899579478849816,3.3054618815323744,3.3389922153707685,-1.8333238112225925,2.2169088547390103,-1.4849450027558495,2.3644350437659236,3.129604916787879,-1.958497403207086
0.9728358973704986,2.9507368510808103,3.0331290807179583,-2.1649343518761053,-2.5131628011866343,0.3622400754375459,2.5140080320994773,-2.4256971244839636,2.2349669622058013
0.9909367397723281,3.3137892030613574,3.344097630109783,-1.8543952186793058,1.8803147597301626,1.6264981303240509,0.46142938496269537,-2.4203025062838694,1.1676703193494022
0.9385285950441009,2.400318013347022,2.557533170562835,2.0964045679281433,1.2105687795724274,2.9906502773410057,0.27804093536186425,1.2756489278256433,-2.0879552050980816
0.9179092505444495,2.4015156624505747,2.6162887682264206,2.6858037424624177,-0.5699422935897966,-1.1062333456233127,-2.347659948961174,0.4046033537425462,0.9751857477791734
0.915158685776596,2.3991816380435145,2.6216017782834995,-1.2948856007640093,-0.4148949122191161,2.8553565395014147,2.109853645962887,1.5748451372157355,-2.4952575928704297
0.9821087727522111,2.4442704440156198,2.488798096330941,0.026368547316247604,1.226537512770009,-1.0253411051853845,-2.563778816799712,-1.5008657757781947,0.3800334743419489
0.8822346179702586,3.0327135306731328,3.437536307122523,1.3254503745885504,1.5118811772307934,0.9389039963517947,-1.950628357553483,-1.2359560416781137,-1.2088172887498365
0.9851932599768567,2.508519825635741,2.5462210588962706,2.2772857031645994,-0.17229872265941726,2.1281821962315233,0.9836545574372408,1.3930520247822393,-0.12696343482410777
0.9506868140878807,2.596108077590986,2.7307711005561544,2.7578164830744143,2.406377551755299,1.6306481342575845,-0.9961815544696404,-3.1208839281795098,-0.6061255481690977
0.9375571086756486,3.242395764181787,3.4583448135355197,0.5367864817212795,0.48960095847548013,-0.6930608933927798,0.1897018910893431,-1.7808346726819644,-2.484363605543357
0.9303526999407522,2.444323850332859,2.6273088157733313,3.091268997417691,-0.951029326948778,2.003684715866007,1.7127125412251445,-1.0224786344880625,-0.4104549440905485
0.995591424760898,3.226255196866716,3.2405413672998797,2.0125038720876063,2.1874359703644686,-1.5861610762342588,-2.3874457266758484,-1.0927324437552648,2.3931363925032523
0.9655194052671205,3.12871275437131,3.2404452332117764,1.0821792586754073,-0.26336510418439607,1.479710373854961,-0.2343067492401576,-0.31672893755069165,1.248162570209078
0.9826927772123605,3.184039135202415,3.240116554264998,1.1480655062786127,-0.54021561125959,-0.737337818029344,2.7288108020899164,-1.7335417869021688,1.1537757910946311
0.9950856638258176,3.0407845985465958,3.055801836050632,-1.3743665970201073,0.9837141352740773,-1.0210656595021708,1.636324386287769,-1.0475628978436782,0.5780147169872967
0.9025791224862498,2.6135667325829037,2.895664953321275,0.6314095482941751,-1.5950668789789264,-2.3505001744629452,-0.04175093921008921,1.1248023765789315,-0.4123631375224419
0.9840198095158181,2.4071440825849257,2.446235390087674,2.234809173800838,-0.5378461470876594,2.6425419373077554,0.38345900181691395,-2.3116938209475193,0.614998992822271
0.8839588384206974,2.517389504390943,2.847858288162572,0.7385012815878178,2.5931948089014023,-1.1067768526357966,-1.5405222049650644,-1.6521021304037862,-1.5667034970537412
0.9624326273965965,2.3983731516219655,2.4919906945690555,0.9448701359394311,-1.907742019993716,2.8835561150692532,0.724681735437009,-0.022910271925980386,-2.3255263535531885
0.9179989798886843,2.7554517684585793,3.001584782580807,-3.1163423980379856,-0.5800986179472267,-2.3442482618112934,1.745982382141488,0.868310585274676,1.9388312337389877
0.9624618013490573,2.407228312843037,2.5011156904813143,-1.5383259695896234,1.3723470871736136,-0.09478065623291743,1.853379879032703,0.6813194934487394,-1.101844716510052
0.974689968751688,2.3989601685937374,2.4612545994149824,-0.6116605759449958,2.0774289890481032,0.6474988070504422,0.19873272390457153,2.3019022499421498,-1.4911129819629987
0.9873502422617287,2.40395870818963,2.43475780456879,0.184790493773475,2.982366289793533,-1.311713047327277,1.5676381284534449,-2.5397511492293967,2.882641454158911
0.9662746465967638,2.4069598759183517,2.4909686747921067,-0.6935794540854978,0.9128074768456873,-0.5244353768784533,-0.03679960138092975,-2.477415879991488,-2.147235929256455
0.9333401285970153,2.5471576551802135,2.729077618262345,-0.36035074852801374,-2.7744035612294806,1.5772820198370958,1.5009812605989064,2.762576779514223,2.96101032979983
0.9978433909741241,2.4067151243816127,2.4119166856756014,-1.9285334330396402,-3.0759057502925353,-0.4429052938252762,2.4309792088653683,0.4375729777791406,2.006773639514531
0.9964079549317173,3.2487442207616803,3.2604559253888263,-3.0046166579986826,2.9318446269667833,-2.636702489103455,-0.11391110587663311,-2.283078146375004,0.3385791185567726
0.8874874273290305,2.8283972738492213,3.186971653628407,1.875498573654344,2.64269342905692,-2.187930929815437,1.117137056339577,-0.2479257097706773,0.5296703541030072
0.9887110215317377,2.8954252290618756,2.928484831266678,-2.033627647169145,0.15040134849784037,-0.28710117859746065,-0.32616641827506987,1.264806128184924,-2.566429732957994
0.9573509570471772,3.1001875665670187,3.238297871586339,1.777213769245071,-2.8484862033599754,2.3764618232941404,0.6266569042525698,-1.9886218223230583,2.789384852874642
0.9689726984365077,2.4116554550001394,2.4888786432182064,3.0383447450271355,-1.4868043262174935,-2.88075490885791,2.9752918843371035,-0.5172676889646866,2.628168760076827
0.9917433335496046,2.7483664385476083,2.7712477065116987,-2.876805434996902,-0.47710535208241334,0.5997112586517894,-1.794207953979963,0.801812113432848,-1.1843602033485254
0.9856725816745575,2.6569111498582156,2.695531152286283,-2.9656481994590793,-0.6193263956110568,0.735277326873502,0.18931796770982157,0.840188004252743,-0.3434314522731552
0.9980796295582218,2.98165862838899,2.987395534471289,-0.28372451144796074,3.0796090203656457,0.45300699683705403,0.20513454714400092,0.6227921303348483,-2.7989782775811545
0.9077099892625702,2.7343022505620844,3.0123082073641716,-1.6973906455276677,1.0476789844094645,2.6212260731913446,2.2967199097844126,2.172117648813975,2.526458043235664
0.9935565006196392,2.4686026221062276,2.4846122194023836,-2.920863623774696,-1.4481082914845176,-0.8750884596664323,-0.9037193509622594,1.4209025263144035,-2.9161723564471678
0.9939037444896622,2.4168308708513013,2.4316548601919865,-0.822113123039248,1.391634102370804,-0.33439370700246096,1.6988948037112328,1.6233261629516784,-1.851630224075772
0.9990039473951866,3.217360496151937,3.220568351647575,2.1587430003636587,-0.9106456225554913,-1.8604033831195625,1.6865603673472522,-0.8810977823584478,2.273031897427071
0.9206642071124453,2.4635880158189525,2.6758811701235845,1.1463810134079866,1.1673312547969346,0.43301998403408826,0.960363300578142,2.068776905567291,2.4745173093290793
0.9882310522102369,2.498900975510751,2.5286606506867115,-2.762898066998824,-1.1989303717203792,0.11425596152906037,-2.650748213570746,1.6091843491478262,1.508605162233378
0.9356166764693721,2.406772257945359,2.5723913633385798,3.018046288915027,1.7734715576048687,1.3932996276998137,-2.1442414561703096,-1.4424182022388878,0.575125247115555
0.9919895072147203,2.899828365283189,2.9232449982512856,-0.7148670318372212,2.1079375661714774,2.56876730396813,-0.09333647755004204,-0.18512306041684745,-0.9577527100364907
0.9884747522010161,3.002742632370656,3.0377534941428816,2.0293141420229848,0.15197009343185996,0.40234488584433103,-1.1336105252539608,-1.4922340607507907,0.292226708666961
0.9286957652539697,2.7419615099094816,2.952486285064129,0.276297256540428,0.379916065703382,-1.231565232949313,-1.449985158553188,-0.15970434843558756,-2.4811986525948124
0.9924237973079598,2.6393615061047213,2.6595104966892475,2.5105468590787705,-0.4873480865668087,2.781680460598272,1.3723148931361973,-1.2944380666841113,-0.8508842799377176
0.9417003877438819,2.56181326336364,2.7204122422644548,2.5623849038190647,2.798445275215884,-2.580480290194219,-0.13823467208012774,-0.7453619527714022,0.6336279370079252
0.9860684001927968,2.5728502891948644,2.609200628163136,-2.486139458679817,-0.1671171371841753,0.5054147694067068,0.855610776972282,-0.16496607637765592,2.509019749346918
0.9975494534820557,2.3979179752175734,2.403808620061269,0.10188983193318846,1.7031090264147126,2.2382919784126747,-2.6811580115415707,1.9017067313408038,-0.21693248643683471
0.9355491829308236,2.5383998313216183,2.713272458182792,2.072389581332188,1.1548026771400544,-2.9626266951799027,1.2404687770927918,2.8250316890569396,2.486488227018019
0.9531254969272932,2.5262741289289115,2.650515736986545,1.3919520504428613,-2.6239694063699117,-2.958099945147921,-1.9481938804047538,1.3326491669226606,-2.7613055460521965
0.994311556529538,2.4644100258873487,2.478508883562532,-1.1432033891678892,-0.8110304569569369,-0.5553984975734187,-1.3695296095375582,-1.936135250416868,-0.9329160160409726
0.9925880695040711,3.3779727302524787,3.403196989804867,-1.4730830615897286,0.907986446636234,1.4120359863023353,-1.5339608038128951,-0.8527041294006485,2.768049612899448
0.9466716267001232,2.9960632627478443,3.1648389771555983,1.5927433138721474,2.8135401654653167,0.86746874216586,-2.400112190354163,2.427535735338683,1.3156309690756638
0.9952685321657215,2.727084328197617,2.740048780868651,-0.4478093781187136,-3.044276635582248,-2.5953510155971635,2.893806945986791,2.0469330814088806,1.2352131778438524
0.9576325487313965,2.4070636559244862,2.5135566445743653,2.7428181004668577,1.3389982057886067,2.8414363569551027,-1.1136426595272453,2.9193678487482346,-0.6514529230258983
0.9009982881889574,2.689886150232445,2.9854508998449085,0.6209110908425353,1.5646858367944576,-1.0540750911545866,-1.1069091020891029,-1.3464844457356386,-2.9855129786410437
0.9994691606721084,3.291313914008631,3.293062000827856,-1.9972619837658288,3.109007801292859,0.7971708071448731,-2.901995947507779,1.6149527318537649,-2.448607108503408
0.948285797476931,2.5087966972173064,2.6456124344500034,-2.064919773899993,-0.32300520070382754,-2.352911098348326,0.008611458569411923,-2.1119879223951976,-0.033694120470523004
0.866040003544107,2.45555917487996,2.8353877012967557,-0.7913460754330446,1.1551374274869683,3.0540987333947847,0.6015728005601306,2.412101211504452,0.8607869774019754
0.9745926202535509,3.307450175453701,3.3936745535721706,1.7050096723266543,0.8081413660895831,1.7807237665944866,-2.2396300173473858,0.7075835484525084,1.2673982585270478
0.9843289154990572,2.4054511871413924,2.443747358495328,-1.7852513084387331,2.964323440833569,3.0098783196476813,-1.654706383809673,2.5789773264062834,-0.5500245414388769
0.9812403848079405,3.295301879899569,3.358302339486937,1.5235253759285987,-2.78910330528993,-1.2751241461793386,2.0049941007723717,2.011720898530223,-2.4597946567093913
0.9880441788529096,3.0974852727340645,3.1349663699553942,3.1165311427487863,2.8923884554396047,2.5491175158398844,1.1570366380069323,-2.7941784710997197,0.4817702069078358
0.9748498261700475,2.803673278786979,2.8760053123278926,0.0008511280051228809,-0.4491999226071419,-2.309425655240628,0.07423761829763276,1.8150139323720733,1.3274504104912506
0.9901870321863797,3.2080057534591937,3.239797784844511,-1.9886258434722321,-2.2133009308727716,-1.4816691514516598,-2.287419390985669,1.2062063259631381,0.1173880204986717
0.9855731255944769,2.871024579695237,2.913050797690426,-0.07808987115138288,2.9715238580986574,0.7600419912947203,-0.6728380585565716,3.1260176778096724,-1.0753764020913419
0.8955107217306502,2.999973015479425,3.3500135092539414,0.04894315136055427,-2.455794795606486,2.961865186117434,-1.2054159352047396,2.0838706813990697,-2.9670101781407276
0.8738514452933606,3.201200502227538,3.663323462436871,0.8174205887104571,2.4234046835381697,0.8175854559008955,-2.033755549524032,0.2618461798784364,2.517353738858964
0.9170328203213884,2.625637930121907,2.863188614341754,0.23998408001711535,0.948166098483548,0.36089440386165306,0.3131780453262625,1.7363612744022863,-0.3866107873349658
0.8570050110598926,2.890595803137085,3.3729042022311737,1.1845328109213575,2.572521495351129,-1.0880655402401174,3.032565381361077,-1.8459727325165625,1.346685662938314
0.9852357843367028,2.967113169564168,3.0115767380107274,1.8646654696769787,0.17205051424964912,0.5280480834837475,-2.460213977068178,-2.6450944244786943,-0.7415665261041782
0.8847487573929212,2.4782623605988134,2.801091654427953,3.031014246512978,-1.0704489311706333,-0.7807857753498579,2.0416338651456254,-0.3188582804225626,1.2408604526121403
0.9596288525527533,2.508147940719217,2.613664578807917,-2.995109469512058,0.7273006450243722,0.9564637335044708,-0.19824581972930622,-0.9697965224439904,0.9157914889662679
0.9820224606514564,3.121693614208773,3.178841359838039,1.49496816820142,-1.6838773093526804,-2.1603865328816165,2.464720277319488,2.743650145373648,1.1667506019301932
0.9655710303867905,2.4015009772064495,2.48713031111181,-3.0228178737110176,1.2477698868925424,-2.0935626844299158,2.0161412331160813,-0.7239217861874363,-0.3461258881388307
0.9805240172856792,3.222949129282394,3.286966022723517,2.0368531302438626,1.899523639404837,1.6073837981083168,0.12384636210367228,2.520894162214696,-0.4341503823866204
0.9341982264298835,2.7072988885863882,2.897991895074086,0.7826193119791682,-1.3973345178980954,-2.1480228731359725,-2.4852762138930533,-2.9919981855905813,1.271428645443427
0.9698321214449583,2.705280852639903,2.7894321015159713,2.216498698367963,0.8455157769129094,-2.9802488561849203,-1.4979149482427225,-1.4223239667715195,-2.255481903049383
0.9499871612273179,2.9020920730656523,3.0548750462230982,1.520587047818399,2.814206255491584,-0.797756515640526,1.9375711637608264,-2.359943680380308,2.042310261064835
0.9990440676865443,3.366143955097624,3.369364839823833,1.4805717518591157,3.0978642954365414,1.308373531510071,-2.6386937659252307,1.5357141127516893,-1.1928854759465213
0.9877730020010882,3.334705148528002,3.3759832894524973,1.2791180113384693,-1.089429885525039,-1.3987295127090653,-0.8889908924776937,-2.0575392910213344,-0.755401665681168
0.9963435156874301,2.9039631155534003,2.9146203792472143,-1.8067315972181288,-1.7619349873406795,2.3180028405851614,0.098917494677913,1.271931519678911,0.3754588500438989
0.90542802854594,2.526847178581168,2.79077640509884,2.774332562128638,-1.691734072246222,-1.7553135201271162,-2.0012661136955456,-1.9346294805339033,-1.131582392097386
0.9658954347659267,3.2746727080926554,3.3902973243539902,-1.8300663139120108,-1.5076569566626061,1.8638990445285035,-1.5926181888260809,-1.4662961892359425,1.0753335973738931
0.9500129803079636,2.851317447225394,3.0013457777188357,1.916442532841458,-2.824073797182412,2.767581140906893,-3.0558422465183375,1.371270097671645,-0.05507338551700114
0.9823662973375693,3.1666009447085335,3.223442165402788,2.1245025645351756,1.9214480108493515,1.65253654259626,2.073336132862681,-0.3515907721288256,0.5662419451134642
0.9922844420123651,2.9351139262127313,2.957936053356116,2.56725680411132,-0.38807796339143197,-0.12100219796489409,-1.789770381904739,3.0647547016733707,-0.45431262725428256
0.9935149036488808,3.033384165029421,3.0531843597803268,-1.1262562789768138,-0.3627895027144046,0.48201880363937555,-2.931857514405745,-2.0969143468292817,-1.220817005241395
0.9889602240221385,3.193672914642933,3.2293239273609458,2.378266380319812,-0.6415804931659257,-2.4892228480196716,0.02815477923692633,-2.69078058484543,1.4446209557825682
0.9579577458467415,3.311391044558044,3.4567193166031513,1.465553814603389,0.2909989486822515,1.3631901825292303,-2.8021234061677984,2.197887233002085,1.2432473142535256
0.9447669721608134,3.242783194089157,3.43236299494304,-0.6851686654027436,-0.5194006527714392,0.9219652791376252,-2.3469168425850135,-2.4761518967725533,3.123053010294078
0.9196484697321329,2.411679061534851,2.6223922954357803,2.035920996843304,-1.27509232031273,2.877310541550731,1.57590724816691,-0.10604006337841998,1.6947157030257323
0.9815876193413579,2.3986746116323636,2.443668363749195,0.05317955495282778,-2.283418770067983,-1.527980417651408,-2.36541346871317,1.5144577044934033,-0.2042731185773543
0.9945644052764271,2.760537618972781,2.7756247904383056,-0.22830499250123326,0.5982655206099667,2.5956578785107896,-2.3347446876930817,-0.3725712235005636,-1.6652028573302862
0.9198478418474622,2.402077515347277,2.611385716275467,2.786128274781259,-1.5861465424878696,0.21135854651373975,-1.6155291718073799,-1.2337869294668662,2.768422471999749
0.9853351246477708,2.5981711952689897,2.6368401270560224,-2.6575486293297104,-0.8901585236507978,1.4870367685811372,-2.6326377100814438,-1.4480613776471007,2.9056155715304444
