Inf. Norm,RKHS norm,RKHS/Inf,theta_0,theta_1,theta_2,theta_3,theta_4,theta_5
0.9541351278393375,3.018665867783153,3.163771859672535,-1.766699803395306,-0.9402892716876075,1.00211235405469,-1.7310799979442872,2.3305728776370813,0.9590879807601835
0.9257869923453637,2.8937988916937307,3.1257718196738313,1.4944078237830354,-2.7539083823107116,0.6713453968324896,-2.9966114747900088,-1.0661244090663349,1.1830082795481047
0.99950863947404,3.123039819413942,3.1245751122845156,0.9706399460736339,-2.1068020597951076,1.537431434296634,-2.979310469774849,-0.9970791438419657,0.16098696494090747
0.9978577551990467,3.387682612439459,3.3949554380761455,-0.8001644895969546,-0.09054534605352371,-2.351154350362272,-2.702013477413405,-1.1991900813371952,-2.5742820377299607
0.9999886098475232,2.398204089212532,2.3982314054339144,1.7860745833289364,-0.0047728763024244,2.9418253457300994,-2.693526981382784,-2.5897740821992654,-1.7640907144806552
0.9739819924805324,3.1143341661702113,3.197527459659332,-0.9556431175726958,-1.3216367282706754,-1.7682818122335373,2.932768437839468,-2.3742520848788073,-0.5650741379684661
0.9678989278666814,3.307212033410244,3.4168981266459055,-1.6050590964452796,0.2540641814554947,-1.2196798807505782,1.3693699115105522,0.7877812114521863,-0.955726720967272
0.9712609320983584,2.5101941281652556,2.5844693688462406,-0.8417456149526803,-0.24032389967311918,-0.3956645828896259,1.4183492523525523,-2.042759409236524,-1.8083702792006415
0.9947840429074463,3.24860927920382,3.265642731571306,-0.643904979183906,-0.31250258056308367,0.32845756693323347,0.6092379726839763,2.4271289493620873,-0.008728398005943383
0.9908435410899272,2.5981943330767487,2.6222044402880567,-1.6707740463439207,3.0061639521506276,-0.5294246229126376,0.3445919758941489,1.1188911352461774,-0.5820554600216212
0.988782551644467,2.9873922399186936,3.0212833296363217,-2.5770964788180875,2.3789902354822026,0.30408176267101616,1.9334983904207723,1.9923939778344835,-2.634755771911371
0.9466012212215681,2.837264689107166,2.997317799195038,2.6415393751066576,1.0791779478024663,0.7973396803789203,-2.9287288744754782,1.2605330537109722,-2.5734141600274043
0.9489514773634445,2.7111299463800007,2.856974261647784,-0.8303762540018429,-0.32090141528862626,1.8568673012803405,3.071725966015384,1.4356537777096428,0.050707807177825526
0.9922580062101386,3.008682127428571,3.0321570686237402,0.695011711416984,2.127618534174271,-2.1673367967306967,2.439491272454875,2.2515431657414213,2.2235225662893683
0.8893400923771965,2.845384358705058,3.1994333586146735,1.3292266760954758,-1.388266397686107,0.7618213226394901,3.009231632243627,1.3697864290155577,1.6560472273265017
0.999016701872645,3.2911013552385264,3.29434067425439,-1.9611978973801862,2.0312979210098074,-1.7601234015047886,0.04989629384167138,2.28392808571441,1.4638898955202553
0.8730282134906052,3.323647215623153,3.8070329964873686,1.4076916298351918,0.5314143953966828,1.9844789602626882,2.130617064926807,-1.1142097819232237,0.9456864937791307
0.9446639991398833,2.516928113857694,2.6643633251075065,0.4561408080951894,-1.5105242855766443,2.461845352778644,-1.8810760038731917,-0.7815429715973301,-2.6060148779777497
0.8941485208760264,2.8144281023548894,3.147606954152877,-2.401717194508816,1.5165421703670923,2.05812717402633,2.8174173585853284,-2.3487794870193137,0.9280832210885164
0.8941017389764511,2.9287763630116084,3.275663423230124,-3.0597691890701495,-0.6747651838574078,-2.7864889216529867,-2.012181863625585,2.313425226892204,0.8356201372049985
0.9633523555434799,2.4577438650192147,2.551240831951531,0.17506945180103894,1.7202430748499182,0.7113970333527235,-1.9482184757625116,-2.2381753538262537,-0.8190556705997643
0.9539052052757991,2.4440767233679135,2.562179878933847,-2.471242600663866,1.9321692604606922,2.4280550113820842,1.867745670859371,2.964217699282396,1.2903828077928399
0.9781885980664893,2.5162314517672253,2.57233774421504,2.396852269737372,-2.9323504211794766,1.142648243529898,0.25201373713716313,1.7625098299961532,-0.39173773660259137
0.8885234042954175,2.7318773841559225,3.074626251766829,0.0413862353691008,2.147769107917868,-3.013373251873186,1.171841956598584,-1.5586122841636818,2.0531166830394287
0.9830799516389067,2.773532596123029,2.8212685972277565,-2.5384838927247424,-0.8642569276578604,-1.5441960536140118,-1.7088196855353066,1.445524092629948,1.1443880101782797
0.9075693462939972,2.581870873758978,2.8448193896167675,2.3497365848536775,2.7082550649422883,1.1615043905213467,-0.699167856414538,-3.0933748944028587,-1.0834590464804839
0.9205345572872671,2.745402320123793,2.9824000613450603,2.5916995094865802,1.0372598983262984,0.2705803789324661,-2.6408023881846745,2.755879770030676,1.4691874064858634
0.9551561903743829,3.284560660624472,3.4387681237107994,-1.9170141605994069,0.6575374732358132,1.5541899255264493,-0.1714828226206202,-2.4816383834311897,-1.7180314349789523
0.9915844606850909,3.1251784634895805,3.151701733335331,2.5507220274798534,-0.26899635234799657,0.06642177133159954,2.2213968616470687,-1.4497830179906852,-2.4891575524446896
0.9750754153275804,2.86001787090612,2.933124788040406,-0.3805484028354753,-0.22373563671154217,2.6866744550127706,0.19350020162915404,-0.5557586721092846,-2.508792155414653
0.9820367225691432,3.1750794999684055,3.233157607041375,0.4037895319854248,0.2754556084440041,2.264481609829091,-1.014416184983307,-0.6493388960466531,-1.7039375177337874
0.9132698339863405,2.7081998603755597,2.965388497016825,0.7473708224403692,-1.4688049011928483,-0.7657285842621233,0.4850880210933859,1.9979683713054825,-2.5942335395259613
0.8936864739502558,3.2753850155940962,3.665026954157986,-1.134322170672958,-0.5412087741833624,-2.2577970909714202,1.8593367385075226,3.031153528910571,-1.1685854780061995
0.9663900129834705,2.5697814555043212,2.6591556421105893,2.892894739438714,-1.926029661236938,2.1163498187358014,-0.5118909913964145,-1.8507619740098893,1.8095405728693121
0.9726876724677577,2.4198580252247774,2.487805791848349,2.39619056241526,-0.486043327026334,2.5225598379677088,2.6610007084236234,1.298022286744125,2.0166694035570982
0.9755338563582495,2.73332182251664,2.8018728460336186,2.67790654250223,-2.774393524525155,-2.67853397855615,0.9537788138898993,0.37480700067299644,0.6896321245113142
0.9502417097843978,3.0946897120059216,3.2567395012665585,0.7824068282708208,-2.2015093810307675,0.9379743774386906,2.769764360328117,1.2450894355338606,1.1052676591750767
0.9361505010665584,2.563949562521274,2.738821973176493,-1.8108656850984535,-2.0239800027775554,-0.5046600154536427,-2.219057840181816,-1.9203828114398216,-2.3156476279010305
0.9502159277138866,2.458672491907901,2.5874881910506304,-0.9691287803173032,0.3168681781274949,2.3313068194129674,2.906064142924162,2.3480480845297933,-0.03821290080297324
0.8817795430650975,2.4680048878615595,2.798891068943021,0.4392330029192095,1.4142105696062046,-2.246460066293264,0.16021981967868149,0.6773335310611523,2.070123855412736
0.944800043069702,2.5379706125965202,2.68625158435697,-1.8450655973586954,1.5088215725191656,-0.35099726604463033,1.1425914368354535,-2.6051096038619503,0.46212548661179165
0.9767269465094407,2.7469459383515384,2.8123990519237583,0.5360076637970561,-2.925426557894222,-0.4196039468469426,0.9466466986995439,-0.5257062586935435,0.6108427580891989
0.9958578098950258,2.9900933177295514,3.002530369315213,1.3375891639142248,-2.14768982731799,2.150528622582022,-0.20114648709690774,-1.0782429594466882,-1.7042844850494143
0.9831170394236876,2.8658450561330793,2.915059897459477,-1.4075969765784453,1.3058308679151986,-2.4602827938513094,2.030298553054374,-0.14577978741166753,0.9695849401296908
0.9184639134968471,2.514678373403595,2.7379174472184937,2.981684572306735,-0.406617389446418,-1.74715731039626,-0.6842210748212252,0.6327620998228674,0.19302759318561025
0.893448123013685,3.104109022467449,3.474302472086455,0.3944419596228701,-2.5666004142934615,-2.3652315168664333,1.6321838741851709,-0.328423796604282,-2.098040274364277
0.9879039420195115,2.4464175360290503,2.4763718737957343,-2.940973105811362,-1.5163116186623962,-1.108126982491164,-1.3902310758605119,-0.552832969622675,0.07410549889481421
0.998796910137624,3.1094406032595527,3.113186045830983,-2.1956558926030363,-1.0588997824246493,-1.5159665441866328,-3.1010642668066586,2.266566713956653,1.41867200337792
0.9765724952467886,2.820080766599386,2.8877331486657596,0.955390148004243,2.30632857326321,1.944225274597227,2.504673963243195,-2.512868145221316,-2.2856526730147912
0.9849428565101856,2.9373948850989424,2.982299801134266,0.5365965220146571,0.17375317096725773,0.230238206443647,-2.9932539170675763,1.6429398811899647,2.616975664361334
0.8966539480133668,2.45731806397502,2.74054228994304,2.658074062671351,1.2280363242955605,2.154442270669623,-0.11571884194279969,-0.42139289098703614,-1.596784313683453
0.9535374356714472,2.4098157114486125,2.5272376534977945,0.09992033893618135,1.7883660690408405,-1.5707725404358466,2.4741250566144144,1.4488702105391802,-0.9515601086367336
0.9440217588045878,2.6102818641199974,2.765065359749112,0.5412117352015353,0.7252402977780994,1.4442128546379447,-3.122206198430697,1.0903222747261028,1.3821093124409867
0.8811724473168363,2.399642546993342,2.7232382881469297,-1.361336019280694,2.400635873315559,0.19392385713990956,0.6990496605807124,-1.2695519713073509,-2.107565345237037
0.985217349467814,2.583747915456349,2.62251564779286,-2.6876598181208227,1.363597929832892,2.5374699066012756,-0.5174589368225266,-0.9034469162821179,-1.6817779663048742
0.982305075568987,2.991138985298009,3.045020391007785,1.1283715090678452,2.003404576714094,2.0026073769775747,0.4460218969813692,1.440378080196358,0.5868680811210338
0.986840941105284,3.3701049599949213,3.415043721453559,1.4929815361278278,0.9068519441400085,-1.3770285859827687,-1.104631619021303,-1.8202333239860362,2.744170877791025
0.9004273018561435,2.625175951812624,2.9154779585215578,3.0446724543504384,-1.0391273550880853,0.7106808162436233,0.9928905020691436,-2.8602857784905176,0.39964598902356485
0.9793178195098011,2.398131324263505,2.44877738001734,0.09881012812210255,0.20373447629392016,-1.685368947214861,1.701228274621183,-0.694436163360451,3.12583288684071
0.9638269448281755,2.917930213006447,3.027442040984479,0.24396875161232323,-2.8718028641190543,1.022927587191485,-0.8250329962560716,-2.321445895483902,0.305802272732842
0.9392261782626597,2.5081366601791966,2.6704288255877193,-1.0533243289217191,-2.4603206935198023,0.7449124126898288,1.66028927236749,-1.6926096045798795,-0.9968539913111734
0.9976540654279683,3.324255080169029,3.3320719028424026,2.059157280447537,-2.7195396601185897,-0.9111384327358212,-0.8870093354580066,-0.37904204412680453,2.4327343927416987
0.9542776713230565,2.5863771913710396,2.7102983430233274,2.65665118715005,-2.1701546566779184,-2.955458738059292,0.17670628507173625,-2.906481942026426,2.5903481117529603
0.9021883155847886,2.401993170666021,2.662407758084381,0.375300688237576,2.601451556548298,1.9349279154013832,0.7155074779935839,0.9422654869893767,-1.0847911924187574
0.8735778807276343,3.1539775485370765,3.61041369993253,2.48182012204774,-2.477194715909986,2.1552030985690642,-0.16650927392802695,1.101207185255868,2.664166718661547
0.92862013763848,2.4588776296060035,2.6478831655094544,0.497189702682701,0.7996769931081325,1.205841218709228,0.8281230618435265,1.0671168242753941,-0.042163363499794215
0.9021160081410643,2.522555409315652,2.796264988705531,2.7571557511050093,-1.7416627218754153,2.6075142115938217,-0.9596142564440244,-1.668665250898529,1.2572977104518799
0.9068433628236766,2.4622407752948376,2.715177588804371,-2.9634519299062574,2.5031407054064783,-1.0582022446232267,1.5120017121226592,-0.05497657462107819,-0.4266902761027995
0.9890849067816303,3.1476237055520153,3.1823594556649586,1.4751576623118492,0.9452731029830748,1.077592583129472,-3.0672779340480583,-1.775101504817332,-0.6828457399097823
0.99104158629613,3.0538978456088612,3.081503226340227,1.866946737116126,-0.13395388220175253,-2.525659466940978,-0.5465674511051235,-0.555638205204998,-2.103915497100375
0.9709392031745561,2.4541752995276025,2.527630248632972,1.144655739905864,2.8999207566159386,-0.1943999888100687,-1.3373908952242861,1.1292930517032502,-1.5131545160858213
0.9958579769624103,3.24170040207869,3.255183446907361,2.0993225464767775,-0.0910481805703589,-2.523397319130895,-1.4715802914388625,-0.2738734042369546,-0.2043122842092373
0.9887225407052751,2.7924806364579964,2.824331924774432,1.7815970426271077,-1.8595596554384015,2.5474311950179773,0.8400351129610164,1.2453464296605938,-2.868229719060433
0.9901250539870173,3.37432518103713,3.4079787875778513,-0.6603583390730123,-0.1563123208614705,0.5971935256359897,2.2946930706949322,-3.01121033456032,-2.4319222777951484
0.9460384436106829,2.6315867606790446,2.7816911442152814,2.7878159016450335,-0.7338944026365493,2.6524163373211733,-0.3578091611572374,-2.3977901214100017,-1.602176967534199
0.9864401799483304,3.308907543461511,3.3543925021736554,1.5040826660380562,0.3573132221590427,-1.1943545458415417,-0.1874370089014259,2.1222417903346615,-1.0625194420804323
0.9963372735872502,2.514072051872502,2.5233142616663757,2.4937796041724773,-1.1803587762083019,-3.122413469943579,-2.9007047861728825,0.3945866875438244,-0.8890115197978434
0.8812415496774302,2.7459915281268517,3.1160486351693186,1.688447776561497,-2.543114767150706,2.6454644650063486,0.33789574156671076,0.5690355506117846,0.8680466626166856
0.9852131215171693,2.6984698391577693,2.7389706655574044,0.45929144140583,-0.9231869996191588,-1.4272124354262614,-2.331504464515123,-2.2916064412724877,1.9910989699215342
0.9700063549697822,2.9057443021823044,2.995593056988606,1.6581249574460992,-0.24553937529919168,2.302873773786202,-0.6214067268619892,-2.6823792537701574,-0.9407282667568597
0.9436804137540491,2.590079149447343,2.7446571018081913,-1.410402401493727,-0.6301772147886089,-0.5525424092557554,-2.4664820333140582,-1.2724091936012052,-1.192030721258311
0.9099419448527664,2.676465740550054,2.9413587929316973,2.6271323199806442,-1.4721292320444965,-1.6218966078281571,-2.7605899734888357,1.6941320970427665,0.9216002849623726
0.9437699164358011,3.3687091698005758,3.569417832815323,1.2317988684722687,2.791772213536495,1.3677464570231592,-0.05842629170966207,1.4805809244321262,-0.8636578840065301
0.9906623674947951,2.5985588434003444,2.623051938443596,-2.762800570847741,-2.2092157231376772,-1.6598038389056728,2.3120761089326063,0.11581189687954563,-1.600708590435625
0.9770190246477475,2.688895026394238,2.7521419323064737,-2.646256658220736,1.8195760035025934,0.9029563056289387,2.8588999323384536,1.97912894534638,2.281933617537943
0.9736311500734826,2.658687402321358,2.7306926263818694,-0.8047687200750429,1.1439576340749227,0.28634458852889555,-1.2999821528579878,-2.320361725764855,-3.132565941510008
0.9540304440961141,2.8095117036130985,2.944886844019889,-1.4182878012805202,1.6881215144937851,2.4938841959607547,-0.14880451188794952,2.6737912023347166,2.1768590184438006
0.9855852482726504,2.8184359115922804,2.859657159572861,-2.6337448514775876,-1.0082270869611927,2.7452580362854224,-2.480936504290241,-2.7109651061538296,1.7119668052140398
0.9756668774987745,2.491425340502218,2.5535614644306173,0.8114988236090035,-0.6933434338264797,0.949972183525297,2.9413666898152977,-2.4736746744377047,-1.325893105171527
0.9798916837989583,3.0828241010032986,3.146086605257682,-1.8064103141573535,-2.343993243006067,-1.126666501930389,1.431359175971572,2.5609588719722973,0.932968952619361
0.8913111459498501,2.50829087058521,2.814158537097818,0.024676724565076746,0.6630262383355481,-1.202221611692653,2.0851494933403547,-2.7274387978737753,2.3363345230346733
0.9799767530193371,3.354445406490936,3.4229846740300642,-1.1531215843558238,0.4543614670708145,1.2999966151889737,1.2445133301682452,-2.850497045157045,0.08961658025959895
0.9852223109654686,3.3537583433456586,3.404062520731126,-1.3991641137722612,-0.7614797060378091,1.6212769413268262,-2.9608603219552045,1.755501387976345,1.7084115457099687
0.9843191546445796,3.117446781596578,3.167109739647638,1.8735231163623816,-1.967162617335492,2.2182684308487195,-1.542043965846414,-0.9148216359024728,2.024786935523065
0.996981766321787,3.3303986134980645,3.340480965650019,0.21430735567125714,-0.20377442500471732,2.739574404724628,1.815154019646811,-1.4084072958548801,1.809445376102186
0.9494487255086795,3.378144708237089,3.558006469940969,-1.7355080892083723,-2.4041748831586838,-1.7499276699713944,0.28879443126593074,2.1133651916872758,2.504252404941896
0.9449872419636806,2.409872777991821,2.5501643524669317,2.056110956205197,-1.076148270184372,-0.35519663377865873,3.1025225014109026,2.3171937689518645,2.409822801239679
0.9827612747567094,2.8730550676218973,2.9234516473323042,0.724527231278624,-2.8560775324521073,3.0570511101524316,-3.0428199641212514,1.9048242229367283,2.688161478004215
0.980467737314451,2.600165992358372,2.65196486676895,-2.5940199554529437,0.9172890061381596,-1.75077318689424,-1.8431465538436762,-0.12280543989619774,1.9467128681517005
0.975805957544464,3.1409997043520193,3.2188773598555276,0.43017614566688556,0.307127004405753,2.197872129814505,-3.0318763681789025,3.1002443606219057,1.5151379708218071
0.9787726425525323,3.282520853615902,3.353711281769631,0.9678102206316428,0.20641165471632839,-1.322404621915377,-0.033207285695399325,1.8886031773336427,-0.7766860013968944
0.9943234713104241,2.707243849996098,2.7226993308608187,1.3569722817807133,-3.0349914591283174,-2.802472182117052,-2.6632747681547997,2.948092617365182,-1.783551466694969
0.994526778416763,2.916058883846459,2.9321069549164673,2.123657259159282,0.10467302972075565,-2.926312979138368,-1.3871422508818068,2.9917531859262816,1.1261403201131488
0.9061631031612681,2.797054705753689,3.0867011644987516,-1.6763378068783874,-2.7049181149501424,-2.592409433992645,2.7304903085259564,-2.5537133902318145,-3.033741262442678
0.9448519903667164,3.256997425123226,3.447098019933385,1.0005108915407082,-0.36307539459044946,-1.3888500806764386,-3.025369172867755,0.9612691298771026,2.7640099765936155
0.9912665257060442,3.1662589364774085,3.194155007123028,-0.35363523961771026,-0.19457024281292012,2.9998636454600156,2.0510104547896404,-0.41087652704852573,0.8740226752531184
0.9726144115181398,2.6727943858314407,2.748051390334135,-2.437886874117635,-1.4680923839887983,-0.7360686363831515,2.5825756659246943,-1.9351179649563497,-1.1493602097750775
0.9020945041386379,2.7505028358183896,3.049018504380202,2.8727233275468222,0.9813384700392049,0.8102850927378418,-1.8976241362825665,-0.30214096576963545,-1.2847265616238372
0.9568192160528313,2.422572491023845,2.531902004453557,-2.886688635187081,-1.7145474500413862,-3.121066764770045,2.435203558084904,1.6446848178269242,2.532383494126523
0.9838270820028988,2.402706503596127,2.4422040697483536,0.29589558576399755,1.4707410095723068,-3.032540289526485,2.4386405372187383,-0.5704606932079077,1.6381105062438097
0.925317989443065,2.668608999494524,2.883991265641252,2.3377915388018042,2.752669661913256,1.2591074084474903,1.4998568481140993,-1.2178346552460046,-1.290686740246441
0.9544967898203294,3.1228069748390817,3.2716788659152076,-2.5544552844677804,-2.50222626880939,-2.7285859256599707,-2.9109028809588926,3.021895278517821,1.904846862551155
0.9988739332796898,2.475352865650649,2.4781434204846122,-2.567196962441219,0.04746110242091328,1.255168716215012,-0.14251427973023967,0.12192705823801386,-0.6522256195038003
0.9788785982470297,2.749796227028521,2.8091289685491545,-2.549639213277024,2.9356986242152745,1.566746134080657,1.0700239514004588,2.340785602336253,-0.7654301542666726
0.9071480257289634,2.418148577637666,2.665660409385224,-2.0534728759303484,-1.203393166838246,-2.8106059229992653,-0.13680859126737444,2.8703181220053287,0.2280350740235786
0.999489321342735,3.2936696650573642,3.2953525312632443,-1.7523766901337046,0.03196004157174226,1.4089552630621176,0.3264714923209011,0.4965162797656961,0.910960775367446
0.874416381299888,2.661050678234024,3.043230588015935,1.51807764070608,2.326784505009127,-2.675398632224988,-3.0289047128532784,0.07335125903997808,-2.2112639595318924
0.9898303273450882,2.3979717183112577,2.422608857361514,0.8068476194465766,-2.9988554363412034,-0.7519787103125197,-2.398106781782445,0.4066900164797165,-1.0167445976246725
0.9905036562194278,2.7124017416137662,2.738406592022598,-0.598333301160531,-2.702225916510785,-2.816441001653448,1.4533664480102804,-0.4285118114570796,2.409051414309391
0.9626231929978497,2.564355785964194,2.6639247886581123,-1.870578321168081,-2.7230035409309,0.11645332529000241,0.7727900767329197,-1.9545335918163618,-1.6168187288129778
0.9392018068319193,2.940532616412244,3.1308847523740817,-0.8218885771986497,1.3160835655866308,1.0030551139536605,3.0331220877190432,0.444938507722076,-1.2572059456233715
0.9905128085304777,2.548788345867002,2.5732007944938924,0.310080510035871,-2.0295844527194893,-1.7088515438294685,-3.0800350984516314,0.9285075463764079,-2.756297508351486
0.9920316540376639,2.4500172278668924,2.4696966249968813,2.6131448898377396,-3.015268064300947,-2.315169701566014,-1.5292703251232713,-1.5410968980958324,-0.20507716441960655
0.9877885187415041,2.9323485877518993,2.9685995859598266,-0.8063017772910288,-1.8043031155856584,-1.04158321189258,3.095787963780592,-1.0849217064877976,1.6062812684970167
0.916924750297581,2.6271620106732767,2.8651882390792167,-2.0718103384424533,2.7311010401564033,-0.938903750886436,-0.8093057877905876,2.3427536780766918,2.3168823573602246
0.94548411804258,2.564394673602459,2.712255684327604,-1.014338511371248,1.2325494266723398,-2.8926907762526275,-2.255797508099467,1.1961454861644736,-2.5230387336646576
0.9941554514757959,2.9689061669600276,2.986360093436866,1.1217829372848964,1.8834957866083872,-1.0771134276090253,1.0849944524646071,0.9500396182991047,2.210677935021576
0.9844810786905208,3.258038738269362,3.309397010050156,1.878020127175934,0.9101137466923594,-1.436711532723149,-1.2101711487749798,0.2146946958763225,-0.503386738234251
0.9992478547612711,2.8258191481416195,2.82794617439207,-0.40483436174147247,0.4843772160652997,2.783045586932295,0.8808535030860716,0.05503568925215774,-0.06510517037008379
0.984488540754774,2.775874411695198,2.8196106879690332,1.393452876350441,0.17636171264980005,2.6932758128981824,-1.4161265193073214,2.5739231565306113,-0.26981304246322546
0.8961875729293305,2.41766487072031,2.6977219320479873,2.99613401671959,1.5155059959474704,-1.340136863777249,2.205933878719012,0.9674311052892346,-0.8405861822451377
0.9309622203126653,3.1762063213014726,3.4117456670097077,-1.258138685845542,-2.7678357647978054,-1.7856069268909367,-2.869820904247414,1.1311465132038334,2.027290231257285
0.9860510006988698,3.089598901697654,3.1333053762005023,2.3667829843771537,0.9483280310143458,-2.173788129916585,-0.9940846671736021,-0.9181082975442458,0.7666211618092733
0.9942742538449864,2.569730351526003,2.5845287068316667,0.6161265068057609,0.10706277169406864,-2.5867372406735916,2.9901837734816104,1.8917652602950765,2.1650916326797445
0.9736963159316974,2.4309720841862736,2.4966429926975313,-2.942787703629463,1.5694144411540485,1.0108387683454092,2.291041628288494,-2.277539639416255,-0.22230763101339734
0.8954112946495011,2.612480094089146,2.9176313831419476,2.7279045304191634,-1.883344092375386,2.674519389447968,2.5676629404146,-0.7935255867356945,1.6731633337085725
0.9088720309597743,2.3991880739957168,2.6397424414767827,0.9511505430141955,-1.4443789917242764,-3.012020925071545,0.05699362682373721,-2.1139160825375853,-1.5860647112051045
0.974924777089224,3.1836657957865184,3.265550194848677,-0.8144736134167458,-0.22441356379985455,-1.8273940780510567,1.5911785051081244,-0.5554825236313152,0.6201744527608981
0.9926555268209694,2.4819982345230684,2.500362076733503,-2.383962283350296,0.12127226428706717,-2.6035994419558195,-2.898955255199069,0.2744718782872333,0.3773854132473775
0.9313562630745911,2.8670307446536683,3.0783394693551887,-2.569086382095483,2.436766386281235,1.3760648687103467,2.5283293838582264,-1.7135107277186359,1.2342050815798267
0.9664006553374569,2.750559068564399,2.8461891590956476,1.210461635966805,2.8816341893515833,2.1928770519675167,1.3720673145805993,0.3150712672879825,0.07832205092885047
0.9241511494820347,3.18918542738224,3.4509348705238363,2.0116797280678176,1.5040799765607202,1.2900151391098982,-2.124275844582354,1.4943106241125639,-1.080023528026496
0.9678488651689967,2.4011903425547665,2.4809558898800725,1.6955567554616628,2.887329365091781,0.17311690181853212,-2.3185337292270214,1.9255262937868691,-0.2678036495074778
0.9096293684965625,2.934778669472361,3.2263455546988,-1.9219439424413975,-0.7336139761625828,1.0768627284715473,0.06399281089539244,0.7639932965113414,2.5634298704782132
0.9849101433700329,3.3377071951196373,3.3888443708165297,1.5352643573567812,-1.2512049006551582,-1.3090407554473273,-0.19073632524602857,1.8276425447894287,-2.257747396155624
0.9889965294227592,2.4594936227316793,2.486857688132834,2.7791189346083787,-1.2779839673722928,-0.11328575922853501,-2.9283292901214706,1.828637765908816,1.4741768612463257
0.971974421124532,2.423033892115164,2.4928988247569515,-0.5277389594453075,1.373944412409351,-0.04701516671042594,0.9641804387242594,-2.072937602688483,-1.4667290033965352
0.9494533275300732,3.269857408986229,3.4439369626440737,-2.0043062266900913,-2.750463486674816,1.5169634726235657,1.4533560842573472,2.0228503724821216,1.545736672165087
0.8767709630401812,2.8849053632078783,3.2903751205497747,1.269728715781845,-1.1519361230229639,-0.6426300829157685,0.3113511342999784,-1.9342637338410136,-2.678152111727952
0.9793328030152652,2.855963869734528,2.9162342575897675,1.6490661235739879,-0.20366040748541314,-2.5145849768733024,-0.9682368329678561,-0.6783963157556427,-2.1868057102470746
0.9747762203967141,2.713146969930367,2.783353669446482,-0.07440454688114428,1.0151167009013466,-2.915611093660271,-2.4984244613805187,2.6138351845434142,-0.6057927497518292
0.9167494474134062,2.52326542092202,2.7524046270672677,-2.8220205393448112,1.4715135814010498,1.81166861995883,-2.7532866252300465,-0.1781763393588922,2.147011689830763
0.9960332890048427,3.3371184550830724,3.3504085575465616,2.838582588281101,0.2632402268975733,0.2723383241872126,0.4506762196243006,0.2410760113759074,-3.1278597035433555
0.9995141888231875,3.24090541002909,3.2424806433662354,2.1652721220059137,-2.3585642378703233,-0.9806443344425286,-1.337136712939513,-0.9213460242935909,-2.6611850537021127
0.9894692782525059,2.4824359937856184,2.5088560588458386,-2.8810340614201286,1.190134930827492,1.599558700426826,2.6096362914989557,0.32613802353042587,2.3380487420032248
0.9519611677719823,2.592048245671552,2.7228508193649454,-0.3540317282952645,0.31121843884226585,-0.75761240609254,-2.63810216629507,1.336760430315823,2.852420549915265
0.988935213533389,3.127867742637087,3.162864159181326,1.5546903744981773,2.9926950256360705,2.1328791052997724,1.7756590673814845,2.635802984401387,-2.257563305901642
0.8771721512177326,2.8536285676294577,3.253213823156507,-1.5384440285482845,-0.7250523849045876,2.4159711153232237,-2.258077877989487,1.5259292127373811,0.9078946713614515
0.899511428316632,2.462192506375463,2.737255390944027,-0.07986808863093797,2.221831232057955,-2.0946457263431273,2.5576747268905233,0.5103521376273226,-1.481708093005526
0.9944469870773812,2.4297648157245413,2.443332673635496,1.6921066268140263,-1.863069668780176,3.011316966645821,2.9843396529069652,2.0190009761306076,1.4116531350350279
0.9579612232527664,2.397947799841013,2.5031783559033403,-1.5129407762498301,0.29098682821016286,-0.060598516117012835,2.823409513253422,0.6598401227623891,-1.0981473660225949
0.9733684005179414,2.876153297801319,2.9548455613217794,0.22230207522601297,0.6932592978267031,-2.8669025979582514,-1.6444634349310736,1.5099963554889388,-2.269811265862137
0.9785576774377931,2.5872903332120067,2.643983479835792,-2.883111796464156,0.9985382360664463,0.34750170634908084,-0.8066503077318479,-1.845986745857401,0.17205646593320845
0.9969683940992302,3.12746788540857,3.1369779663218558,-1.7420983256854725,0.07788631346643138,1.1632336646531645,-0.7173423959766918,2.8749291038964246,-1.2581798792954757
0.9601745329595865,2.6960135084768035,2.8078369254043505,0.6376964378155443,1.7709855299811617,0.7235482653781329,-2.6074631869522733,2.965372676562472,2.5237420640466386
0.9295188654393853,2.398216591087181,2.580062309927986,-2.4201194443087135,-2.045601801366158,-0.500562785571232,-1.0247979180461164,2.8309933285065245,-0.8874478627578846
0.9516870621348946,2.5042438051333944,2.6313731737780377,-0.6709463889042953,2.3870869926593556,1.1074068847098575,-1.3878533158651323,1.1541784156631483,1.8545143840508045
0.8979782713437509,2.7452747853579864,3.057172843670157,-0.6389867223265706,1.446923924987403,-1.3379632534301542,1.5940874592088852,-2.11127262132592,2.18880990385785
0.9241550077747873,3.0857045655850293,3.3389469727755916,2.4250016010807167,-0.706095405504569,0.47272615187748457,1.4676011118161565,-2.3067359212205725,-0.810013527324335
0.9804262175963291,3.3353493129833587,3.4019381092852643,0.4376287967022203,-0.26338937066165746,-0.34981204536248,0.5112721259459367,-1.4037582976173206,2.5491134399904665
0.9951859711209046,3.2422260701270726,3.2579097417091467,1.3068337390644595,-1.1145000203225295,2.048803668417154,0.24257663667165463,-0.5666805338853984,-1.484290073369784
0.9969938961518225,3.094259763979217,3.103589476246926,0.705163563340959,-0.30758788682050486,-0.15201979293108225,2.440839395390465,-0.8432567707668412,1.7921670976313528
0.93790535465437,3.037822972511515,3.2389440548945276,1.0373524978966309,-1.1373141229366444,-0.825826369222681,-2.5546370217036865,3.02783285910947,-2.536768810430745
0.9704251828185408,2.917364275025965,3.0062742874753705,0.35414272957167947,-2.4856431307686595,-0.12799062264176708,1.9044442499531034,2.9107983921290597,-1.936890624864112
0.9304637989331153,2.422705415387721,2.603761068582823,0.514665207406229,-2.231010165349677,2.115819123078669,-0.3956549427957232,2.7215780663229943,0.8203606059151172
0.9297686651366581,3.270099998625073,3.517111429157952,-1.5483570562784683,-0.850539665195865,1.1724875668919887,0.8498218440815322,-0.9453672118130618,-0.018623544551765736
0.9085453611593957,2.4004063309526544,2.642032454922772,-2.0592186574947338,-1.5444031087972696,3.1039712836655813,1.9102948267875846,0.42566014511112105,-2.165262683919514
0.941069010895398,3.069119152944549,3.261311463252177,-1.6498020204025106,1.4313482514069955,-0.9184747951926813,-0.49390868318665815,2.11762714111825,0.9927686891984102
0.9734318065826996,3.034131803336699,3.116943357324876,-0.7241599630247704,2.138345110904221,-1.0188563290775976,0.1455903365293416,1.8952596710545224,1.0581154292930117
0.9165029778285427,2.7475526665350363,2.9978655094441407,0.9826483595583424,-1.9412385093635978,-2.6662238190815644,1.4032163408538114,0.8978769022752404,-2.1298921132323394
0.9968188851258587,2.5703567596391115,2.5785594534704037,-2.579982432528962,0.07978474651589096,-2.53109248192976,-1.749651987615679,1.346218741543682,2.69168571281583
0.9611086519491255,2.893967203682463,3.0110718468858915,-1.156752112352562,-1.6356120320705463,0.8581629724032096,2.335503350018395,-2.276647923564677,3.019524405571339
0.9998336661870175,3.384099312228119,3.384662296013473,-3.003667580842469,-0.0182394311502887,-0.22752022437904929,0.20698760175272302,1.76519071667878,2.397793710121735
0.9282560243858607,2.6834491840479995,2.8908502757344174,1.7723446895870678,-1.2451119232203594,2.539252253380422,1.8788458482388428,-0.0136643159833163,-0.8384397317335806
0.9298745206501323,2.9426724892975176,3.1645909463570576,-0.3084040412113138,0.6475117888182784,-2.2444247294026014,2.0486579163699252,2.207198750190898,-1.8513091882359167
0.8989827609157656,2.6900954199639506,2.9923770921075667,1.4863125972800093,2.622060962624704,2.5342877582753722,0.20766905085561982,-0.7580627826650477,-0.8383802961145861
0.9461263600157148,2.473115626943014,2.613937980654018,2.9507927695119713,1.8271502863771403,-1.2835955097791312,2.150857356051045,2.0006252344865736,1.3960425431061987
0.9752900212622261,2.401863004107189,2.4627166809301335,0.738015906254883,-2.5412961887172045,2.341523121213336,-0.9857563709459072,-0.9069799335762698,-1.821614533424542
0.88878876996481,2.878031657688715,3.2381503400438616,0.7470697064480292,-1.5007769244913252,1.4177673412543257,0.4302888225893837,-1.7135661989238136,-0.11544046229915006
0.9067583848906788,2.4400445731972438,2.6909534158776176,-2.2193436012102024,2.1088471715756105,2.993153641970914,1.105603069186314,0.5108543298009103,-2.3278665903765323
0.973188910316127,2.3991313950243343,2.465226812176692,-0.47292234483056994,-2.124853128285955,0.8481252677685718,1.4853907917472986,2.1332959474597253,2.7921202174651416
0.9753167767766993,2.412160565730061,2.473207293431322,0.35641169597988887,1.4321051858814817,-3.0837230955296655,0.19065129813557524,-1.835430657563721,-2.6364206420928236
0.9276201303373787,2.5233835443471557,2.720276826495122,-1.4018958312356968,1.8235127118108245,-2.7604252970135525,1.6893318680237597,0.6451760404227826,2.5008594382755085
0.9859952766478053,2.7362833709982035,2.775148558825801,-2.388184130572539,-1.2837880623073326,-0.584454298730182,2.948195361415622,3.0148097179600306,1.8332348006162933
0.999820406495732,3.243822274307833,3.244404948361774,-1.902190497708827,-0.018952513298407414,2.3271091174972964,-0.12250624758290796,1.5058445776143436,-2.7756110383070207
0.8849405415816802,2.4346656343741415,2.751219454837714,0.3437632293835371,-1.7860267410071318,-1.002234512668474,-0.06289729707469638,-0.34139101897193935,-1.8646346195724282
0.9167791610450643,2.408921102208244,2.627591468661048,-0.41499842972899614,0.6334385976976002,1.956696380211718,-2.942609514422523,0.8481958915995231,-2.431639407788373
0.9348782026618491,2.5944734624427186,2.775199437804365,-2.077702890631232,0.8758041996753585,3.0218350445087356,0.1228785382706099,-0.033636982970996154,1.6098499451578965
0.9732012385264935,2.5630815648559957,2.6336604017651184,1.7931442066094778,1.730897134806387,2.7804917333083923,2.2347260174259427,2.2702547030383293,-2.470409874954572
0.909455504393468,2.457477981905969,2.702142072959253,-1.8301645094211068,-0.787343906989296,0.41520537596316753,1.5532837167779983,-2.785680371628498,0.5570985523225493
0.9970223073083586,2.978556091808762,2.987451805215784,-2.7691622865896783,0.07719030563254359,-1.1130397163573376,-2.9563418924094194,1.641296168701273,-1.415090316355635
0.9644404487154308,2.91282261900568,3.020220297567737,2.464841114960044,-0.7990095400861246,1.4448160111001984,0.848276079182662,-1.9213280118153149,1.2095662723434382
0.9236333441182353,2.4034112148662854,2.6021269480702314,-0.23292519964201475,-1.3246414136125806,-0.5926265416741745,-0.5638066423153552,1.2879681198670632,0.6167041901919368
0.9718931085433585,3.021428552401598,3.1088074664198575,2.2343300361825182,0.3001294527780676,0.2525888414987021,2.523246186157043,0.3010415849755663,-0.9971367143057601
0.9852410660118496,2.877681367871103,2.920789101412154,2.5286311244669912,-2.9695729924542524,0.21652748252103482,0.06700871568689681,-0.8628856915801966,-1.1497833278899814
0.9721258479105171,3.0563651834328085,3.144001561116954,1.985818704602826,-2.1897968095614404,-1.9000477838873535,-0.5546502286197454,-2.8013825385674687,0.5380737244615887
0.9919804465721752,2.609420664997416,2.6305162304502723,-1.0844648953577747,3.0148622682612114,-3.102986070045834,0.6816081218253234,-0.9071960065876872,2.9912060870017454
0.9551626807836983,2.606245411641505,2.728587982000213,0.04977311064906331,2.3947812818262717,-0.8847721560947983,-2.9124883906217613,-1.0502527134595665,-2.956119050455409
0.9612726066181622,2.401603060529761,2.4983579517352545,1.5051554487356178,-2.8623795594617456,3.022971634920231,2.1088321167126702,0.4593842555443479,-1.6594914941986174
0.903716715898964,2.478919339513654,2.7430269861145278,-0.42118639148812864,-0.9510882178633508,-0.5114420151774461,0.9799148007251421,2.086955278598338,1.040047777745829
0.9940568016487993,2.8094837490654356,2.8262808970327105,0.5718212987493945,-0.4813860127233278,0.21821889130205463,1.214174243590655,-0.24659936296970209,-2.9529340845465577
0.9920311186059524,2.7010498003098267,2.7227470486061622,0.5336617553464569,-1.1706747368612138,1.6006434596561716,2.378039698831116,1.4053154198390514,0.35996405179537083
0.9651914313721365,2.9143475728966415,3.0194503164554036,3.0696058712291885,-0.2646220086488511,2.4427253784951484,0.45647284659329035,-1.7927560754295675,2.789753577228792
0.9999625040548736,2.4043787859190395,2.4044689437546127,-2.7964643152425026,-3.1329328407219217,-1.2991944707431904,2.3958337659112487,2.279410849026748,-0.9334190391182453
0.974879802175243,2.6793892555805936,2.748430370187268,2.717147952612983,2.916977076227952,-1.4706841331210003,-0.7062030797939327,-2.996933655920065,2.849251543765301
0.9779947935614737,2.518360691024007,2.5750246398072574,1.1651685873715616,2.4546298547343346,-3.124331014331553,2.367370184868264,-3.061486393256287,0.5427957921560296
0.9980395627844683,2.871324238058523,2.8769643460302388,-2.5899798875824724,-0.06262712037063922,-1.403008424124238,1.4262413260693405,-1.0473828974956154,-1.8139781437918796
0.9998781502167515,2.9046820936239177,2.905036071639576,-1.838957291026199,0.015611038267232757,-2.1207446095103837,0.7213666219043633,1.9272574102920519,0.31706532770630913
0.9182860154301883,2.5352540246598583,2.760854441926975,-0.05941089443685055,1.9440639985540678,2.6053821401860304,-1.6790783343476394,0.10326201046122074,-2.5892637556516322
0.9543578290150765,3.274336408851755,3.4309315744084796,2.1842052782711834,-0.5623302959092613,-1.8929683175672545,-2.490097351184833,-1.9262869113256336,-0.8438460806182144
0.8873300034273333,2.4414727392658637,2.751482233031248,0.48432382793684603,-1.9433303088510796,2.191404567429772,-0.1482235624172601,-2.6250775797722508,-1.0066139096949023
0.9976669817453441,3.3372755060105397,3.345079637868966,-2.747295492078141,3.0732709735486416,-2.9925030245406483,-2.1623826080589303,1.7815789137354576,0.017288652574339647
0.9829946872294056,3.363210148163546,3.4213919890481153,1.4424402161173955,1.831452121186076,-1.7379129811096705,1.2609988164654844,-0.2572128710496422,-2.777546024937918
0.931512613295857,2.7463726131624155,2.9482935324356605,1.746271033141837,-0.9769527620444358,-0.6984489043656072,3.1373403162217155,1.4217598952954669,-1.759226870143424
0.9835838732944675,2.4056100270535414,2.4457599319883774,-2.2649744018689453,-1.2547395420199268,-2.9895822212723133,0.7690463459218289,-0.27114928185896403,-0.030847740153967074
0.9546693268617523,2.6695365934709985,2.796294505707503,1.105688843450328,1.3075250585585607,2.6976814083701663,-0.8696578684642122,1.237324096547047,-1.799023688479177
0.9265245041386625,2.5684135810607236,2.7720946068754357,0.3723112880481998,1.43558650764186,-1.3135268762581678,2.750725746364645,0.9337136925913079,0.7179695736993423
0.9809251077945128,3.350566957073751,3.415721476033049,1.3394327561873816,-1.206597122939056,-1.4449680891059558,-2.106353605369515,-2.78607936794584,2.2554833418003293
0.9819298603720714,2.765775905934766,2.816673591010627,-1.2250068976619504,1.6751957062679743,0.6942083030768775,-1.2008835587705957,2.3938387902059706,2.392131237615729
0.9945155174046872,3.384222941278214,3.402886010375954,1.674009932410888,2.6662930544655126,-1.5563007940060543,-2.6835504689426553,-3.1207821016194854,-1.8934979049365441
0.8712562758170386,2.829267969483326,3.2473430011509774,-0.9447474143824244,-1.5349008354834566,0.85682260664916,2.3634960666775156,-2.0375576564267974,-0.5014385026996182
0.9540708299064623,2.3981249968491527,2.513571237770959,-2.6761019850109733,0.3042535858675741,1.0724727358253316,-2.449317630002183,-0.45665478828328165,-0.5471292853032899
0.9415991654351079,2.6297637524061557,2.7928696720870136,0.4461137491624929,-1.3708924079316778,1.6943233432632585,-2.27319955755974,-0.9637306277068141,0.03754078547019857
0.9544414302752411,2.4309056615450655,2.546940634004166,2.8245927531619577,0.9884159844014242,-0.7559183013495478,-0.9669956468053496,-0.09473556466686084,-2.6847239796090965
0.9968667729241496,3.1727487088152335,3.1827208961017743,1.4659937515603305,1.6233540908059814,-1.0631204668222307,2.7671469464755214,-0.6359059898089776,-0.2690668119934001
0.9305271605853116,2.610898886255986,2.805827703743438,2.9329914654331093,1.9717103054041631,2.773735507496684,1.4594683613439372,2.3672510508495392,-2.0310596669323133
0.9424499428543273,2.7389271336466794,2.906177834073072,0.7711333289689968,2.8006800840530586,1.766840597624884,0.9021416684276273,-0.0865993477826299,-0.6096480114702909
0.9737724594888157,2.407484347104032,2.4723274145254086,-3.047030876162123,1.4253679713654899,0.44601946246790414,-2.299135596758606,-2.855037551909772,2.234196712248904
0.9204003225746309,2.4704270926757084,2.684078907931275,-1.5567668432581048,0.8610100636048488,-0.259541649346116,0.0406769490017429,2.0407172486709753,-0.7995135051645939
0.9531437775433852,2.483970510933132,2.6060816525868433,0.9922392358057399,-2.834259667335284,-0.8344334079463032,-2.8766128900288934,-0.667815959809122,-1.9549888319882627
0.8996749904090892,2.4118675515999906,2.680820937907028,-1.3527989314944928,-2.066994139525738,3.1364038704034005,3.103720008448329,-0.917640416187326,2.880482732581494
0.9262154614499826,2.4510137457017733,2.6462673618779067,-1.3678054636728076,1.4558839276769024,0.19410157936961436,-1.9078076202307759,-0.9564345108361696,-2.5850459193902555
0.9985535840373683,3.333148220589535,3.337976322825757,3.052594382966233,0.2624929808655154,0.1256053284277745,1.4908662826327692,-0.012654588058099936,-2.7927083111950837
0.9350586533623423,2.5338317044983665,2.709810443855106,0.37186152183774235,1.7490518073461239,-1.453057808200429,-1.5350339908550816,-0.8151515431578935,-2.115243331936987
0.9837043117753557,3.0024702878643077,3.0522081197809867,0.974472276568692,1.062703955574877,-1.7779440192801497,2.6876767382503113,-1.542165909947735,2.0834678034982224
0.9153689665093618,3.231231532442546,3.5299771465537213,-1.1310388619165632,1.686040679269854,1.7057067117312297,-1.1528204637634565,-0.2911297595205098,1.6025309481209993
0.9912179669668754,3.253242570070711,3.2820657801690434,1.4899621186068153,-1.5599490730892354,-1.166841345853482,-2.3176271580401133,-0.2748165629901882,1.0223698802479353
0.937815404693752,2.3981392168581164,2.5571548567612195,1.7237033123595804,1.9130722127676005,0.06547352848288535,2.851440252571437,0.013157845042248706,-2.3445541431263566
0.9179467957205274,2.938812424670889,3.201506272881661,-1.3583010000161766,0.8000984074282416,2.1932257464865303,0.561174529527229,-1.6187666911545353,-2.2504732942307353
0.9859167945089791,2.9204739321952338,2.962191077848239,3.1186877163243487,2.665511410810481,2.443136385307506,-2.9013970003196565,2.312238045169705,0.06034643497876324
0.8990696010849931,2.852013028920872,3.1721826936191317,-3.0585894722615445,-2.55224471488212,0.7863895856103551,-0.945877033300659,-2.133138827389682,1.8425715551580675
0.9283057658882755,2.5410369392586802,2.737284451559145,-2.923461916015919,1.216757799462914,3.082725097286655,1.9131685181549534,-0.049064155551056476,-1.9027856504979994
0.9869807768658335,3.0531716148637407,3.0934458769897373,1.763719923853941,1.8951662271115328,2.2739675820719336,-2.4294240792615414,0.3720037422462883,1.1468081441484381
0.982192942940238,2.9577858911462878,3.0114102452131504,-2.8772927615776256,-0.5848152152520729,0.23449628615524754,2.407933376557007,-2.7590058907369883,1.5325224779063138
0.9668207469152149,2.523523484818268,2.6101254993440555,0.21537490050438812,-1.82943052523185,0.7816266092265658,-0.20763887019728688,-1.7522536622741283,0.16744639007112916
0.9825120697534627,3.39060619023613,3.4509562728190395,1.5911017862619499,-2.9543006859187844,1.5653513731646624,2.752437933956008,0.15642719295534802,1.4394869393902354
0.8868930658667527,2.3991048094897214,2.7050665991452956,0.041408618874216874,-1.5065756963413077,1.4228949458629065,-0.514355462490101,-0.2193884382487492,1.5574378027289884
0.9825076286041944,2.4668805882221703,2.5108004420553556,-1.982364607919189,-1.978411678969785,-3.0502186387027486,-1.1790234382431177,1.5210967884669637,2.188906526764276
0.9795454336249734,2.4901186384810687,2.5421165297723496,2.1061354162183177,-2.5029984873708413,0.7427366923154244,-0.8967684868380079,0.8546858412221368,-1.7851986870830219
0.9981069699730363,3.383240060929125,3.3896567830004463,-0.6747795748893219,-3.0800519745376955,2.3818443109775815,1.9400913856615105,0.36421628358004243,-0.1475390416905098
0.9949182824579759,3.3685977116237473,3.3858034081970274,-1.835461032223298,0.6250378813430277,1.7307445274542284,-0.24968650764482048,-1.2023658103756163,-3.0760974484957786
0.9892709304760507,3.11180413553309,3.1455529922785126,-2.397723015587692,-2.3074196263592697,1.1046257859400956,-2.990159048602391,2.373715433773305,1.2063790113278046
0.9996746494875535,2.4397904803392776,2.4405845257654044,2.6856525408977756,3.1160831198372225,1.3035965939545067,0.15850281988791437,0.9427370364551635,-1.9241695004382384
0.999999863661345,2.4259418845090326,2.4259422152587313,2.7815272531745086,-3.1410704684541297,-1.7769181847901805,-0.37301213566740987,-1.9625282256587575,0.39560114536900803
0.9496253160826781,2.5418539421832462,2.676691426749982,0.4245290080027355,1.8414462712810096,1.782058086279898,-2.145578107611364,0.15283451133127812,0.5930888937981469
0.9640029349788771,2.8911194860363136,2.9990774728291285,1.39147760352144,0.8543908628424903,2.512682413478605,-0.018187505664571724,-1.3204040350940964,2.111526935704715
0.9935814444817271,2.4557660566738737,2.471630353317289,2.407414482779142,-0.7188308438751347,-0.43897279538632983,0.09690568122381027,2.191692491961038,0.8265831901782232
0.9625911113038585,2.7546775722427164,2.861731777796517,0.9018794132569896,-1.794541076337044,-0.9629910409384568,-0.2967086027594168,0.6018077821639469,-1.55330990820615
0.9064054897533345,3.1308633237857704,3.4541530906192888,1.7138899769558966,2.566574313806478,1.1213582095144368,-1.7768639687412722,1.6525624163876875,2.204115492489435
0.9962086821357493,3.028693269758901,3.040219709053081,-2.306658385601578,-2.12262022392555,-1.6667582930328015,1.5926367595501798,-1.8148560569711638,-0.7738549551918665
0.8710666797906279,2.7476313925051197,3.1543295780359184,-2.429990802665616,0.5421747469367522,1.435284408861822,-2.481352694907759,-3.1408610384575297,0.7501928305752315
0.934238169892487,2.5269107618406674,2.7047821886055745,0.3152998385982104,-0.9745485661144793,-2.6655427558898634,1.0600345112890555,3.0505341385918205,-0.4863434366139021
0.9931445163368928,2.401602118244925,2.4181799111200624,1.303680077744679,0.11716083780066411,0.3208957150629237,-2.1867140660479296,-1.7909930071696765,1.4965198130340482
0.9112157909262036,2.956035072600851,3.244056020579049,2.4060598285275505,0.9387574627950022,0.540531087701345,-2.3177521887983588,-0.28969532846395873,-0.6651051915049129
0.9792260292066746,2.591350713151917,2.6463253997152365,2.379558961470172,2.230686387128576,-2.0478402825810385,-1.3620158145067265,-0.966486939182873,1.7833611872676665
0.9294908146275692,3.095312269867909,3.330116038971452,-2.061102249749176,-0.37776637744848607,1.4375921095975768,-2.5359245996706963,2.6885063118189008,0.4609422216965311
0.9843741490322284,3.157830807874438,3.207957879612146,2.1877350977832197,2.046623441170939,-1.2983792367966827,-1.4483102204302871,1.9179124505539393,-0.22849143858753695
0.9681045381860602,2.713200211391545,2.802590117463218,2.7287860059680016,-1.1409170053694373,1.108155771995846,0.35285674690520485,-2.6308988853473334,2.9081393262781843
0.9468253718674164,2.796019499880293,2.953046657765122,0.7777967169571238,1.315034708658951,-1.915148564202464,-1.8043748943276294,-1.5150438625298015,-0.4539080679774474
0.9625623249277908,3.3145487664783637,3.4434640548880964,-1.916783632476675,0.6320021262465634,1.6254320573753862,-3.0225821118567424,-2.9981386020165948,-1.2536699604674468
0.9954033782259228,2.8500198958591643,2.8631808553218576,2.0693066346098803,-0.9788460865624389,2.071580765163307,-2.513693901209799,1.7137788662573303,2.7117432327305693
0.8996720522792897,2.39890200946731,2.666418283628763,-0.30099462382021347,-1.4253118660604585,-0.5246830274343321,1.3868995284101437,-3.028958581013777,3.122581958122934
0.9643268243656842,2.6838507984043187,2.783134027376771,-1.8143461251144684,-2.7413495631979314,0.3043329560193815,-1.2285369879058698,-0.2701952103912033,-2.5537372855243126
0.880765997976759,3.2778625335493734,3.7216043092933604,-1.2706979726830778,-2.6482736611944135,-1.6491971680419042,-0.8853953650156852,1.415099696297884,1.557914013030425
0.9941429199679398,2.5225896071936353,2.5374516646710985,2.8711158889504516,2.1156611656921216,-1.447405322034918,-1.284955272539345,1.42875538545014,-1.8748605636706976
0.9638069071339451,2.558899876066405,2.6549922573970326,0.7462995491160518,2.3669679460078257,2.034519078268729,-1.6215424379433634,-2.984972032091621,0.9080095834028521
0.9565221835111261,2.400568303159348,2.5096838782635773,-2.6193908290130956,2.8456312557163654,2.0637789142268117,-0.2745792775554645,-1.8594658088082203,-2.94278356114647
0.9075505650003439,3.1681053919880835,3.4908307197041775,1.0756198893849485,1.598146557972048,-1.779699253305414,-1.2076522114807882,-0.31615348941362376,-1.095898337422784
0.9520573543624843,2.397922231996933,2.51867413345347,-0.6117583020803585,2.830688478960992,-2.208238494984168,-2.177424647595317,0.2770401981183448,-0.5256949032318383
0.9542007821992324,2.4054824350173427,2.5209394918679595,0.40342728218113244,-2.837773147745456,2.0742157507519217,-0.7568299084258094,2.0113425473203463,2.5168432644650203
0.9808470566879033,3.289777061148975,3.354016346093551,-1.8712536045979493,0.20281835184213648,1.5200098534961892,-2.225374028513661,-2.426032212251696,1.9818059987929804
0.9782629175503363,2.4094941353805983,2.463033293150068,-1.7536759832845807,-2.9327085121671685,2.8639844346291046,-2.62203671149201,-0.8211724440939565,0.6261196823446697
0.994343772186376,2.950561278570017,2.9673452593586265,2.033502083497347,3.0351824283002395,-0.34016881717978764,-3.03737971946042,-0.4178614528962381,1.0701015528030347
0.9700803973807827,2.4915063503586574,2.5683503729028287,-1.1190527913191297,2.896358065197739,0.1522724050082953,2.2010819386085307,-3.137172502206929,-0.014137944984029094
0.9178317021655855,2.433980346029058,2.651880884356231,-0.28820528376556487,-1.7956224418743256,-3.0083469543415684,2.1390197148630845,-0.7339470721900416,2.649589702755705
0.9960734543931641,2.4578492273016272,2.4675381282989997,2.1903604937255423,-2.5558520075808,0.2964207904911009,-1.9774627851669475,1.0967512083564985,-2.1048338646628215
0.8999840156232305,3.0455451758511933,3.3839991855212914,-0.24043686275778997,0.6546022618924323,0.5413486223384796,2.4805826579159733,0.10033164915712023,-2.8299190334824376
0.890756574871395,2.7022141598479115,3.0336168556915224,2.8020210054783954,0.4717891616140122,-1.8058421792268362,0.7064013604072978,1.5641302433111823,-2.6007561526328504
0.9834438694129075,3.168920168455514,3.222268465964696,0.9913108765124834,-1.0577403895915443,2.065913015068886,-1.5457128023672222,-2.293402598808297,2.5367315013724268
0.936372289193122,2.9343418730036146,3.13373420686355,-1.6175929076048319,-2.5741532767876216,0.7436961838339222,2.880995110360656,2.7571775605457525,2.213616326723346
0.9987056574612081,2.537185879723179,2.5404741234498602,-1.9916326244194844,3.0907080418561472,-0.06725222463600922,-0.5933499855523565,-2.0484751423475247,0.5164076127127561
0.9548005528071315,2.4738356972931017,2.590944978006117,-0.8952338875277395,-1.8038032467033827,2.999268367443227,-0.46318902588162914,-2.039812225546358,0.6988889797939204
0.9367584912577723,2.739985723870796,2.924964918323672,2.8000431217270076,0.7833023353060291,2.8690693661304767,-1.6430315534616036,0.9104041388690405,0.4618515402591723
0.9737938184348081,2.5030370904099257,2.5703973911367513,2.5729164912676215,2.9121522521246765,-2.4615100529135256,-2.5739005530222254,1.1431697192240042,3.1214625821098743
0.8888366132876245,3.079433454361582,3.464566387484184,1.8844932989744194,-1.506161608072851,2.1105474582194432,-1.9422344558291647,2.7799394052565507,-2.9689913149933367
0.9222547673914141,3.1872678896526248,3.4559516549508023,-2.947564867353925,-0.5138071339138364,2.9495712989057976,1.1034962161481419,0.8655282880005357,-1.2487554611706821
0.999651346068393,2.786826984834692,2.7877989619032895,-1.7282271990248153,1.4065255369803689,0.6686988211953646,1.0174772968918742,-2.7512531799040936,2.0220177529809167
0.8706765385316176,3.1982165879471083,3.6732545858429244,2.0665775833117896,0.6312918595486665,0.7552313278362806,-2.299679772344711,-1.9280710762379338,-2.8374141819875307
0.9740308941754019,2.898833550250945,2.9761207448199563,0.6879261739558586,-1.1534612282007313,-0.827066315688306,-3.106854231246705,0.7751726641625885,3.002480641199919
0.9825980852925502,2.9568917469533194,3.0092586085927087,-1.9381209868422409,-2.642733025450372,0.49597292393651626,-1.226611243653597,-0.004618407164318938,-1.046633904008238
0.9588850081983156,2.427378972843913,2.531459926988331,0.17640816920511604,2.85384323949046,1.9191068730489276,-3.045625345732321,-0.21478837549530594,-2.390959343376438
0.9880312580876303,2.9799340936335215,3.016032204690862,-1.2005564676616636,-0.42353846143164464,0.5020852659453436,2.0026578011145286,-0.5558450679483502,1.596072634373999
0.9046058380683716,3.1034659162336333,3.430738323401212,-1.3745888281380108,1.4175491140243794,-1.0226535943587933,0.9368043265784474,-0.4053861927154747,1.3951926793377902
0.9826505040935154,3.0420328894874813,3.095742460635813,0.5323919002304622,-2.5273229494792697,-2.969453682839814,0.6419021814922958,1.5943661479503692,-0.4134528038599865
0.900730769125119,2.9204288835119163,3.2422883547639136,-1.4266667364878522,1.45304759014288,-0.7957710088434351,2.8145624667715863,-0.30199695200474075,1.729644702218569
0.9918915404737702,2.636142436512736,2.6576922263633795,2.513110480085378,-0.5390228541160456,-0.3422022241945437,-0.5171131229447568,1.9548512589226137,3.1363867958052865
0.8696250273093613,2.413173507149797,2.7749586676641633,2.7144417513179215,-1.1158855920016317,2.1763410230025944,0.05414515658982699,2.7056528440869805,-0.7235018948379066
0.9642578088678212,3.201030063625059,3.319682800789068,-1.7477110894265584,1.7418953373924397,1.0845958537958946,2.1943092821389536,3.019859107744293,1.3650052730787907
0.9871874775960354,3.37442536353103,3.4182214018236063,1.8629130282090225,2.9813429959114437,1.7262352204874034,-1.7834351951054612,-1.0990226199702038,1.9981293258830322
0.9673978511741396,2.6611686914539674,2.750852390486585,-2.468406384189377,0.9000104797655863,-1.824935184397746,-1.0129386420019886,0.7079659990941236,0.34125104297268916
0.8764036000778552,3.234604792585419,3.690770773075411,-1.1273535815110542,0.5024536060259566,-1.5762429987306283,2.348304815217742,-0.23878426752085513,-0.3900119350968416
0.928007387379859,2.5347076495347043,2.7313442586822627,-0.36948344998749993,-1.4142245049047302,1.6831229483573749,0.8794351912520701,0.9357904085433146,-0.9957460698184235
0.9889346429062378,3.268530342032743,3.30510248121891,1.7738526238626378,-2.9926911791423563,2.1569864638506067,-1.3100595555531422,2.021176111293175,0.4718906436746071
0.8708133076504685,3.0419594846969975,3.493239547411688,1.5460792084410055,-0.7671711333697981,-2.2280183015124053,-1.8415917072959573,0.5489656548446047,-1.5520400049405143
0.9329932415364879,2.888892750954932,3.096370501245428,0.8837175904480352,-1.8757699267307861,1.8956428924199615,-0.5673479956980105,0.979683670362264,2.5791957768400504
0.9314347642374976,3.225919819002632,3.4633878215222875,2.9600574573774807,2.756888267471532,-0.4480156598678935,-1.3064135354633681,0.6205146170438138,0.08075363524112511
0.9761255764626741,2.462500540348397,2.5227292468578812,-0.12506866921448045,1.8018467314073447,-0.949836946629723,-1.3667217214443124,3.086197356590736,2.0715633919154595
0.9423486745506023,3.1712663104014553,3.3652791116980176,0.4494823457017185,0.5896679066927422,-0.5384442962292297,0.19143906636891383,-0.0542720484618715,0.7158092245211902
0.9454663292755814,2.4481109421764926,2.5893158395733047,-1.6042835122747652,1.5560693200729308,2.9348106030136494,-0.29038590523759256,-1.1791639225272035,-3.0365607548781184
0.9321513856670693,2.9294824003177338,3.142710985964289,0.7201041982065455,-1.0060149113547698,2.5498882979397237,-2.202472762979982,2.9478425141628763,-0.673200977816089
0.9948510582525583,2.9235674118698554,2.938698599773377,0.756802555983143,-1.1430369228016577,-1.5330981622562034,-1.5169715298492312,0.1810518402733572,-0.7647172946504677
0.9905598994134555,2.683374716036232,2.708947452471224,-1.3316308976240558,0.13751356786048152,-0.7635036331119749,-2.2303979750672296,-0.7160846616230319,-1.4435429641846111
0.9298054391143526,3.134248241480109,3.370864602024168,-2.5366469494883317,2.5202656374942283,0.9929928290306504,1.2402400539157847,-1.738845802236787,-3.0917319930421603
0.9924052645643197,3.13889323874391,3.1629147393952306,-1.0857789631852524,2.151969201595028,1.4426211960686812,0.35999007812511996,0.3201223115588405,2.8670311761414258
0.9625783876470415,2.765011262180036,2.872505031968275,-2.6398036543909145,-2.4503775888286095,-0.18728533711756157,-3.0729039944112637,-1.9609801203462744,0.13596519422629116
0.9709524658754897,2.5333288567842076,2.609117280010152,-2.3834642592295405,-2.3578295305112507,-1.050337086162799,2.246830679068542,0.7497134994092076,-1.780463503100696
0.9579874857901448,2.7954070002193934,2.9179994954879303,2.865560869137882,-2.168626922948688,-0.3132401006702765,-1.4693517551048145,-2.6237942162582417,1.4788260794293313
0.9539690160198743,2.4174223235021786,2.53406796542312,-2.644253178865012,-1.5368672642158099,-0.20826169561972963,1.5845141608096425,2.241601653607227,0.7159863214670255
0.9755183922366162,3.350662339015789,3.4347505548650603,-2.1496617731065144,-2.8251609685959487,1.1535088460590845,-2.1927597423918446,-0.5849678340412643,2.0384585642551807
0.9831441013556017,2.7985933510879057,2.84657492958467,2.6658391554133303,0.18386661582537034,-1.7439757987898463,0.33678135545845267,2.6299315180239438,2.466147315984827
0.9742472897217809,3.208231893280451,3.2930365084173205,2.1658786525199343,-2.229196605460919,1.8341974099083265,-2.742086386339747,0.34938916604692194,1.876654449934926
0.9014129882171306,3.124083155427447,3.4657623045863235,1.5228145300194686,0.8296582890034889,-2.1199394516028924,1.3420274146113025,0.5332406159145076,1.6902061801064407
0.9262902575637343,2.834253043202535,3.0597893263575875,-0.6596351215366627,-1.3825948644806554,1.3647834805423944,1.1741439175482569,1.772186619020479,1.619015582221376
0.9142494560245541,3.2176554960450945,3.519450271303938,-0.5748670341529758,-0.47853889621859613,0.875528490102794,-2.512595619293149,2.227775018059943,0.744667811868819
0.9999312148506768,3.1227638646804436,3.122978679235228,0.8683337930007955,3.129863549795921,-1.6892071323854918,2.715814031143484,0.12521795518709355,0.9854812048135653
0.9713076652938835,2.66254819339799,2.74119961010747,-0.20672992788308298,0.9972466322031677,0.9281283577955088,0.5213154416201125,1.942394635765563,3.0943958081015577
0.9932300607891288,2.8063963751904115,2.8255250077315504,1.1348786935661543,2.0179369663366504,-0.9163322490147103,-0.22547202062118643,-3.0434133296694514,0.7387300241194446
0.9066419894116204,2.936280741751679,3.2386330834481036,-1.0925467976929029,2.3831515624625634,-0.4806458060103882,-2.8058913874122644,0.7421366333838573,-1.190686450083388
0.9108861934184977,2.5371947498744505,2.7854135546313645,0.6289757040316339,-1.5220318086675342,-2.4481200424009275,1.8112845903284844,-3.094379881863505,-2.0164082064699014
0.9741250305444101,2.625654799460497,2.695398144109997,-2.0746731927637754,2.039139339945068,-0.7609378735437455,-0.7529635955418872,1.876628061017727,-0.9143005861486286
0.9922440457556407,2.4538165823486358,2.472997034192267,2.2860941101074728,-2.2582260411098813,0.7585239911886315,3.1050839214022954,-1.000788525389046,0.0845512083031319
0.9015666042272346,2.7296045577091483,3.027623854866265,0.24634221372915643,1.027595228782669,2.4675914945035027,1.0094613508274488,0.49123135284179176,-2.551266151888548
0.9924644149719831,2.4089866959698205,2.4272776531114473,0.024473604659978054,1.0360300839508731,1.712545448504084,-1.629430075417411,0.053160651820984395,1.6032885010370448
0.8681479509732191,2.8824336167943474,3.320210124971274,1.6029782400479062,-2.274243877774352,-0.7096781502936302,-1.5880185179650776,-0.13126940191394976,0.38244534583113543
0.9871009161988212,3.218640914783169,3.260700969843769,0.8939539306322537,-0.775748458008938,-1.1360357386568727,1.9086664205528363,-1.109962258951827,-2.358714606844573
0.9948775277463452,2.7554457763835156,2.769633145323237,-0.3886930971326872,-2.063445880531403,2.216544269363583,-0.9638772295369415,-0.024859487979329575,1.6644360565910494
0.9029060544223861,2.4158374525191664,2.6756243805061692,-2.9396153373818743,2.0522118811132826,2.2367087853130228,1.917663678098565,-1.3278159065732056,0.1963522105716522
0.8740490290489761,2.7629215680275383,3.161060165050217,-3.0875149017042913,0.9028343935940466,2.6566524715998376,-0.11681649624516366,1.7096998889652095,-0.6970469889977022
0.9956358480676055,3.3235907153550475,3.3381589481793843,0.3797612002177311,3.025486863382649,0.6461582429405723,2.5303804224389754,1.2415918929162375,-0.8248950254564007
0.9177910840050678,2.7563385600983006,3.003230918380855,0.3396917761573355,0.7899565998868003,1.973893225699121,-0.8077152377213528,2.8466174119364016,-0.563361800136394
0.9483491916184018,2.8105889617263577,2.963664635944865,-2.508280855670694,-1.3429989119381442,1.7105017357940593,-1.6297445287620178,0.8909576623319984,-1.8046804493112492
0.9680149217581315,3.220692341094413,3.3271102218599227,-2.5613164376623807,-2.5907352016847867,0.5818747884369944,1.0945065956722102,0.2786426468145371,0.31762564906324986
0.9989284654147821,2.7904026774965462,2.7933958978112567,2.512112327396303,3.095295223762374,1.5787180762248862,0.1999740528958034,0.08885343331695994,-2.2530471650994284
0.9851424380868529,2.406179204913844,2.4424683293378826,2.959034136233125,1.5069561922549868,2.361515659362584,-2.648635481283063,-0.37534866256329424,1.5997548986809447
0.9921177332030044,3.3439277221842243,3.3704948619238104,1.4818733082831788,-0.1561763603498485,-1.7200036675901664,2.749978365381403,1.9291166126173191,3.001136118506447
0.9932364738738386,2.491578770089056,2.508545382321046,-2.26694318200603,-0.8069054192603335,-2.2933729244995003,0.850535405348098,1.0425194086087757,-2.909133692283739
0.9898773924813791,3.1679386337260325,3.2003343624050142,-2.2969000553545795,2.2782698761908735,1.0487725251920939,-0.6448655279535567,-0.2492215896597174,2.0330443294102842
0.9992179840265182,2.5544297622797676,2.55642893053852,1.3417319597453252,-0.03955042147873655,-0.14707184893823477,-0.9629612060107844,-1.3279453441138611,3.1075403957730456
0.9699113699309715,3.106448870851997,3.2028172543982887,-1.310232397143708,-1.3131510057155948,-2.192720196557854,1.0971517564262365,0.9351791258192472,-0.5086181867344268
0.8972157233416679,2.4897841300035624,2.77501170034158,-1.4474022512206355,0.4589885589339442,2.7472065743158725,-2.036755903243809,-1.273394515055793,-1.3170794296472916
0.8704071333113489,2.7744197389396055,3.187496555071524,-1.35172954736362,1.4766262219844872,-0.6595418479499267,-1.1578930399890377,1.6156174670231076,1.987342808338882
0.9731115423417295,3.127772356855751,3.2141971611280766,-2.5453838508469184,2.4230404693104832,0.7855659547928737,0.34472959577497386,2.727678754906715,-1.2911824617315288
0.9445281095967741,2.993523113294145,3.1693319477512443,0.9173284918184796,2.175831574166329,0.6302890228159947,2.09092670167394,-0.7658664354880433,-0.39129116934919095
0.9581450568469139,2.4909634114414017,2.599776926928708,-0.19913361869208712,-0.7727887280150241,-1.6920688585589778,-1.575066102832568,0.01039324931454999,-2.0840505233231355
0.8855351484543161,2.643697238851599,2.985423270285905,0.6132824553644647,-1.4290259405980839,-2.031378097154928,-1.4769366915530218,2.52143782439627,1.347692755830023
0.8962440771644427,2.994395014929082,3.341048595158159,2.9152145172466852,2.442623603274015,-0.5757646446267155,-1.5941003497820216,-2.9788788935101307,-0.9422636369472812
0.8725102511212726,2.4538134693659988,2.8123606183567196,-1.424220048442885,-2.372642544905598,0.3257780170759408,1.6107219242751212,1.559650942598676,-1.0191843118370039
0.9723367914008558,2.811502241386566,2.891490136186254,1.6793202209128442,-2.905831333210573,0.7645439565638203,-1.6758245009891206,3.05868233329874,2.2247356539350607
0.9826547772836444,2.415677026343653,2.458317083667284,2.275108681135923,2.420464512655604,-2.7088781752992115,-0.9517452217758331,0.24217337279955942,-2.7444108933280527
0.9643315182538063,2.967300641456335,3.077054503859283,-1.09354065472737,0.8533206595835123,0.5619947707800717,3.135085862556905,1.1891564583451375,-0.8336103772724162
0.9679743138661818,3.0860156346070724,3.188117277907129,0.9125479911158418,1.2607563766546974,-1.4204101406824488,-0.07139084368608506,-2.1551536499264996,-0.6421496442503156
0.9901183605884899,3.217761421763838,3.249875519782624,-0.9131863527055852,0.1406979523614691,1.3733046512303622,-2.0053350848201434,-0.029823660608303104,1.0848113246762567
0.8896161739726138,2.705509636802029,3.0412100363693657,-1.466338970945501,-0.8316379316909335,2.5194750468241445,-2.113479446343331,-0.34043319041149545,-2.704937509636448
0.942793809352034,2.9445553180903943,3.12322300897811,-0.6045287780572557,-2.3478092659735896,-0.28304463301305294,2.292141719394867,-2.242296639202505,-0.6831281822928776
0.9979341775460853,3.1589481768191248,3.165487511998999,-2.371136836293595,3.077303710272828,1.309931906009279,-1.2528001401898952,0.9811589428020184,-2.878998394644979
0.9974720426539335,2.982560751448876,2.9901196463745463,-2.152723576769416,-0.4306460280822111,2.817246906165085,2.248449453827745,2.490315630499908,2.136100047937499
0.9227115539721905,2.4185793091644094,2.621165085397102,0.8156148152880074,2.7458526545217223,-0.5783382188553268,-0.4621800522172519,-0.8536929742248414,2.5726474968327917
0.9766293452431806,2.8045988468963174,2.8717126518433385,-0.9496781267211718,2.311885844855233,-1.9551335014064404,-0.30791708202980805,-1.2052280591438729,-1.8190507716224917
0.9906452490750318,3.353539739663464,3.3852075127748034,-2.5364091067275125,0.14955734893438954,2.703942887476357,1.2095796362674314,-3.079054461265842,1.5888424104667687
0.9584945694585307,2.4975785724341155,2.605730540387974,1.0687008414605312,1.8126019274958418,-0.4664637936353335,-2.4242980972500647,-2.857577371853169,2.949021270682014
0.9825136756266541,2.9890375352015717,3.042235044000932,2.581589238946872,-0.8879440725980992,-2.2007175191961137,0.5577640873830476,2.314620884258149,2.910262812583693
0.9563969303470042,3.188356930746311,3.333717235572365,1.1198900936818506,1.7369889287323925,1.2474621306223685,1.256230623867916,-3.017461446115321,0.9848893107836965
0.9755238987657071,2.5928174919360094,2.657871831962909,0.32669481455695903,1.9037447773692149,-1.9417493141285502,-1.557991138156591,-1.006072353216307,-1.7963166052406436
0.991748266050587,3.177945307121939,3.204387056583811,-3.07821955637492,0.21197881555419062,-0.5392645767759929,0.4303647184994297,2.625084396794362,-0.3101131457931592
0.8939653077236185,2.453177166039264,2.7441525357242353,2.7313777215013113,-1.8860685102612575,-2.065659889273172,2.258084351481312,1.2476909121197783,-2.092484804413705
0.960075864001732,2.485281397287112,2.588630222332752,2.474219686657376,-0.9293170930940287,-0.2913772534659751,-2.101816643928469,3.114183015248072,-1.8028872950586516
0.8969375088029969,2.537148921401609,2.8286796978616127,0.007015643923458548,-1.1639350965736408,0.49086473856146995,-1.574836678750113,-2.458235519386583,-2.9778392462077834
0.9079662993540125,2.425073590619847,2.670885023315519,0.6661558121596229,2.0037029452549984,2.43416687648555,-2.313489612476477,-2.2753157715294594,-2.3779799192964672
0.965050333517259,2.8475217586840254,2.9506458469433814,0.8941704967090569,-2.876431701425323,-1.3659026929926332,2.3736839836235424,-2.609385836423427,2.2449764094842806
0.9823926967403458,3.1431284282582768,3.1994623318021578,1.689017403194737,-2.8715934316760516,-0.8979341340560625,-1.0035757316080245,2.0215343917322715,1.992408672925583
0.9887602587619564,3.1884231870311712,3.2246676166206867,1.3533526213215046,-2.7937790391822723,-2.2731737384888606,-0.11316651850822801,-2.0575523182892272,-0.4362083723946135
0.9617188222435289,2.8112990378762754,2.923202679259189,2.861901585824202,-0.9664110742716852,-2.6787904703695022,-1.8515722191531652,2.9189758925421785,-2.396253296845977
0.9794287046494381,2.786366052328032,2.844889106374865,2.4968576353525567,-1.8936856820192862,1.5360159155572326,-1.6193890768877461,1.3572531482026724,-2.61519239496094
0.9835013537699454,2.45253640541778,2.4936787285719,0.038299262450419924,-1.9224526453633448,-2.1284996787134824,1.4611986655042344,2.7521762862569688,0.22769548558586727
0.9532294892513571,2.7401621003255663,2.874609033001719,2.3928583715619727,-1.158059145698889,1.8922358496048028,3.109483892638049,0.6814365579853017,-1.0204344187462864
0.9175789391422284,2.5716348299853338,2.8026306187774432,1.130893106236309,-2.019072173439545,-2.909806649779877,2.1578341134459906,-0.72060323041226,-1.2667648380413112
0.8780609955929601,3.2850592584903353,3.741265441670045,-1.8591086066654634,1.565708628619653,-1.785630480623428,2.915784219924121,1.9029991805021282,1.5661401116195055
0.9716016134854862,3.2860189439969134,3.3820641077455353,1.95595516950124,-1.1383197743283082,-1.819795801885226,-1.887497701249505,-3.0570260874073942,2.4140936408865015
0.9959274558701338,3.367038699902522,3.3808071863635565,1.2849997476734378,-0.09028079978724479,1.6881930455021257,0.1628077076811909,1.3310375201073885,1.5944204233371657
0.9987423702786292,2.587395256796528,2.5906533394339686,-0.7290996506335117,-1.0444775552664067,0.04667110654047146,-2.0812820621783157,-1.2974135955134907,0.263887260921976
0.9999689051970295,3.3844493101538644,3.3845545522108083,-1.780981478433428,0.007886059107009569,1.6919144498697927,1.3442793167436013,-2.894390281374704,0.4793330389485564
0.9548042396218903,3.262566066223402,3.416999978461975,1.2304241902553636,-2.155593773843849,-2.0456377928985363,2.654070263709169,-1.694024955901419,0.8696321816945582
0.8582817325093712,2.6220909751180725,3.055046933658748,-1.328617792217757,2.175002261398408,2.812829111721811,-1.9960701194264743,-1.0659665423754792,1.3217781002165676
0.9677091920365058,2.439724614036529,2.5211340701458305,0.9965503184401303,2.886774668308968,-0.3688954315683457,-0.23452679919652564,2.1138400331538296,-2.727845766335218
0.980716723106171,2.6474551234960084,2.69951053257343,0.4136933175011466,-0.9976322534551758,-3.0732404657092953,0.5950265945691995,-2.414212329670331,1.5718360679307457
0.9016933888675405,2.3986948850491667,2.660211236617525,0.19952826106600385,-1.1296901116948517,-2.0682262645687093,0.595677931614536,-0.6730537538797128,-2.6562611590024026
0.9737759821570713,3.3061827630525467,3.3952190479465485,1.9068951528874436,-1.8796319055990567,-1.4819950491100806,2.3419910988928585,1.9933962500961302,-0.7316853553376368
0.9392379321993906,2.6942741329832014,2.8685746610276754,1.3507402839135594,-2.3306714760939906,0.3926191610487715,-2.552633596764869,1.9232933497510443,-0.5321946226351693
0.9310849939783167,2.4978973883072237,2.6827812761048486,2.504449545654527,0.6954932769332967,-1.1510472807131604,0.8488698786760867,2.271647243033458,1.7788034507134025
0.9862712084260149,3.113809225756307,3.1571531229484218,-0.012918239399853704,-2.6311837032339436,-0.3343806936231757,-1.5065529215106461,-2.0585384547803125,-1.5041912504517838
0.9694103861830119,3.2944195040739164,3.3983744666131246,-2.2794400696686514,-0.3492070014285127,-0.6325586787782447,-2.3238552578971534,1.5009946264445908,1.4321028486584817
0.9792537706381719,3.1325420443169465,3.19890730905789,-0.3509896333353364,0.2576284595043181,-2.2554289562057117,-2.0941253972721956,0.09402708228068102,3.0629709165207766
0.9256785260315268,3.1345678324004864,3.3862380343191942,-0.4730044389306327,2.538964538836514,2.362253928996063,0.06693524512651416,-3.127990071089355,-0.13408624194941154
0.9508158599164431,2.5056479608026643,2.635261007344638,-2.901242604735205,-2.4012045928448615,-1.6630859500370192,-0.5849188855025287,-1.3078900912310722,-0.22093465832718362
0.9982197423873924,2.797991512938618,2.802981542167059,-3.0437183256522427,-3.0819137447015823,1.0224275742502007,-1.093634542805069,1.6625602543659062,2.9662207623930676
0.9397324829238616,2.5827654951502943,2.7484050430121756,3.042083039309026,1.971424170285025,-0.2971948047361126,2.594834978206186,-2.966489053583376,2.8344948473436125
0.9596765175208349,2.694421230491924,2.807634844971006,0.5576397494102845,-1.8177102058254284,1.644660452082607,-2.504826811834735,-2.7128514116748432,2.6319965866387225
0.9532848481053207,2.537964562810738,2.6623359931242074,1.880762375886679,1.080029040441862,2.6235030709278266,2.4455240883749605,1.8142002476773484,0.7810396634341199
0.8658354521428412,2.5468416651150148,2.9414846190599846,-0.03557295730995946,0.8244211384120286,-0.9637436019898677,3.0976201640907135,2.12025985127785,2.525850459188921
0.8857011836867061,3.142660749898313,3.5482178501975987,0.6390131040199467,-0.634617962899338,2.1242040959913915,-1.3691991331322118,-0.21504542394838033,1.1769966422726164
0.9557629019815461,2.5654300655292337,2.6841699549233677,2.8348175665263655,-1.8272383151212956,2.4309843357273815,0.6018405306232437,2.1305583267179973,-1.1455398002367927
0.9995843134269907,2.593375796396477,2.5944542762033813,-2.5999811406968183,-0.028834540933503572,-1.6879051949894819,-0.3166410682506151,1.2843813916849385,2.658914383696649
0.8836836769956586,2.4121651281652556,2.729670345803056,1.866709167115367,-0.5726128697673878,-0.36163222324832933,-1.0525609581489856,2.229955927586679,-1.1786365892109252
0.9997951040282276,3.1246371080461257,3.1252774648093364,2.2585785082085357,-0.020243664155200403,0.3013932736232645,-1.9956138252692244,-1.8139361715910884,-0.5977587629381671
0.8961973341296869,2.4433888418024425,2.7263960165372065,-0.20586441652647158,1.6100295727555762,-1.731014327782905,2.702093916383414,-1.0127447884970082,0.3230414389325378
0.8663890665686385,2.6231343554588507,3.0276632712458595,-1.8639720062886183,-1.747662485802013,-0.5339724427140089,0.4846188792764936,-2.5828577479111354,-1.5179439150310479
0.9967951275533548,3.385415693723919,3.3963004033070074,-1.2583531266066996,-2.9350482754299594,1.8239462177698051,0.002026980168090553,-0.02202633739590132,-2.618071109727663
0.9982540611780012,3.391032962405713,3.3969638534744204,-1.7206647767951655,-0.059758443987620424,-1.4124608224925628,-3.0013037198306614,-3.0510258577263025,1.2308282375827693
0.9978783574841286,2.667856823908966,2.673529096908386,-2.6795816055713777,-1.3307902998507988,-0.9659544965017814,0.9464440631312954,0.09884589227895013,1.133494282537466
0.9997018447419526,3.0713270540243722,3.072243059446546,-1.0522373954259532,0.0244200767942635,-2.7320776379536764,-1.1377500932499083,-2.198079047831352,1.551968105527819
0.8980706725978082,2.407770789209827,2.681048232256575,-0.10438662491291817,1.689036133572137,-2.9137566574919163,-0.7916144782017085,0.058632076963442525,-0.09660677858014566
0.9803411205173125,2.8413669701181536,2.8983451888856844,0.3645675363185439,0.4481756518951441,0.40157635082107523,-1.4897939978495927,2.4939111476989764,-1.0693886992896862
0.9844456424941923,3.3634376558171115,3.416580368313179,0.170661316403661,0.17660605089190673,-0.2250519560611206,0.5031723923206148,0.5401764474033013,2.9703019981255974
0.9585108503142722,2.401652688142948,2.505608243616131,1.0786798556434016,1.3681729887399001,-3.0971678810162597,-2.7218518852591336,1.2835465851061354,-2.4557707090996237
0.9522676821156457,2.7761059770621306,2.9152579985645186,-0.7947069847651225,-1.3188437660808674,0.6773702040087182,2.5512998667029327,-0.8823252573623246,0.4438631113233398
0.9960022993734209,2.6955917693809925,2.7064111910954156,-2.8699085600251886,0.0894468229898795,1.8395714061033335,-2.5094027823370855,-2.158762102154918,-0.20108682082352392
0.9811061121663578,3.3351760832815978,3.3994040419514584,1.2985848449916713,1.9003354624427535,-1.6320219404486735,-0.34733003224589076,1.4734407048135507,-2.7368365385201168
0.9990575739630282,3.296474133573682,3.29958374720822,1.8002644519254662,1.272989814357767,-1.3794750934894242,-1.1229926637993275,-2.7995270506563448,-0.47829267907352957
0.950204320494594,3.061504792976551,3.2219436672135915,-1.7758641656021281,0.3169054273287988,-2.026867129605588,-0.08113604938409846,2.1828044165321137,2.200028358967282
0.9957253942893171,2.7689857769447936,2.780872912175864,-0.43637918805276454,-2.6742278791511964,0.40452375150264164,0.5013641906543551,2.926176390633324,-2.006395430955749
0.9274244104149413,2.43473837595685,2.6252688074788946,-0.7845831478489425,2.100676621264771,0.2446231065755038,2.3116514723949813,-1.321736471143377,-0.44866092058268237
0.9971850477055852,3.317980441985872,3.327346764394618,-1.9191180209551393,-2.6343738041462337,1.0169466941141376,-1.595915407614805,-2.5618030063986277,-1.4943126619241989
0.9693252698342308,2.402503466043821,2.47853175895712,-1.2873276559583473,2.893266863812726,0.3372862601174953,-0.03853496844581139,-1.2261356529313143,-1.630442679390935
0.9283595862313155,3.1102321699526896,3.35024511631178,-2.816310994265663,-2.505276353894117,0.36764518758500353,-1.9938876730722623,1.6607138223934879,2.984440832725408
0.8822349252842079,2.4504958433095974,2.777600130169616,-2.932610656990657,1.6076020466156482,1.404840204451431,2.542136930776061,2.274004227382844,2.9428410560444886
0.9185130622052303,2.4392877881252515,2.6556919966590775,1.3844255818382907,-2.3163849523199365,0.06221513078317553,1.7463716148402586,-2.150796893260512,-1.9857718181123556
0.9881955491696875,3.3261425647869394,3.365874869181173,-0.740394417653341,0.19323836906479208,-2.15073841303848,-1.9686368871064552,-3.0425289949787486,-2.9621516887923423
0.960193039270682,2.881758437574948,3.0012282111145043,1.661552353515634,-2.83027712287461,-0.6434775310785747,-2.736491148639911,0.164624081614833,-0.15540782637810224
0.9421054810935179,2.7170711194508423,2.8840413032064007,-2.7701179261896756,2.7996513240777015,1.3673984820156004,-1.0192420919684353,-3.1412781606299895,1.953095101134612
0.9968573672273607,3.3638593085444164,3.3744640097314904,-2.5176870067632446,0.07930044359166288,2.347886919227225,0.8418551929264959,1.6278430401371322,-2.576533604519785
0.967953717659156,3.1064554919017477,3.209301679644583,1.438948271541486,1.9361002392407167,2.1154088542855947,1.3796024610444206,1.1241956722235118,-2.0612190325150443
0.9891702861771574,3.0838151665022284,3.1175776401657163,-2.829955342004655,2.515290040245688,-2.989970585498337,-1.5449967034330725,-2.6311438290293694,2.7215177699192497
0.9592937196824899,3.231585630934306,3.36871342387596,-1.668010011680069,-2.6359539987854292,1.0449476623348994,-2.9086638048525066,0.7409435809033873,-2.4454375398914596
0.9743910492868897,2.9814186408843315,3.059776301379502,2.8819220099020564,0.42767823540973016,2.7930265582155425,1.9181728236747153,2.171178282963595,0.39785772780024375
0.8863131230282066,2.49224714249834,2.811926256922888,-2.345088188966012,0.5253397867719172,1.0095095267551475,2.831828889888497,2.3484382623901894,-1.1988038315351486
0.9249302687197782,2.6129491639896183,2.8250228718390566,-0.6978625647551384,1.0996431961478157,-1.1302043977766907,0.17032283352524935,-1.3144708843765798,2.8934032270503343
0.9348286507422867,2.7875542508172386,2.9818879091947204,-0.9614549806012995,-1.2523277998747664,-0.9992811631465393,-2.2085683012303132,-0.2837055221346696,2.3129325742118665
0.944302049471775,2.427397481875877,2.570573137306774,2.553049513869513,-2.1944676840961694,0.9337102590070083,-2.2146779886365775,2.135449902674389,2.9673628070169533
0.9120460818413954,3.2500222493157853,3.563440832676,1.8285846472350782,1.4402525043028787,1.8679311053445788,-0.1535001405063965,-2.3634640539633724,0.018590426490967094
0.8939497744882736,2.422218421844721,2.7095688046135242,-1.563958701696942,-0.8705315246220526,0.13881715537703432,2.1624523093333536,3.0666970361896,-0.3024082784929427
0.99146211992576,3.3363722291151627,3.3651030756121956,-0.7742111373643299,-0.13076740453232238,1.0171942393422233,0.6050015508676556,1.9321591995708447,-2.0803390949197382
0.9579412690390035,2.4393265787591765,2.5464260258943465,2.479070964500334,0.4207473369548307,2.476460710555643,-1.8992609587968283,-1.754823712637791,-2.670307790426444
0.9850309350733818,2.472332715226521,2.5099036255570386,-2.4412064278040857,-1.1113124457733599,0.8362749485192102,1.499229660329501,2.6874958131423545,1.8278004546706574
0.9994383945491649,3.096507068522536,3.098247060960005,2.6489227214975175,-0.03351590743182653,-0.12103056541683754,-2.2024510665160952,-0.027827292471789722,-1.7582717844585758
0.9918025047951636,2.8229271182441833,2.846259315333349,2.8228671213022603,3.013462098501617,-2.5681772907527822,-0.7784562355310989,1.5139051469273381,-1.2849582721315917
0.9311523026497597,2.5524965807807445,2.7412235071718785,-0.5786013696781294,-1.586509997236591,2.4355888903174865,2.5231502863068505,2.3489163880811974,2.0406335880045976
0.9337920462703355,2.53030247358371,2.7097066029744057,-2.7002243689572456,1.5762407427034484,0.8968278548348732,-1.5890807905589235,0.3330855466945475,-2.1698465692290676
0.9524718609235496,2.3980647688145633,2.517727680153529,1.0849084665457278,-2.3951696774783597,-0.38161596008692467,-0.5817015169157482,1.760376955386831,1.7119668723356387
0.9630287340909877,2.7747936760485854,2.881319713339333,2.800950637503191,2.8688240653093535,-1.277469567977708,-2.8030140545313866,-2.391486548485622,-0.6201061491331101
0.8911211571136028,3.1123363284874235,3.4926073785168286,-1.4207924689238915,0.8814626105171719,0.8886430364434679,-0.6628218267124621,1.0421353943904714,-3.0285308704540745
0.8995894443767084,2.620781459869264,2.9133083722265156,1.5309226007800119,2.6079204192193064,2.6503947641069674,-0.9783247544072693,-2.133910705175867,-0.5246418348029374
0.9670360684530208,2.4998577484575546,2.5850718809864115,-2.420122203514846,1.7521538365907157,-2.891506883855245,0.672385989305595,2.2659244646493795,-0.9390674970908583
0.9389062147169254,3.049709824694373,3.2481517076908926,-1.0203374226378266,2.790234720787031,1.4481908114238813,1.1089513301772858,0.8885589738591628,-0.9664640719721684
0.9178603406650044,2.3990593674094622,2.6137520722066556,-0.3563833256957363,0.4081407776179393,-1.2187578102636973,-0.424143279995429,2.7075155820754837,-0.6515269516984614
0.9809298196284214,3.2760509812276366,3.339740433692405,-1.8611144066330687,-2.270382199647705,-1.4564747858449374,0.5741848522902355,-1.0365330819109726,2.4085305038753146
0.9159585271947674,3.2121427641459155,3.506864851166883,-1.4642518095460322,-2.158709195366459,2.092840815586304,-0.8316602883672082,-0.9087550051813964,2.5823173768932994
0.9730122560682694,2.749650685362066,2.825915776716735,0.47230538527071353,-0.8143664329000431,0.10306086674136505,-1.407688815943578,-3.1364559605789006,-2.4684828122817297
0.9964714777749601,2.754541118885194,2.764294995212367,-0.5360914095134719,-2.634679422150868,0.30251160804105304,2.340643531685216,-1.5584317459447932,0.9428843043154007
0.9870410893286037,3.1517788737962724,3.1931587325712525,-1.5116491379208012,-0.16116449169670366,2.0614381175153467,-0.23925719418763336,-1.3195434645900501,-2.20719947245622
0.9617877082367745,2.549384073264137,2.650672338013001,0.5242941646872548,-2.3570897004512914,2.7296765193433314,2.78390930278814,2.5173973289311338,-2.3059676237479634
0.9837326414177424,2.8655261712012683,2.9129115478688496,-0.35375734127019065,0.1806192426328792,2.6557263552548136,1.0842278226995914,-0.2708043387107324,1.7259429110845463
0.8675458462412233,3.030369099357817,3.4930362614118438,-2.332686823942768,2.6210428182264813,1.484039002509757,-0.31770478273058744,-1.4642255741579309,-1.1631335169185963
0.9821335137405647,2.482070350415617,2.5272229444267476,2.5085474287786704,-0.18931425243666222,-0.6553438836391052,0.04236717489489816,2.000356352249029,-1.5488108044153182
0.9569329904077123,3.3427077962184515,3.493147200196591,1.1474671940430499,0.3039774896570022,1.7697519105978747,0.021926740052744975,2.0758204531602162,1.3284406568183593
0.9808157464977866,3.056228802955343,3.116007072549829,1.6492698672833939,2.045055424228689,0.9502101165423209,-0.23846176938535812,-2.757264141794276,0.3680757466576088
0.9127135161489877,2.438567271462012,2.6717773192962664,-1.566181619278461,0.8457057872838303,-2.958667914340537,-0.980947418194078,-2.1077629596899605,-2.1260017252278196
0.9927288844127541,2.8663835711728685,2.88737803057727,-2.2832921630172383,-0.3494178257356939,3.0865787882285387,-2.3552827752585745,-0.6474308497228436,-1.0195597398075962
0.9527850329200519,2.5974365353933413,2.7261516980727927,-0.9652220735233406,2.6658673115247717,0.1058438973250273,-1.3917939534860164,2.425721891147777,-1.3413796436562007
0.9880231266338959,2.4056976610475154,2.4348596669427227,-2.5292451423940796,-2.9866677840514173,2.270192280531357,0.5524662582118789,-2.8502514891162583,0.9435988799603452
0.9515067992337564,2.4000558241448307,2.522373803400652,-2.549119381728441,-1.226392239634887,-2.6089868361353306,-1.550663551703537,-1.2070209125155493,3.099348959876811
0.9840604279090627,2.505763318192251,2.5463510645545533,2.904955164774968,-1.821291012918101,-0.32537517058022036,0.8135013128169399,-2.510269214396247,-2.405986276753756
0.9107876332259914,2.614563046908102,2.8706615587734454,1.6874851166781353,-1.5850661442115708,0.45454952106598867,2.3613016116995835,1.0892892357447597,-2.708871270330505
0.9092162163308345,2.872626857788822,3.1594540508542424,2.343348791236629,-0.42939878027122846,-1.4857564974924622,-0.01076579186071358,0.4104406067333115,2.057183727749506
0.988591862610632,2.7892639356939295,2.8214514413745606,-2.339124709054189,-1.8904392931491905,-2.524549455312502,2.260936515372774,-0.3362245878499217,-2.788247208747474
0.9645749847208647,2.80782442898759,2.910944689074782,3.124877548163199,0.2669687965660743,-0.8699118605264458,2.7140053843577565,-3.1324192783607017,-2.822593030057843
0.947751186403337,2.6237006943153736,2.7683433499800425,-0.435034288240177,-1.3481895756734634,1.4393037143341827,-0.3081230669174766,-1.3058616484689873,1.4503405469440755
0.9653643660553466,2.4054887652706833,2.491793616849507,-1.5991394871333953,-1.3581137817350515,-3.0559556222898547,1.1455842352812367,-1.892721472769638,-1.0209278516704359
0.9053410380676703,2.419972419589261,2.6729953882951882,2.792076268321204,-1.5043083842327913,0.22092536784916472,2.066379152843867,-2.9842502679611274,-1.6263902873062364
0.9603012601517267,2.7243429920960343,2.8369670072760194,1.6961402674553714,-2.2657408125834406,2.6495827603484576,1.3326300109248859,1.867109465810235,2.0206236856138133
0.9951609960330203,2.5197699397371474,2.532022406205256,2.2676821481542175,-0.09841658062259029,2.776486072909883,-1.143254110447742,1.46781514426395,-2.1420676847423987
0.9172990107314465,3.1097366677626774,3.3901014079182312,-2.403102264661007,2.547187372804025,1.266722786796799,2.4894442351708763,-0.29157504171155413,0.4564555790477436
0.9898445009338792,3.194722990703843,3.227499862543812,-2.2288161579156753,0.7001713529200271,2.396039335229074,1.6022878203892414,-1.7073464850368323,-2.898624698327762
0.9973605109693716,3.388115669442131,3.3970822307262756,1.6761974636410448,0.3788806805342033,-1.623104655508711,1.8826796572464186,-2.8464800683087885,-0.9426799122492788
0.934645396966329,2.5677274318569157,2.7472744638675186,1.5399119363004905,2.7780568315319405,2.7197171890748635,-1.691848639065299,-2.1686499623041406,-2.1898723705873744
0.895202622292032,3.1266782933393116,3.4927045737800912,-0.7738017583375796,2.613242545624251,-1.304526751830415,-2.3573422028322684,2.6920302182152733,-0.18078648006089715
0.9364864996761334,2.425765010275993,2.590282947073876,0.9265498006234054,0.35832234870853163,-2.3715500510392302,-1.7941154582389263,2.4621148712611785,1.4026219779430829
0.8794692425318711,3.024812917900899,3.439361800979962,0.638004402092863,2.5837794017516567,-1.8676694745282614,-1.037971529970882,2.257234090019624,0.06181278355398456
0.9935121446322582,3.1154448043137952,3.135789352093885,-2.8642659448499552,3.0276199997796915,0.8626821580748247,0.3935143313814491,-2.2372989153488665,1.2941734298359169
0.9571677638667764,3.356610501549486,3.506815239984071,-2.163302842117874,-0.35477456898881155,-0.9526086210386411,-0.794176226266337,-0.3579943174223539,-0.08259684269505918
0.9993511298380167,3.3122359172930893,3.314386523813672,-3.1381473709515983,-0.28248504263687346,-0.1285145113547821,-0.6175073600063978,1.438038472861935,2.4125370062925473
0.984840955257587,2.9429221421448477,2.98822071364317,1.348836133192794,-1.5754154567802445,-0.8184688134965423,0.4932874703617087,0.9408920589045717,0.7443505692503329
0.9408689189811265,3.244137553030619,3.4480228728819293,-1.129759657441896,2.439609578671673,-1.5489062827336708,1.1558424072645739,-0.5906211925455822,0.931427271372951
0.9489662131128259,3.1066136304493557,3.273682021047887,0.6819959008315171,0.5779788253193976,2.800348222401805,0.664835807661472,1.3451120248255837,2.9155346242488056
0.9834077912207086,2.9428975015646377,2.9925505246522457,1.318893608557226,1.8779573616029328,-0.899571635696208,0.5054042293770982,1.5209077384470753,0.1111325994604031
0.9972222829950341,3.0044811854687636,3.0128500302311485,1.903417385784362,-3.06704060586053,2.6174907945955104,0.8143047185176453,1.0546807979734583,0.6349868652215687
0.9574339504480117,2.951666392060743,3.0828929668512077,2.053323063532485,2.088715425519135,2.4937129396875495,-0.2913807228948677,-0.12217186824905202,-2.4805764232288343
0.9616262224123092,2.483486095615059,2.5825898230864106,1.812265487020146,2.8636655232417567,-0.04096497883665684,1.4530357023365852,-0.11794019367415132,-1.19021426702813
0.8908939051771022,2.728614605524961,3.0627828854464276,-0.6775553842044792,0.4714869023718071,-1.4556509940928157,-1.8380346496317173,1.485266469622771,1.836100047550869
0.9815805246829488,2.7644911277547193,2.816367132638101,-0.5882073837259978,-1.0042964457784773,0.25895659790456094,2.416265698142692,2.8389724815867625,0.4062225988078292
0.8876680025022866,3.2687715064350082,3.682425746135406,-1.1390874355363119,-2.4837557207539938,-0.9314162987812171,3.1367935097008948,-1.0293326411422066,-0.895109287498463
0.9876829717387836,2.6870005328979683,2.720509120621561,-2.7747063182359835,-2.984478704464795,1.4053915559701364,-2.987674553896489,-0.9165645834883809,0.6879045950545066
0.9775667871931552,2.60228856190526,2.6620059069080053,1.5994219537866892,-0.21221495257709888,-0.4631701753347919,2.5589868639532414,-0.8532379844136422,-0.15772882147678047
0.9686885034035362,2.6717727534080287,2.7581340585963594,0.5872890566651408,-2.815298807137026,2.718371475839783,-1.3753657154054817,-0.9850616187906707,2.648496901412991
0.9755830723104606,3.3456850137391503,3.429420936769237,-1.1707568515324522,-2.920156684586531,-1.3964368010709158,-2.701120646494968,2.486141272425759,0.17260147039781293
0.934477783279568,2.6491710275392273,2.834921359223662,-2.8890445518539805,-2.111736779669013,-0.10518666880171601,3.047639283551394,-0.18075471459046843,1.9364305352433862
0.9883509818947811,2.5421423338265057,2.5721048295545073,-0.7032915320590774,-0.15278550474116281,2.642151479586042,-2.7455641899224763,-0.4286568881387969,2.278144437799024
0.9898784205342668,2.4100363496187476,2.434679148089701,-1.0106833739463954,-2.559414388975801,-2.764544232814531,0.9727476162182187,2.751436542483611,-2.743301060255351
0.9886826341620162,3.2440385062529162,3.281172738512279,0.7978422768737734,2.731047463776356,-2.6220226172742587,0.40171231335897684,-2.0618996141902723,-1.1135740460995813
0.9287184578761872,2.4167421628563117,2.6022333704694187,-2.8882303936236493,1.6760398181812484,-3.0443379357379974,-2.5942242997164033,2.9180211679884875,-2.1352387196285605
0.9615786665823723,3.3556746434287343,3.4897557111530144,2.113948622892204,0.31049562666592134,1.1803488486782499,-0.5733773840852003,-2.306829704206248,1.3604877500705719
0.9040391867872196,2.6932693921761817,2.9791511601920044,-0.644346308598954,-1.5344382190449042,0.9683100200643517,1.347004568863225,1.1265952558144905,0.393779786156109
0.9623163809939601,2.8512164063175676,2.962867995006585,3.043403478152209,-0.6293653733899274,0.7751356169190391,-2.939644988723919,0.6551481080020505,1.0184520550247784
0.9810715997556818,2.7189631350725034,2.7714217145309394,0.4845791215710258,0.19487646116255997,-2.636741939097279,-1.1456250150755989,-2.079767862509895,0.6854638555205685
0.9410053690054364,2.4469596912581024,2.6003674068771074,3.1277921679726832,1.3330896423139658,-2.551241890942676,1.2763606031749957,-2.8488077852438543,-2.6201556828910544
0.9912289329857084,3.3699392642596258,3.399758776319147,1.4031052718279078,-1.2416662116324109,-1.5128107089238008,1.758804440470409,0.30101059043102163,2.9727217223352467
0.9668082532261205,2.398215027872625,2.480548774661445,2.0584704621127026,1.9153140281815677,-2.94672773595878,-0.7432888487924498,1.8616995546467,0.6847292739009521
0.9798838175967279,2.6269248053723606,2.680853340159429,-2.016764515704348,2.0698470975388306,2.41216214745869,1.6243396983251719,0.4916975093559244,-2.4526729310118354
0.9506096783292249,2.6198670619776627,2.7559861020795577,2.871411987012478,2.008991813623611,2.115196268483852,-2.3841162018086997,-1.5902347480267447,0.5101844808263638
0.9449988786780472,2.536038701123139,2.6836420215342343,3.057761855892741,1.943327492158291,-0.6170024531322471,2.107007605466926,0.6353535630815097,1.9404395857490293
0.8988117143316898,2.5034070786652274,2.785240822686242,2.988696156786405,-2.6878473535583343,-1.4014158115880284,0.138084608076543,0.5809882889614242,2.253100752136339
0.975911887802588,2.528153438503709,2.5905550184414965,0.9749511474614785,-2.3351772832069635,-0.8127730391605041,-1.0240403010575005,-0.7299979237500254,0.8503359204352852
0.9493604930434669,2.736291412130753,2.882246978024891,0.6042060082586311,1.228970194358812,2.5377011505443416,1.5770757593678395,-0.9315526866882382,2.043985422692397
0.9380300351299768,2.4040791048111827,2.5629020551330903,0.050559548217611106,1.6499785132996045,1.2688531838416965,2.383171536797998,-0.22146169420262485,-0.10985725306299354
0.9018486021923099,2.4991625871846095,2.771155359235883,3.1131535748620074,2.018831286647152,2.24846629368389,-0.871403749563957,-0.9332661075079884,-2.7847574947606732
0.9723864852188009,2.5127593719872543,2.5841158944345546,-1.926724231714532,0.4884051162915455,3.135764004666422,2.0470189861109915,-2.258736032934501,-2.3900687298071075
0.9815777461661941,3.262532892738454,3.3237641190227882,-3.1008378217221746,2.9493475152789443,0.3900829729811268,-1.4796074150142973,-1.0842393425869306,-2.0401608469839863
0.9103928730180442,2.5287781229262802,2.7776778552133496,1.1956756981372099,-2.457295970842205,0.05525401011512843,2.3057078230304686,-0.08333060613585985,2.930946433658937
0.9344559752362733,2.6382020257858745,2.8232491371450816,-1.5528605692943305,-2.672945147331581,2.6809871939524044,-2.997058995107441,1.0811972797507643,-2.9608413335317634
0.9677286694402409,2.7827890197769722,2.8755880730356047,2.5690858070570624,-1.9196029256069156,1.7757498600211896,2.776260891642502,2.5838831105590847,-0.6094733686652254
0.9822414194156961,3.36880543758618,3.4297122591207505,1.208137623700349,-2.9510919856703812,1.3625922720485049,1.6014432310688642,-1.5517498400335905,1.5389398148702869
0.9705015123638785,2.8003407218902665,2.8854573498493536,-2.5604455141978524,-2.418898589900564,-0.04222126394114856,0.22368128280735133,-1.517547944365157,-1.6566447421826143
0.9899583498200251,2.441348445195918,2.46611228203667,2.69755450315341,1.5761435801623538,-0.4499608044868242,1.6612493779339692,-2.926470965102996,0.5569983720148657
0.9987622293991547,2.79302424373511,2.796485651460173,1.04089664469205,-1.1407480086169497,-2.1646130048912435,-1.372566123826071,1.447316486051884,-0.3067037444964531
0.9402484987879203,3.3032595285952393,3.513177136526663,1.5882708847063398,-2.794155727529457,1.912811211108873,-0.023374035510062008,-1.1923726916694455,1.1480784044844379
0.9811059539318786,2.606812130280235,2.65701387279649,-2.452647777677434,2.946893679940522,-1.3183418234254536,-0.710170199140399,1.7718266255431683,-1.809035519927622
0.9612333824513379,2.7077474834721276,2.816951151412187,2.8975040709212907,2.2092850171439657,-0.9751559008637516,0.9631856532047811,-1.233918064428815,-0.3122507949866331
0.9808086949654272,2.7976703230535755,2.8524118285392968,-2.545798309097706,1.286446036578825,2.1073005172470207,-1.1490276540853908,-2.9744427829071634,2.6100129980280924
0.9414194621848279,2.670802078244313,2.8369947568812393,2.1001779238749485,1.371915930006173,-0.7148954629014241,-1.969853295883062,-2.834041765261217,1.5939525527663205
0.9487329190691911,2.4517132191455095,2.5841974805205488,0.037316530578921814,-1.8528303213004993,0.8422069264388679,2.992652710176044,0.27331313766229126,0.7995495539710262
0.9631711747806504,2.409186874620536,2.501307075732615,-2.4115007844332506,-2.1596723322385993,-0.6793686602134383,-1.7276343596797248,-2.916736052091184,-0.9126244790537323
0.9439307703027722,3.0189655366852213,3.198291264217256,2.858795940839407,0.5993027749219451,3.052331305759589,-1.4717818934228146,0.9694755143256479,-2.8313613737495373
0.938566538800464,2.975715523704805,3.170489678342807,-1.9626211646255094,-2.3272393035805754,1.994333101286264,0.49852870652869896,1.6869369942720258,0.3499364049902538
0.9865791208789062,2.4398546931991585,2.473045132990027,0.337490271439826,1.540110634821776,-0.5133974810114807,-2.982617453326635,-3.1306410367116326,0.8491078493238553
0.9906630847987571,2.823198419208976,2.8498068238633114,2.268734400804872,3.0048338794579657,-3.1218912623693083,-1.5243387462630267,-1.269610822717525,0.7866416141094357
0.9644113639317119,2.462938803606802,2.5538259872487337,2.678062633720092,0.5415524255349182,2.3662500213402238,-0.828191430670739,-0.9764218134367666,-0.7710144454836643
0.9996428050273232,2.515567870762722,2.5164667400311695,-0.6111437741206118,3.1148637838265287,0.6367617924210864,-1.5860219935760083,0.39719114685098944,-0.17250118807161963
0.9593522402199521,2.701964271086881,2.816446512354417,-0.27901831169448155,-2.0986190443238115,-0.1470275094036353,-1.022918383622359,-0.3352218712390349,3.071280819370746
0.954907469607275,2.5409994412620422,2.6609902238036525,-2.1233206577360733,2.2878145213763723,0.006681954000894219,1.1326483738087783,1.0158595178338388,-2.33442166578144
0.9989815452753473,2.4083294247390614,2.4107846998066997,-0.5775875007408255,2.317818260350683,0.6876662373334836,-2.666028094346503,0.036819484422446536,1.634157267313844
0.9941634812849605,2.401077110697713,2.415173314950486,-2.448839092042293,1.472759138714208,-2.9442435393143014,3.0553747651749568,-2.9278100259063384,-0.5491077182547381
0.9885814101371642,3.3338024383244274,3.37230945690337,1.397052374481829,1.181345424306408,1.4294397640287109,0.13374532869126288,1.9501269433319415,-1.7840027550612467
